784 256 256
0.351606 -0.094196 0.294517 0.309858 0.423065 -0.291031 -0.154969 0.278049 -0.210911 0.066894 -0.011283 0.138895 -0.125336 0.023341 0.463778 0.427743 0.147401 0.227369 -0.348288 0.117076 -0.473853 -0.247328 -0.352962 0.315596 -0.331902 -0.087635 -0.358792 -0.379773 0.510306 -0.270325 0.024351 0.350530 0.124061 -0.192560 0.147360 0.034103 0.004910 0.485683 -0.196174 0.281396 0.036632 0.279866 -0.088225 0.403078 -0.204996 -0.137470 0.317834 0.429135 -0.420399 0.459125 0.035798 -0.402525 -0.296367 0.174635 0.401651 -0.139699 -0.424410 -0.468558 -0.030879 -0.425485 -0.250300 0.482053 0.412030 0.360781 -0.222139 0.051088 -0.113507 0.270203 0.021058 0.175466 0.040816 -0.451490 -0.053184 0.441131 0.440054 0.232042 -0.206251 0.248556 0.149788 -0.134542 0.199270 -0.322608 -0.048474 0.391493 0.340620 -0.158254 -0.259613 0.404791 -0.138230 0.198080 0.466290 0.098497 0.168321 0.369815 -0.049334 0.433751 -0.094048 0.321532 0.192444 0.419231 -0.008480 -0.274857 0.459518 0.431245 -0.342847 0.391121 0.150911 -0.056606 0.131026 -0.207533 0.297420 -0.181134 -0.041545 -0.262474 -0.301048 -0.212356 0.067890 -0.072052 -0.320544 0.416873 -0.385736 -0.362673 0.006327 0.269057 0.494669 0.443305 0.192718 -0.108539 0.258210 -0.121181 -0.195079 -0.256938 0.095487 -0.246913 -0.337603 0.241952 -0.363066 0.304882 -0.324486 0.256484 -0.414051 0.461523 -0.436052 0.032984 -0.312316 -0.248411 0.307367 0.242445 0.167060 0.477606 0.149604 0.269354 -0.397082 -0.355050 0.028661 -0.413010 -0.421216 -0.285049 -0.028263 0.328833 0.085114 0.265883 -0.436541 -0.332332 0.511409 -0.284229 0.401368 -0.363120 0.509154 -0.434546 0.379644 -0.418564 -0.486668 0.432640 0.100900 -0.309825 -0.325872 -0.097953 0.421702 0.327810 -0.141714 0.052192 0.077759 -0.048824 0.185860 -0.400627 0.029886 0.255325 -0.195541 0.491112 0.080573 0.387858 0.259560 0.140385 -0.453133 0.259279 0.344639 0.436750 0.382361 0.340217 0.488690 0.253633 0.410929 0.490975 0.175467 0.005563 -0.325871 0.332339 0.390446 -0.421623 0.149716 -0.242906 0.139341 -0.259588 0.208385 -0.174465 -0.170865 -0.269325 -0.424206 0.132668 -0.264469 0.162627 0.022219 0.482995 -0.208560 0.057516 0.228141 -0.377835 -0.019399 0.102544 0.451869 -0.043496 -0.156220 0.358664 -0.063023 -0.495700 -0.146288 0.107385 0.340843 -0.258538 0.184039 -0.007287 -0.008370 -0.184571 0.221981 -0.308719 0.130543 -0.460977 -0.085465 0.196470 0.185457 0.149106 -0.141490 -0.303975 0.118306 0.138055 0.241301 -0.160345 0.249365 -0.291268 0.420431 0.186481 0.154967 -0.233688 0.040485 -0.403837 -0.232422 0.384023 0.194028 -0.397159 -0.379042 -0.128590 0.089204 0.103326 0.176623 -0.202777 0.277763 -0.209588 -0.167031 -0.298770 0.495734 -0.485050 0.336247 -0.157605 -0.301175 -0.052146 0.468423 0.417693 0.265165 0.200573 -0.367799 0.195519 -0.108188 0.282386 0.449803 0.413846 0.360937 -0.296399 0.294298 0.057761 -0.199779 0.406281 0.419702 0.382036 0.008822 0.086981 -0.335007 -0.223361 0.375746 0.003564 -0.027487 0.359538 0.006006 -0.197463 -0.309984 0.182899 0.228712 -0.357805 0.115177 0.001838 0.347831 0.234117 -0.322771 -0.278660 0.006825 -0.369017 -0.350807 -0.137256 -0.169189 0.435289 0.420068 0.131507 0.347567 0.328337 -0.001184 -0.162301 -0.094511 0.169988 0.117765 -0.230436 -0.338233 -0.416176 -0.382029 0.146692 -0.126155 -0.200214 -0.155290 -0.397187 -0.070885 0.436292 0.083130 -0.225903 0.167753 0.272789 -0.001142 -0.331767 0.386345 0.128202 0.029302 -0.283503 0.067728 -0.063228 0.332669 -0.102875 -0.244434 -0.162748 0.238464 0.149286 0.495603 -0.150744 0.398349 -0.364835 -0.081072 -0.482852 0.296846 0.286932 -0.203570 -0.383564 0.373837 0.229530 -0.440887 -0.038945 0.496927 0.216683 -0.284974 -0.023328 0.376187 -0.397489 -0.389789 -0.104227 -0.186767 0.159847 0.320270 -0.357123 -0.439430 -0.435998 -0.031627 0.291749 0.192707 -0.057131 -0.371696 0.099323 0.088724 0.042114 0.097244 -0.135873 -0.186885 0.397270 -0.013350 -0.318330 0.119060 0.035520 0.121012 0.095355 -0.256916 0.338975 -0.416931 -0.388298 0.426454 -0.327621 -0.007095 -0.263334 0.335835 -0.198444 -0.132143 0.389140 -0.155278 0.315135 0.170753 -0.452294 -0.233199 0.279566 0.126350 0.335493 -0.185691 -0.272658 -0.294233 0.122066 -0.380612 0.175082 0.285178 0.218641 -0.287932 -0.087341 -0.171369 -0.053116 -0.266418 -0.111515 0.044012 -0.334108 0.064451 -0.474664 -0.109110 -0.106812 -0.186051 0.236844 -0.229383 0.159909 0.063001 0.431754 0.188454 0.311408 0.208169 -0.178777 0.155758 -0.482571 0.043701 0.345471 0.122271 0.143895 0.030272 -0.087756 -0.124646 0.231830 0.304768 0.180682 -0.335953 -0.455935 -0.427381 0.194777 -0.301689 0.129970 0.208841 0.067296 -0.488812 -0.483587 -0.184134 -0.227034 0.158272 0.359621 -0.316737 -0.148895 0.177715 0.390735 0.155591 -0.176449 0.388477 -0.312654 -0.330857 0.015018 0.333216 0.179779 0.406898 -0.297409 -0.094206 0.217329 0.377875 0.056523 0.249695 0.443773 -0.255760 0.428411 0.054475 0.436587 0.006203 0.063123 0.450355 0.309507 0.314900 0.096835 0.159185 0.497137 0.437601 -0.165232 0.379333 0.094117 0.142786 0.263817 0.279702 0.299079 -0.225680 0.115883 -0.018132 -0.321739 0.304449 0.374222 0.383739 0.175666 -0.076246 0.122682 0.099372 0.148292 0.040450 -0.340904 0.088977 -0.456551 0.211729 0.029221 0.343903 0.026405 -0.373388 0.003671 0.025185 -0.437046 0.328769 -0.102019 0.150746 -0.034835 -0.344476 -0.075419 -0.241751 -0.082004 -0.471359 0.228985 0.086556 0.326503 0.096138 -0.040527 -0.018530 0.497834 -0.438569 -0.423162 0.151195 0.108295 -0.266526 -0.269148 0.141663 0.436463 0.251896 -0.023214 -0.046696 0.364910 0.466907 0.462661 0.412151 0.280077 -0.154913 0.048220 -0.269461 -0.011045 0.461188 -0.023096 0.395363 0.478478 -0.303339 -0.029049 0.293074 0.278811 0.416857 -0.239091 0.264158 0.466292 -0.165365 -0.086089 0.073137 0.066524 0.132489 -0.298550 -0.017709 -0.135803 0.157751 0.420582 -0.276309 0.119672 0.376404 -0.378755 -0.115022 -0.289578 0.158353 0.104039 0.187618 0.107460 -0.429861 0.073725 0.076021 -0.244858 -0.468756 -0.144086 -0.487695 0.426909 0.104633 0.273900 0.390394 0.434575 -0.325402 -0.050180 -0.008756 0.299436 0.143032 0.478618 -0.331707 -0.194042 0.393725 -0.123052 0.410849 0.259057 -0.012775 -0.215781 0.457739 -0.366575 0.376749 0.134266 0.229910 0.435929 -0.304542 -0.206323 -0.321399 -0.285603 0.137521 -0.312322 -0.361885 -0.261365 0.458035 -0.474811 -0.327603 -0.368284 -0.026632 0.160054 0.426759 -0.387724 0.125637 -0.418024 -0.094833 0.007852 -0.051994 -0.195414 -0.244661 0.423495 0.077117 -0.298340 -0.454325 -0.057050 0.325011 0.264502 -0.132479 0.509062 -0.453214 0.034666 -0.287939 0.172869 0.211022 -0.160934 0.401138 0.158497 -0.146962 -0.438270 0.278279 0.314749 0.210122 0.193331 0.415605 -0.175652 0.263897 -0.190658 0.320652 -0.299655 0.102242 -0.435436 -0.387586 -0.331619 -0.244754 -0.352711 0.100268 -0.430821 0.400673 0.456622 -0.432864 0.436630 -0.019528 -0.231405 0.098820 -0.319370 0.096162 -0.012070 0.327127 0.437487 0.037944 0.093672 0.240806 -0.263346 -0.224420 0.144994 0.049453 -0.472072 0.442643 -0.141340 -0.283161 0.033914 -0.087729 -0.181551 0.191214 0.156423 -0.045365 -0.219694 0.214451 -0.155722 -0.274057 0.270845 -0.230100 0.195358 -0.472249 0.356697 0.363989 0.112185 -0.167113 0.179369 0.038251 0.359418 -0.238382 -0.232364 -0.415487 0.025660 0.401090 0.122690 0.042311 0.332749 0.470375 0.248155 -0.144633 -0.128650 -0.444667 -0.464719 -0.483506 -0.001322 -0.195706 0.219670 0.331712 0.018990 -0.020949 -0.410176 -0.297450 -0.004930 0.434799 -0.445187 
-0.425816 -0.265369 0.201055 0.100946 -0.417371 0.451336 0.357584 -0.343841 -0.031385 0.249030 0.269296 -0.502909 0.069168 0.227053 0.234327 0.413341 -0.412873 0.278358 0.437047 -0.408653 -0.235893 -0.271409 0.299945 -0.415089 0.236539 -0.233086 -0.336927 0.427487 0.250669 -0.413549 0.470877 0.335041 -0.168765 0.182158 -0.053435 -0.075595 0.146697 -0.184276 0.092244 -0.379914 -0.428112 -0.131412 -0.372371 0.150588 -0.394818 0.371399 0.072990 -0.299273 0.157531 0.018079 -0.197493 0.433086 0.258070 -0.388147 -0.471966 0.004639 -0.110998 -0.298667 -0.057657 -0.350073 -0.201953 -0.076398 -0.504727 0.139812 -0.381069 -0.044858 -0.422543 0.269575 0.275764 0.174419 0.400220 0.357297 -0.447215 -0.462809 0.017918 -0.332734 0.418162 -0.400250 -0.121828 0.086010 0.128213 0.190037 0.029121 -0.103681 0.312196 0.067383 0.411319 -0.288507 0.279104 -0.135971 -0.128290 -0.412430 0.300830 -0.119313 0.240695 0.423680 0.339303 0.321467 0.204501 0.125436 0.006348 0.114591 -0.006793 0.068812 0.161937 -0.480440 0.245972 0.089379 -0.371277 -0.366287 -0.314329 0.267183 0.334052 0.225012 -0.326205 0.156429 -0.197279 -0.403113 0.379763 -0.405539 -0.022952 -0.232904 -0.303155 -0.219232 0.149665 0.435640 -0.288641 -0.003611 0.266307 0.424031 -0.370279 -0.218880 0.051134 0.133415 0.363036 -0.277817 0.164260 0.120152 0.323423 0.303865 0.263072 -0.481776 0.080113 0.108724 0.254955 0.265715 -0.224318 -0.430778 0.371270 -0.336679 -0.328522 -0.151178 -0.073304 -0.137414 0.132299 -0.410611 -0.185833 0.357729 0.094025 -0.410254 0.291692 0.238417 -0.112254 -0.145263 -0.116436 -0.238357 0.089123 -0.442212 0.391413 -0.077990 0.370904 0.165915 -0.048296 -0.036321 -0.207604 -0.277763 -0.257113 0.072087 -0.204302 -0.387255 0.229967 -0.038678 -0.032140 -0.321632 0.346056 -0.372055 -0.211898 -0.321540 -0.502056 0.391525 -0.221054 0.297082 0.140330 0.177498 -0.333251 -0.464068 0.450916 0.266391 -0.395914 0.352552 -0.294034 0.491890 0.034224 0.153318 -0.048343 0.322465 0.388259 0.206750 -0.105233 -0.311059 0.330674 -0.349409 0.167231 -0.176397 -0.153635 0.026426 -0.059525 0.123697 0.200940 -0.052761 0.029976 -0.504921 -0.240732 -0.317725 0.184506 -0.064758 -0.272365 0.151535 -0.282400 -0.153329 0.003587 -0.087550 -0.165104 -0.455742 -0.415476 0.302172 0.365156 0.476047 0.015830 -0.217014 -0.312931 -0.134238 -0.069241 0.341608 0.170509 0.268014 -0.130444 -0.375239 -0.082343 -0.405996 0.090726 0.458758 -0.401086 0.358777 -0.355188 0.296865 -0.193469 -0.111742 -0.063584 0.008825 0.227335 0.459024 0.448631 -0.420949 -0.491027 -0.456594 0.394105 0.397628 -0.454280 -0.084530 -0.324873 -0.292215 0.263486 0.099760 -0.447270 -0.058590 -0.104983 -0.049782 0.093165 0.326655 0.053037 -0.307987 0.293013 0.166869 -0.434965 0.456735 -0.043078 -0.135710 -0.152408 0.419878 0.404355 -0.400546 0.392984 0.370887 -0.304000 0.431179 0.438937 -0.408391 0.313253 0.461954 -0.002949 -0.508186 -0.323917 -0.227621 0.113935 -0.248129 0.239513 -0.471931 0.211749 -0.159568 0.361803 -0.217825 0.048857 0.173287 0.443737 0.109072 0.136221 -0.073083 -0.498568 0.496111 -0.147177 0.420882 -0.402979 -0.225880 0.301578 -0.210179 -0.320235 0.224134 -0.128945 -0.499632 0.186644 0.378385 -0.498477 0.376272 -0.331930 0.130577 -0.361768 0.415381 0.165602 0.361330 -0.225833 0.045032 -0.350673 0.314690 -0.286429 -0.385623 -0.050131 0.356389 0.031053 -0.042035 0.354829 0.415429 -0.116315 0.456415 -0.331505 -0.315559 -0.256961 -0.144514 0.406711 0.116868 -0.143146 0.105770 0.008778 -0.129737 -0.006838 0.185404 -0.490854 0.141148 0.110445 0.182303 0.016899 0.390860 -0.263038 0.174716 0.220461 -0.047534 0.279800 -0.328535 -0.189796 -0.172029 0.130639 -0.316565 -0.258005 -0.474280 -0.363504 -0.083155 -0.302363 -0.129610 0.268286 -0.379730 -0.495718 -0.363525 0.236502 0.021923 0.014804 -0.261897 -0.284417 0.031636 0.382532 0.329539 -0.274165 -0.088651 0.233378 -0.035240 -0.415958 -0.045700 0.431302 0.375437 0.135762 -0.243553 -0.294239 -0.227630 -0.060395 -0.040832 -0.204812 0.072346 0.366738 0.005509 0.463328 0.145291 0.135911 0.476443 0.289816 -0.119147 0.006453 -0.187642 0.122634 0.224583 0.352637 0.022740 0.075236 -0.404970 0.447668 -0.186629 0.067896 -0.459921 0.282086 0.009953 0.420582 -0.071906 0.280598 -0.354397 0.201860 -0.281791 0.087851 -0.501369 0.310488 -0.035421 0.014144 0.282374 -0.382093 -0.341480 0.266940 0.415540 0.043529 -0.225647 -0.260633 -0.307273 -0.467950 -0.392745 0.214448 0.104218 -0.291237 0.183601 0.441604 0.281627 0.215984 0.222954 -0.199565 0.147228 -0.350962 -0.424178 0.275282 0.350178 -0.185803 -0.126910 0.358775 -0.366750 0.345749 -0.118980 0.423645 0.471389 0.044362 0.190707 0.398893 -0.386414 -0.499842 -0.358394 -0.202148 -0.476144 -0.231444 -0.459224 0.150234 -0.030657 0.206837 0.083111 -0.237078 -0.064450 -0.191775 0.058718 -0.428485 -0.040765 0.154791 0.356121 -0.181052 0.477338 -0.262298 -0.314028 -0.381313 -0.409133 0.075744 -0.446047 -0.415909 -0.362156 0.262031 0.472026 -0.259272 0.251878 -0.363127 0.066948 0.305424 -0.093362 0.087161 -0.057833 0.389875 -0.181663 -0.465385 -0.356692 0.238280 -0.159405 0.221857 0.318811 0.307780 -0.116099 0.182282 -0.363519 -0.129182 0.430190 -0.170162 0.006294 -0.455966 0.413554 0.058133 -0.392057 -0.451802 -0.180796 -0.401173 -0.184744 -0.388267 -0.247317 0.383516 0.400093 0.164574 -0.014893 -0.157015 0.043278 0.290260 -0.118193 0.207380 0.038591 0.230282 -0.063286 -0.135200 0.047764 0.330300 -0.441252 0.196297 -0.278473 -0.485084 -0.465738 0.216735 -0.464289 0.447778 -0.222605 -0.350606 -0.478345 0.129315 -0.218559 -0.137090 0.245682 0.044043 -0.254092 0.135683 -0.304478 0.226917 -0.507589 0.255529 0.028234 -0.117244 -0.029211 -0.425990 -0.377404 0.416770 -0.052064 0.184698 0.264400 0.025591 -0.110929 0.476278 0.020940 -0.074894 0.201031 0.062904 -0.108710 -0.500371 0.233469 -0.069086 0.138328 -0.474111 0.297727 -0.121909 0.053201 -0.458941 -0.476064 0.264241 0.282490 -0.473778 0.029232 -0.180876 -0.081220 -0.490225 -0.097307 0.056329 0.445157 0.370882 -0.252378 0.208316 -0.114995 0.136532 0.194212 0.421072 -0.423168 -0.089399 -0.002398 -0.013222 -0.066090 -0.246784 0.434866 -0.423648 -0.223958 0.234358 -0.036793 0.349755 0.293819 -0.001987 0.124889 0.086595 0.034691 -0.335284 0.416182 0.468519 -0.306400 -0.161698 0.030748 -0.366526 -0.297871 0.283422 0.352275 0.103502 -0.066646 0.062349 0.038434 0.026049 0.493135 -0.440310 -0.474072 -0.073813 -0.190412 0.463052 0.008757 0.102963 0.212081 0.482923 -0.036416 0.016772 -0.008769 -0.401144 -0.386100 -0.459488 -0.221968 -0.450572 -0.480143 -0.026645 -0.115527 0.053238 0.118293 0.097920 -0.154307 -0.019975 -0.286928 0.286557 -0.449942 0.263554 -0.178677 -0.463671 0.310430 -0.149370 -0.030093 -0.367337 -0.180987 0.489011 0.245844 -0.458545 0.482165 -0.280261 0.068396 -0.016432 -0.171163 0.202198 0.039465 0.120194 0.250570 0.059488 -0.399231 -0.358390 -0.382029 0.225187 0.244135 -0.036434 -0.296627 0.459190 -0.240889 -0.245684 0.214270 0.085114 -0.196736 0.037316 0.436585 0.283523 0.180202 -0.234180 0.282808 -0.063819 -0.182662 0.275000 0.166205 0.397301 -0.226872 -0.491051 0.102580 0.313697 0.132962 -0.143583 -0.125263 0.231512 -0.004321 -0.010960 -0.042302 -0.253439 0.465277 0.171995 -0.290441 -0.270244 0.434471 0.430611 0.315669 -0.251970 -0.021836 0.262481 -0.458215 -0.331487 -0.461614 0.334563 0.115081 -0.133887 0.120055 -0.208075 -0.227157 0.399308 -0.192339 0.382316 0.218825 0.446414 -0.255763 -0.400884 0.187449 0.249608 0.099199 -0.345078 -0.498310 0.069891 0.333669 -0.283414 0.305069 
0.303033 -0.317939 0.155704 -0.438741 0.170613 -0.071540 -0.385613 0.348466 -0.024108 0.455306 -0.027202 0.353913 0.089362 0.277937 -0.362958 -0.001496 -0.404607 -0.470037 -0.274370 -0.449725 -0.217186 -0.164449 0.248754 -0.456579 0.445748 0.414575 -0.444831 0.026015 0.258468 -0.217917 -0.158805 0.047249 -0.050182 0.482279 0.095190 -0.395271 -0.105133 0.189877 0.438335 0.359042 0.137309 -0.097768 0.198476 -0.289022 -0.335516 0.321478 0.193254 -0.256455 0.334587 0.406268 -0.218311 -0.395223 -0.270794 -0.482358 -0.366209 -0.339453 0.418799 -0.324460 0.173033 0.162907 -0.056751 0.498628 -0.304955 0.379966 0.468643 0.273578 0.467695 -0.150677 -0.045852 0.395814 -0.307121 -0.425268 -0.218706 0.375826 -0.231906 -0.070853 0.182408 0.452720 0.164448 0.004862 0.343978 0.430662 0.094532 -0.441198 0.434887 0.214857 -0.294094 0.338280 0.374879 0.362499 -0.014445 -0.195590 0.348849 0.164558 -0.336388 0.299715 -0.073821 -0.380390 -0.368367 0.361389 0.497374 -0.190887 0.418407 -0.236929 -0.327610 -0.319382 0.186261 0.342068 -0.384186 -0.167292 -0.168830 0.445431 -0.250150 0.412024 0.490786 -0.330610 0.111801 -0.318714 0.492725 -0.028099 -0.470742 -0.039429 0.255420 0.358802 -0.389710 0.407740 0.144129 0.021336 0.508780 0.259798 -0.133495 0.492740 -0.440283 -0.221071 -0.250933 -0.281713 -0.057270 0.417444 -0.456461 0.042859 -0.261907 -0.137244 -0.023439 -0.027059 -0.240796 -0.049555 0.126314 0.355284 0.116836 0.102451 -0.190191 0.127843 -0.452667 -0.448005 -0.024358 -0.354033 0.444009 -0.395618 0.151235 0.439734 0.353921 0.510500 0.422545 0.399219 -0.228053 -0.343160 -0.397404 0.200649 -0.435879 -0.364382 -0.266783 -0.212539 -0.017159 0.191986 0.243571 0.226451 -0.370884 -0.145127 0.067940 0.228688 0.439491 0.360568 -0.154279 0.476225 0.397790 0.306038 -0.394189 0.327846 0.401420 0.251888 0.257897 0.243307 0.243925 0.165607 0.127106 0.503076 0.312060 0.218822 0.192969 0.360900 0.338844 0.409249 -0.367722 -0.194127 0.087739 0.358499 -0.481590 0.200810 -0.300812 0.067590 -0.085580 -0.376276 -0.083905 0.249948 -0.410953 -0.201543 0.041078 -0.314171 -0.384541 -0.067111 0.422200 0.359294 -0.342377 0.150056 0.010826 0.273139 0.142465 -0.192211 -0.022884 -0.180693 -0.347224 -0.201405 -0.287733 -0.233050 0.091542 0.290125 -0.381483 0.094450 -0.028323 -0.202656 -0.354012 0.376105 -0.087608 0.047469 0.108076 -0.011564 0.335191 -0.354353 0.160972 0.434381 0.061388 0.066739 0.277524 0.206189 -0.296109 -0.226897 -0.036015 0.329894 0.065078 0.423079 -0.367517 0.201160 -0.288220 -0.160294 0.462133 0.286778 -0.394194 -0.442743 -0.133199 0.067132 -0.155855 0.001468 -0.071402 0.243394 -0.466237 -0.466578 -0.279665 0.352101 -0.337905 0.365453 0.271616 0.208768 -0.082862 0.034173 -0.100929 0.104107 0.290425 0.345279 -0.081364 -0.161255 0.259412 0.042324 -0.469982 0.453034 0.358809 0.470209 0.224553 0.451312 -0.483061 -0.419239 0.006823 -0.152801 0.064178 0.429243 -0.419393 0.083896 0.445663 -0.217288 -0.079345 -0.406664 -0.367231 -0.323226 0.286601 0.033131 0.194101 -0.331137 -0.376745 -0.030959 0.504720 0.028458 0.295298 0.248800 -0.444303 0.312399 0.184060 0.400637 0.270949 -0.102277 0.342024 0.273852 -0.039421 -0.162081 -0.390298 0.514055 -0.245611 -0.326634 0.081511 -0.314867 -0.058425 0.486392 -0.236867 0.057733 -0.353358 -0.466978 -0.423001 0.325706 -0.309768 -0.315688 -0.218760 -0.322600 0.198380 -0.435234 0.405807 0.237279 0.363164 0.080232 0.128005 0.120112 0.462742 -0.043000 -0.117334 -0.083829 0.283977 -0.023372 -0.086230 -0.475214 0.137229 0.479679 -0.305365 -0.438563 0.448800 -0.059072 0.106134 -0.419971 -0.040163 0.167224 0.394179 0.136024 0.335917 -0.338665 0.295112 0.020345 -0.288448 0.189132 -0.253825 -0.437337 -0.242209 0.362843 0.171334 -0.289331 -0.191771 -0.461560 0.110531 -0.420518 0.003955 0.508763 -0.410517 -0.375711 0.471621 -0.234515 -0.329475 0.402205 0.192105 0.262779 0.475683 -0.356530 -0.080766 0.358914 0.262781 -0.260634 0.500924 0.040345 0.241948 -0.295706 -0.279321 0.480409 -0.249426 -0.035971 0.328140 0.408182 0.160448 -0.376323 0.435471 -0.243968 -0.311632 -0.077174 -0.251957 -0.242120 0.030256 -0.299642 0.012909 0.193533 -0.398125 -0.300984 -0.058485 -0.436999 -0.175496 0.344258 0.399550 -0.436229 -0.439993 0.390099 0.094355 0.296540 -0.421600 0.300378 0.262003 -0.182711 -0.246673 0.079964 -0.285377 0.398653 0.188732 -0.364751 -0.363085 0.357493 0.041150 -0.131087 -0.394046 -0.434614 0.067180 0.111657 0.242232 0.154381 0.290164 -0.333467 0.195152 -0.407041 0.489814 0.083172 -0.354987 -0.455195 -0.037483 0.229906 0.328179 0.028839 0.020502 0.081164 0.335163 0.258127 -0.354530 -0.465590 0.138709 0.314141 -0.349280 0.260139 0.161422 0.183923 -0.375354 0.260771 0.230152 0.176421 -0.145817 -0.043231 -0.191312 -0.374235 0.103888 0.493658 -0.292847 0.087794 0.068184 -0.155299 0.119790 -0.480192 -0.434891 -0.061260 0.037293 0.069432 0.503424 -0.143711 -0.189229 -0.369981 -0.127764 0.434896 0.437258 0.016851 0.189947 0.089524 -0.319692 0.298194 -0.170030 0.395762 -0.044927 0.167590 -0.163300 0.256477 0.282304 0.431989 0.239534 0.479366 0.008419 -0.203358 -0.184293 -0.381973 -0.195589 -0.135385 0.040530 0.325415 0.419559 0.026465 -0.337328 -0.286490 0.147994 0.030204 -0.357157 0.074634 -0.474297 0.314661 -0.356215 -0.307179 0.095601 -0.041269 -0.425700 -0.457368 -0.384831 -0.099965 0.285146 0.385349 -0.179637 0.011071 0.355756 0.318108 0.296244 -0.345024 0.419627 -0.416025 0.004278 -0.055686 0.392432 -0.093849 0.460138 -0.451857 0.114214 0.097721 0.058126 0.237663 -0.349834 0.070679 0.037464 -0.220603 0.251036 -0.375473 0.227234 0.312329 -0.347361 0.329559 -0.300136 0.423383 0.204907 0.009835 -0.076146 0.045105 -0.188020 -0.296606 0.184408 -0.283781 -0.226932 -0.325744 0.147100 -0.346759 0.071784 0.094951 -0.314520 -0.331267 -0.326420 0.230536 0.392571 -0.188768 -0.209439 -0.078609 0.078373 -0.472763 0.031386 -0.205699 0.328556 0.170483 -0.387179 -0.482585 0.082241 0.302044 0.011539 0.489212 -0.168585 0.307750 -0.321160 0.501361 0.509605 -0.062265 -0.337668 0.142195 0.075583 0.217562 -0.279605 0.247094 0.372587 -0.116906 -0.030541 0.257925 0.183240 0.248720 -0.332994 -0.248552 0.264925 0.184924 0.032831 0.080650 -0.158143 0.130244 0.082736 0.407543 -0.083224 -0.421719 0.383022 0.232941 0.371771 -0.452376 0.221516 0.368093 -0.028771 0.369751 -0.003689 -0.466418 0.074383 0.204867 0.271870 -0.060701 -0.422746 -0.270570 -0.315633 0.248173 0.464827 -0.163473 0.484638 0.215039 0.506403 0.002213 -0.219773 -0.168022 -0.383737 0.346878 -0.274362 0.018005 0.410937 -0.406210 -0.262857 0.267854 -0.373993 0.442512 0.119801 0.082905 0.297380 -0.398171 0.105044 -0.139390 0.294676 -0.136620 0.285993 0.358481 0.079324 0.455042 0.091618 0.029118 -0.223529 0.060886 -0.271576 -0.233502 -0.453747 -0.007654 0.083965 -0.352741 -0.175347 0.294962 0.152345 -0.278984 0.373765 0.373209 0.472951 0.486296 0.301763 0.078616 0.055575 0.085916 0.167328 -0.353602 0.433029 -0.051437 -0.003635 0.203754 -0.208148 -0.439804 0.143699 0.367721 0.073787 0.403499 -0.087853 0.285629 -0.344558 -0.056256 -0.235981 0.225575 0.078614 0.074703 0.005789 -0.285435 0.279435 -0.134514 -0.426363 0.237764 -0.163045 0.361039 -0.196967 0.378917 -0.065741 0.456550 0.511683 -0.148143 -0.111017 -0.008036 -0.460684 0.165275 0.036728 0.167611 0.017776 -0.405184 0.056849 0.415057 0.365948 0.197711 -0.155094 -0.384690 -0.091348 0.408164 0.174652 0.399982 -0.391385 -0.060029 -0.249107 -0.332211 -0.336387 0.073905 -0.485180 -0.047724 -0.061614 -0.066239 
-0.175249 -0.079285 0.256710 0.255474 0.399673 0.282339 -0.101647 -0.052943 -0.018184 0.447802 0.028754 0.534246 0.393200 -0.029789 0.288212 -0.240127 0.050124 -0.366152 -0.445127 -0.339545 0.523966 -0.302793 0.045503 -0.330645 -0.225567 0.189896 0.235432 -0.219270 -0.379896 -0.347392 0.194376 0.000034 0.074126 -0.048885 -0.254812 -0.002739 -0.222228 0.195880 0.418837 0.228828 0.154363 0.014393 0.274520 -0.001691 0.345057 -0.114726 0.036503 -0.257055 -0.062526 0.113245 -0.185809 -0.214364 0.163197 0.347917 -0.032195 0.449768 0.036114 -0.296740 -0.268771 0.153890 -0.153425 0.400453 -0.378205 0.389774 -0.157504 -0.183180 -0.191044 0.035938 -0.466719 -0.258899 -0.238057 0.095101 0.112998 0.391114 -0.508610 0.067849 -0.178021 0.098253 0.116372 0.067945 -0.411600 0.471063 0.399982 0.230185 0.327485 -0.124244 0.229877 -0.134528 0.072743 0.440595 -0.506012 0.407098 0.379185 -0.377895 0.315892 -0.276244 0.102948 -0.218354 0.418864 0.170951 0.023731 -0.338796 -0.171884 -0.040641 -0.257858 -0.032491 0.267966 -0.124420 0.458578 -0.027752 -0.480697 -0.434753 -0.045892 0.426559 0.350635 -0.234437 -0.225499 0.073959 0.123219 0.365045 0.041431 0.133163 0.284201 -0.103825 0.350655 0.214712 0.373332 0.143053 -0.410325 0.181706 -0.241767 0.232548 0.283946 0.039932 -0.557701 -0.450008 -0.432462 0.385580 0.003778 -0.457228 -0.137042 0.025139 -0.392719 0.303382 -0.060493 0.447722 -0.437614 0.243944 0.066223 0.137868 -0.051339 -0.622427 -0.225425 -0.199802 -0.036249 -0.218570 -0.357877 -0.305807 0.353836 -0.057058 0.456232 -0.296855 0.396365 0.383734 0.291829 -0.423023 0.483120 0.311646 0.441274 -0.016885 0.317053 -0.255092 0.452457 0.416026 -0.458744 -0.061312 0.451162 -0.356449 -0.387066 -0.108193 0.261065 0.263179 -0.159122 -0.265010 -0.345830 -0.520187 0.098044 0.200800 0.060093 0.328667 0.449412 -0.082643 0.172083 0.302417 -0.231368 -0.112772 0.359108 -0.223500 -0.309347 0.256028 0.166187 -0.578064 -0.574554 0.155491 0.437357 -0.501027 -0.481820 0.362352 -0.292348 -0.122815 -0.375741 -0.454356 -0.574906 0.274408 -0.330786 -0.160958 0.325839 -0.234853 0.375745 -0.144731 0.300868 0.177547 0.134920 -0.124654 -0.005816 0.462569 0.291129 -0.215737 -0.350706 0.369452 -0.486391 0.330235 -0.584984 -0.462730 0.184172 -0.580212 -0.396774 0.337383 0.452800 0.029473 -0.630795 -0.262549 0.072286 -0.335390 0.403222 -0.139760 0.017619 0.373330 -0.001229 -0.091552 -0.349190 -0.221371 -0.391280 0.303802 0.133627 0.068753 0.234845 -0.122907 0.382351 0.469442 0.029776 -0.407374 0.555635 0.103651 -0.282309 0.154928 0.170631 0.073843 -0.229592 -0.055990 -0.348736 0.168952 0.084593 0.384628 0.208811 0.121329 -0.343533 -0.247366 -0.075452 0.123455 0.177958 0.074205 0.340868 0.234540 -0.169681 -0.005968 -0.164421 -0.329918 -0.482747 -0.233518 -0.695685 -0.267871 -0.175911 -0.417751 0.549591 0.167601 0.098397 -0.114043 -0.631249 -0.394812 0.151011 -0.585850 -0.084532 -0.214616 0.353098 -0.321470 0.388400 0.493155 -0.029703 -0.248044 0.086638 -0.418884 0.284875 0.031720 0.496186 -0.190230 -0.482408 -0.238825 -0.248016 -0.376125 0.445956 0.300047 0.400032 -0.121477 0.192801 0.049703 0.315086 -0.054842 -0.708044 0.254425 -0.100105 0.292078 0.378455 -0.497212 -0.367869 0.367872 -0.158012 -0.501459 0.332324 0.340347 -0.218724 -0.021118 -0.419834 -0.339883 0.490323 0.385283 -0.076027 -0.184414 0.098547 0.560780 -0.131753 -0.258171 -0.046062 0.352288 -0.206479 -0.358869 -0.182910 -0.437323 -0.112548 -0.138107 0.419294 0.435963 -0.346779 0.377015 -0.405925 -0.140027 0.222934 -0.033532 -0.088258 0.113685 -0.204004 0.198271 -0.493982 -0.242311 0.436830 -0.263646 -0.029765 -0.151946 -0.281084 0.329575 0.552903 -0.095120 0.382487 -0.156228 -0.398526 -0.430960 -0.368244 -0.040400 -0.332716 0.261697 0.353529 -0.488306 0.205099 -0.461685 0.348608 0.253970 -0.140776 0.111921 -0.320626 0.248025 -0.223986 0.052798 0.195073 -0.022896 0.375264 -0.215108 0.136485 0.165488 0.006186 0.091238 -0.324974 -0.119419 0.389256 0.296299 -0.010438 -0.638262 0.401909 0.495213 0.016125 -0.481405 0.205067 -0.137412 -0.442804 -0.069004 -0.074029 -0.494999 -0.224938 0.463477 0.340026 0.071767 0.315326 0.566792 -0.408660 -0.161036 0.002016 -0.054859 -0.055437 0.112482 0.123777 0.474638 -0.319336 0.101996 -0.262025 0.354249 -0.191884 0.467100 0.416566 -0.439238 0.305609 -0.016433 -0.274901 0.124373 0.386700 -0.117562 -0.156717 0.075348 0.139586 0.084271 -0.260297 -0.258034 -0.411277 0.610019 -0.144677 -0.153432 -0.535564 -0.058100 -0.031662 0.221140 0.674740 0.606638 -0.082532 -0.532996 -0.167378 0.158022 -0.518717 0.121586 -0.036007 -0.615246 0.276613 -0.047249 -0.055406 -0.478666 -0.272012 0.009276 0.009075 -0.057445 0.441127 -0.402206 0.398809 -0.256683 -0.160909 0.484383 -0.558909 -0.141313 -0.268165 -0.311529 0.183929 0.155051 0.012162 -0.060831 -0.125839 0.470114 0.027177 0.164515 0.154176 0.109307 -0.221927 -0.356397 -0.001989 -0.486217 0.243415 -0.249724 -0.217882 -0.376365 0.228032 0.422343 -0.087207 -0.022032 0.304982 -0.189834 -0.087132 0.569273 -0.096279 0.215480 -0.240762 -0.013566 0.126505 0.328027 0.369587 -0.366602 -0.205649 -0.258516 -0.368739 0.389445 0.392388 0.264062 -0.019073 -0.298367 0.548824 -0.190916 -0.255427 0.255441 -0.321907 0.055909 0.271889 0.380713 -0.137615 -0.164423 -0.365053 -0.386082 0.319225 0.396662 0.693495 0.388710 -0.334937 -0.265598 -0.416554 0.148924 0.426062 0.452954 0.270073 -0.275801 -0.297166 0.437404 -0.319858 -0.384525 0.173638 0.098686 -0.404443 0.026101 0.051151 0.088547 -0.089648 0.469491 -0.427516 -0.331119 -0.093548 -0.063650 -0.043401 0.078395 -0.050605 0.489455 -0.191385 -0.175989 0.069230 -0.276061 -0.086516 0.148170 0.407874 -0.048010 0.209093 0.273253 0.307583 0.446947 0.213148 -0.452993 -0.435755 -0.112037 0.210929 -0.082194 -0.223049 0.234240 0.642113 0.282793 -0.240695 -0.544451 0.303819 0.601973 -0.020329 -0.268462 0.072440 0.142613 -0.395545 0.273427 0.463101 0.170009 -0.432035 -0.003527 0.005821 -0.449602 0.464936 -0.290734 0.263776 0.257604 -0.438111 -0.163531 0.203469 -0.356226 0.427503 -0.005885 0.167983 -0.350110 0.250674 -0.264447 -0.044114 -0.267669 0.073639 0.046728 -0.235465 0.383015 0.275313 0.288860 0.082635 0.307174 0.050928 0.066675 0.043712 0.128059 -0.459454 -0.503793 0.046888 -0.610647 -0.455756 -0.203479 0.295974 -0.140721 0.438749 0.244453 0.182812 0.425901 -0.509850 -0.479656 -0.732311 -0.481653 0.234714 0.157226 -0.161237 -0.156659 -0.208403 0.202380 -0.157705 -0.449826 -0.036236 0.404034 0.355631 -0.486703 -0.010232 -0.068156 0.136326 0.032823 -0.091245 -0.174237 0.149634 0.207620 0.242730 -0.059581 -0.457702 0.079244 -0.526283 -0.017348 -0.241663 -0.275832 0.510690 0.067148 -0.094427 0.327376 -0.140211 0.402136 -0.222444 0.164453 0.102404 0.117715 0.212546 -0.431568 0.038002 0.087152 -0.403109 -0.491566 0.471698 0.218763 0.045829 -0.051479 0.522314 -0.504829 -0.585816 0.023236 0.025877 -0.409933 -0.304590 0.112647 0.330708 0.269063 0.323977 0.240331 -0.184007 -0.255655 0.080278 0.142463 -0.355606 0.355731 -0.195188 0.241294 -0.043013 -0.496688 0.300175 -0.521658 0.049998 0.405961 -0.477981 0.113349 0.189683 0.126711 -0.461225 0.208483 0.226893 -0.399250 -0.176472 -0.243290 -0.335402 0.104535 0.332514 0.427440 -0.148409 0.159843 0.163337 0.140744 0.404256 -0.256312 -0.216724 -0.449103 -0.409250 0.079642 0.290271 0.064066 0.096122 0.135345 0.096165 -0.318774 0.029129 0.069509 0.286040 -0.284247 -0.311660 0.292940 0.401271 0.398440 0.365703 -0.255225 -0.355313 -0.490669 0.331062 0.468868 0.421767 -0.336274 
0.058987 0.104474 0.322912 0.051275 0.346932 -0.394277 0.143848 0.495069 0.259455 -0.121629 0.002660 -0.254297 -0.505034 -0.399148 0.004657 0.095118 0.207602 -0.201846 0.293328 0.392627 -0.348910 0.260644 0.385997 0.506783 0.492629 0.468860 0.498284 0.305938 0.436880 0.418277 0.466832 0.064531 0.002431 0.271039 -0.360996 -0.122074 0.422225 0.155771 -0.263429 -0.024538 -0.471477 0.254161 0.311739 -0.416166 0.347371 -0.194815 0.128801 0.056148 0.160013 0.005950 0.062615 0.271082 -0.279673 -0.182011 0.234578 -0.330543 -0.225337 0.218997 0.460348 -0.304695 0.133713 0.397231 0.219622 -0.418034 0.154762 0.267139 -0.108743 -0.104886 -0.099330 0.082524 -0.553652 -0.032865 -0.139475 0.319874 0.072098 -0.245262 -0.352383 -0.225674 0.378968 0.262034 0.244281 -0.151256 0.025976 0.354830 0.157034 -0.251356 -0.418788 0.408676 0.456221 0.503427 -0.443486 0.015347 0.401455 0.249428 0.100711 -0.057656 0.040923 -0.541807 -0.514435 -0.486742 0.119244 -0.467924 0.056063 -0.441945 0.371399 -0.297015 -0.132778 0.497821 -0.051242 -0.313556 0.284324 -0.359642 0.024181 -0.202586 -0.439025 -0.375994 0.015261 -0.314394 -0.348500 0.021444 -0.282973 -0.359980 0.541016 0.484240 0.341166 -0.044283 -0.073236 -0.164151 -0.026655 0.019253 0.060972 -0.254399 0.062237 -0.490123 -0.242617 -0.046040 -0.210939 0.194285 0.022074 0.251700 0.309075 -0.266331 0.362080 -0.152205 0.012941 0.407883 -0.002919 0.555615 0.509779 -0.057513 -0.030273 -0.488175 0.097681 -0.158693 -0.597336 -0.171382 0.492497 -0.015584 0.310167 -0.073029 -0.487873 -0.235763 0.175665 0.181700 -0.003302 -0.449736 -0.299306 0.275615 0.225477 0.193557 0.008605 0.045438 0.390120 -0.241576 0.191461 -0.290761 -0.468542 -0.456934 -0.330818 0.237285 0.050875 0.166819 -0.531197 -0.470805 -0.460701 -0.407151 0.089170 0.380465 0.014264 -0.212554 0.018120 0.203042 0.267734 -0.275823 -0.046208 -0.306834 -0.286179 0.114312 0.523395 0.437094 -0.327777 -0.210701 -0.467762 0.023415 -0.509504 0.355748 -0.052951 0.357152 0.843996 -0.010758 -0.344661 -0.243668 -0.602832 -0.139481 -0.008078 -0.446199 -0.079877 -0.423094 -0.438150 -0.470217 0.000738 0.024762 0.291455 -0.303578 0.182506 -0.294286 -0.007700 0.465134 0.322992 -0.157158 -0.001356 -0.029535 -0.340558 0.312233 0.298898 0.639117 0.296639 0.047578 -0.616014 -0.347045 -0.740982 -0.066124 -0.665677 -0.430877 -0.408561 0.211344 -0.124749 0.151379 0.350604 -0.141880 0.232953 -0.188762 0.360085 0.064668 -0.050829 0.102311 0.361992 0.354780 -0.247828 -0.449287 0.313667 0.280313 0.503661 -0.032748 0.086408 0.059787 -0.662076 0.233848 -0.458210 -0.260657 0.022453 -0.128996 -0.409208 0.055985 0.174447 -0.136368 -0.203957 0.552174 0.554561 -0.408037 -0.098559 0.281838 -0.175405 -0.337997 -0.285959 0.189386 0.240765 0.318362 -0.108045 0.291293 -0.543849 0.110801 0.262155 -0.029418 0.530565 0.649671 0.262039 0.411532 0.286119 0.200932 -0.094427 -0.387862 -0.249902 -0.015272 0.374348 -0.358567 0.416596 -0.353677 -0.407504 0.442832 -0.408810 -0.074070 0.153962 -0.041682 0.355109 0.513176 -0.308438 -0.390665 -0.213524 0.088590 0.739412 0.372131 -0.199681 -0.107187 0.428756 0.431583 -0.160879 -0.109075 0.385424 -0.587429 -0.173772 -0.184437 0.081176 0.345608 0.477483 -0.141074 0.456702 0.338299 -0.091366 -0.382636 0.359053 0.064029 0.051641 -0.040715 0.460285 0.440622 -0.241177 -0.395287 -0.072742 0.473240 0.375944 -0.456537 0.244442 0.504908 0.079406 -0.297543 0.075666 0.011050 0.108105 0.103764 0.411891 -0.345849 0.498351 -0.063520 0.490277 0.394755 0.263397 0.452148 0.355205 -0.317017 0.521381 0.079845 0.111204 -0.186933 0.463050 0.041523 0.004604 -0.391989 0.244547 0.079325 -0.222305 0.241630 0.131793 0.302468 -0.157113 -0.531606 -0.405711 -0.263017 0.326036 0.418362 0.380630 0.087448 0.510649 0.376836 -0.378517 0.444299 0.232358 0.454654 0.428350 -0.040432 -0.604568 0.241837 -0.567009 0.082512 -0.395535 -0.907744 -0.232543 0.184592 -0.180655 -0.289031 -0.144402 -0.054696 0.009267 0.249164 -0.216096 -0.412789 0.395318 -0.251102 -0.248718 0.023599 -0.454484 -0.414987 -0.139398 -0.435811 0.450774 0.033923 -0.415984 0.251873 -0.183610 0.254471 -0.260687 0.026260 0.174170 -0.381978 -0.188481 -0.330500 -0.192110 0.295109 0.274909 0.030759 0.278100 0.414599 0.588490 0.126359 0.261818 -0.385243 -0.074959 -0.209319 -0.424606 0.202477 -0.323086 -0.085039 0.319009 0.060223 -0.048358 0.182366 -0.646888 -0.326071 -0.285986 -0.006375 -0.127356 0.058767 -0.365804 -0.272567 0.422571 -0.019338 -0.132997 -0.276313 -0.225385 -0.322519 0.318887 -0.308232 -0.505357 0.033592 0.052332 0.247726 -0.122203 -0.708789 -0.229165 -0.495426 0.280824 -0.054108 -0.055153 0.090309 -0.570442 0.288363 -0.258005 -0.232608 -0.197337 0.295283 0.460362 0.468514 -0.182590 -0.508390 -0.174596 -0.078617 0.124109 0.160301 -0.013887 0.321962 0.218127 -0.414153 0.479358 0.214659 0.204194 0.044105 -0.082568 -0.220177 -0.012883 0.169181 -0.082108 -0.211068 -0.209650 0.463104 0.367146 -0.055617 0.158537 -0.350746 0.070875 -0.134508 -0.443418 0.175513 0.035335 0.197833 0.468051 0.185131 0.335458 -0.077602 -0.218392 -0.169495 -0.240617 0.462370 -0.164404 -0.390630 0.129081 -0.398405 0.304186 -0.306197 0.025562 -0.046775 0.340009 0.192682 0.077376 -0.309311 0.096432 -0.274971 -0.167066 -0.075167 0.285181 -0.098493 -0.242428 0.593642 -0.179872 0.085345 0.009148 0.382620 -0.360209 -0.179124 -0.220551 -0.188767 -0.049052 -0.221524 -0.148142 0.418519 0.228852 -0.503995 0.374418 -0.188126 -0.490429 -0.277189 0.120628 -0.620889 -0.351305 -0.150062 -0.333760 0.522331 0.409507 0.428981 0.614368 0.514410 -0.125383 0.320794 0.456799 -0.075855 -0.271047 -0.318893 -0.225399 -0.384307 -0.073120 0.064269 0.194317 0.440979 -0.475266 -0.518833 0.369326 0.039175 -0.800002 -0.033885 -0.453563 -0.514656 -0.552832 -0.483519 -0.431124 -0.215980 -0.199286 -0.115792 -0.005263 -0.146421 -0.111615 -0.301852 -0.151409 0.289159 0.381065 0.527927 -0.449589 0.369283 -0.410866 -0.187847 -0.177579 0.006004 0.313319 0.419708 -0.166665 0.219513 0.234680 -0.523066 0.005746 0.304782 -0.530424 0.381528 -0.568781 -0.452663 0.250579 -0.306890 0.100991 -0.077536 0.321663 -0.214032 0.501541 -0.291436 -0.196685 -0.303016 0.277971 -0.476767 -0.377516 0.303264 -0.472777 -0.304030 -0.395909 -0.213233 0.122939 0.335164 -0.365884 -0.668332 0.211611 -0.461309 -0.284698 -0.080286 -0.543111 -0.270659 -0.309527 -0.363221 0.084632 -0.157760 0.057820 -0.128769 0.283400 -0.108398 0.024222 0.267000 -0.030991 0.283552 0.444231 -0.259082 0.350624 -0.446425 -0.515112 0.330631 -0.285833 -0.426189 -0.397809 0.282982 0.446253 -0.275813 0.366729 0.176185 -0.216002 -0.455751 -0.453777 -0.179525 -0.054398 0.073053 0.225856 -0.293616 0.449956 -0.223677 -0.048426 0.319052 0.143607 -0.444079 0.102468 -0.371485 0.355717 0.033193 -0.113263 0.229231 0.118005 -0.120812 0.046478 0.276488 -0.028857 0.213059 0.164906 -0.031062 0.455238 0.030206 -0.303940 -0.157000 0.190006 -0.026777 0.376957 -0.230251 0.544481 0.080159 -0.172091 0.449583 0.305690 0.350655 0.284878 -0.034455 0.422820 -0.126442 0.072282 0.262564 0.399456 0.426391 -0.043420 -0.028462 -0.168954 0.486183 -0.186827 0.310902 0.155871 0.393973 -0.319915 0.039450 -0.115641 -0.014845 0.445458 0.594172 0.342582 0.168891 -0.341597 0.272227 -0.339895 -0.018817 0.244196 0.488013 -0.145950 0.015579 -0.067918 -0.244784 0.366367 0.494874 0.502559 0.297015 0.458387 -0.014767 -0.264198 -0.260478 -0.036784 -0.078081 0.427046 0.523109 -0.246830 -0.406794 0.048453 0.103249 -0.007749 -0.108692 0.092507 -0.231374 -0.477254 0.236182 
-0.460871 -0.318714 -0.284546 0.263679 -0.350164 0.049915 -0.240395 0.070415 0.293778 -0.384298 0.057488 0.288518 0.353134 -0.043873 -0.283032 -0.470132 0.122248 0.103838 -0.078662 0.008219 0.086457 0.146141 0.090950 -0.388631 -0.274201 -0.449295 -0.029766 0.285823 -0.200229 -0.026484 0.002413 -0.177634 0.138315 0.201378 -0.430645 0.271665 -0.265185 -0.187442 -0.174783 0.511435 -0.086966 0.367872 0.285696 -0.251231 -0.195036 0.482590 -0.241104 0.400645 0.061817 0.155060 -0.089681 -0.350375 -0.197459 0.484707 -0.255526 0.011780 -0.481117 0.198214 -0.218886 -0.197756 -0.344799 0.266991 0.107898 0.276838 -0.047406 0.161625 0.032709 0.172185 0.460294 0.344129 0.168642 -0.144399 0.194046 -0.064591 0.084157 0.472683 -0.107014 0.319104 0.371459 0.453435 -0.027289 -0.234654 -0.413518 0.258625 -0.266550 -0.185499 -0.246091 -0.264182 0.496051 0.018394 0.021315 -0.365451 -0.230395 -0.386599 0.395660 0.206140 0.259843 -0.086732 -0.139791 0.200135 -0.262652 0.508464 -0.465924 0.402652 -0.084340 0.092915 0.370157 0.304508 -0.092263 0.225240 0.241381 0.363853 0.473909 0.311260 0.105980 -0.309158 -0.390830 0.343281 -0.089884 -0.410933 -0.153725 0.416398 -0.290769 0.099400 0.514464 -0.411480 -0.212276 0.254475 -0.018280 0.127865 -0.064455 0.191760 0.109278 -0.056895 0.089078 -0.480219 -0.469400 -0.057907 0.307499 -0.078185 -0.348979 0.032645 -0.230488 -0.391587 -0.172589 0.358854 -0.217355 -0.080174 0.187312 0.178815 -0.004843 0.514762 0.076107 0.183529 0.094359 0.068889 0.250321 0.362540 -0.196096 -0.293696 -0.035390 0.213998 0.394352 -0.430017 -0.348180 -0.034085 -0.426593 -0.333512 0.392027 0.364693 0.072112 -0.473502 -0.119226 0.324993 -0.381819 0.191980 0.169511 -0.112395 -0.401921 -0.162686 -0.455657 0.065580 -0.171062 0.097675 -0.269306 0.406890 -0.345087 0.463786 0.251749 -0.062500 -0.331215 -0.285472 -0.353052 -0.454404 -0.231767 -0.217101 -0.004394 -0.174861 -0.067148 -0.128838 -0.326746 0.486702 -0.121059 0.035763 0.296928 -0.019081 -0.298892 -0.066026 0.338222 -0.226748 0.249501 0.360956 0.327016 -0.430612 -0.035878 -0.440315 0.474408 0.097183 -0.480722 0.223000 -0.469504 -0.328937 0.421161 -0.338435 -0.299171 -0.327158 -0.072002 0.179172 -0.019342 0.342015 -0.467970 0.136352 0.316114 -0.103525 -0.354347 0.082708 0.352239 -0.163520 -0.491269 0.181243 0.111264 0.262378 0.061102 -0.050172 0.339438 0.503031 0.005676 0.309874 0.096640 0.008320 0.016116 0.110979 0.162969 -0.079587 0.255446 0.345509 0.075002 -0.333844 0.009444 -0.459026 0.487434 0.022628 0.155083 0.285891 0.401856 0.291106 -0.140081 0.245465 -0.371109 -0.132050 -0.068606 0.249201 -0.359359 0.481988 -0.302824 0.475259 0.479945 0.185813 0.268011 0.060165 -0.321484 -0.231424 -0.344704 0.323891 0.171413 0.393637 0.155358 -0.265070 -0.461554 -0.354844 -0.249253 -0.484174 0.154677 0.391811 0.289716 0.045210 0.181105 -0.352753 -0.207343 0.315308 0.021522 0.219857 0.063546 0.158818 0.198073 0.244032 0.117449 0.161941 -0.085664 -0.130131 -0.293851 0.074608 0.120091 -0.155026 -0.115053 -0.228036 -0.282648 -0.479454 -0.003091 -0.245298 -0.340413 0.233009 -0.244471 0.301413 0.119800 -0.458690 -0.160400 -0.202266 -0.316363 0.126875 -0.385159 0.205812 -0.153920 0.162057 -0.151525 -0.471837 -0.109695 0.449821 0.173765 0.286301 -0.198615 0.363222 -0.152575 0.401867 -0.314234 0.211287 -0.328741 -0.099504 0.224180 0.143191 0.130738 0.363760 -0.136974 0.371748 0.147797 0.472389 0.407111 0.488686 -0.225912 -0.409173 0.113038 -0.127287 0.280689 0.443177 -0.481127 -0.386905 0.454960 -0.107766 -0.454003 0.112062 -0.336262 -0.176611 -0.048488 -0.011306 -0.276471 0.133832 -0.305123 -0.127995 -0.488312 0.394720 0.500257 0.127171 0.252874 -0.145530 -0.002597 -0.104957 -0.169978 -0.099973 -0.121883 0.087219 -0.025560 0.475226 0.444400 -0.260586 0.402282 0.446519 -0.164351 0.340496 -0.177680 -0.144192 -0.063000 -0.029015 0.180032 0.374970 0.444615 0.380321 -0.011607 -0.382392 -0.258805 -0.007579 0.513503 -0.261771 -0.386118 0.247603 0.092013 0.105739 -0.363504 0.403703 0.488401 -0.000973 -0.024227 -0.052720 -0.041594 -0.096580 0.169785 -0.156075 -0.166725 0.479477 -0.331033 0.140918 -0.163222 0.083719 -0.411373 0.493822 -0.057309 -0.483112 0.368047 0.423273 -0.368440 -0.398272 -0.092831 -0.374636 -0.161942 0.015587 0.366559 0.410873 -0.397035 0.487463 0.299236 -0.424442 -0.029390 -0.243105 0.004524 0.410761 0.143660 -0.349218 -0.268715 0.454207 -0.367383 -0.107802 0.088198 -0.049242 0.458396 0.157577 -0.062443 -0.105377 0.172756 -0.208023 -0.197784 0.280241 -0.104184 0.208607 0.401082 0.214879 -0.294367 0.251996 0.110036 -0.207286 0.223494 -0.109622 -0.150592 -0.324886 0.131958 0.332121 -0.435378 -0.244381 0.485053 -0.202748 -0.288447 -0.398145 0.172154 0.278224 0.039286 0.120821 -0.074766 0.452909 0.488889 -0.431870 -0.252434 -0.205722 0.345396 0.124086 0.483731 0.230593 -0.178692 -0.328469 -0.035222 0.413664 -0.053387 -0.328239 -0.209279 0.277354 -0.172655 0.403004 0.107770 -0.108927 -0.344141 0.075497 0.171359 -0.151428 0.160509 -0.173905 -0.392555 -0.331193 0.414898 0.004298 -0.375353 0.407591 0.071672 -0.145491 -0.315892 -0.099185 0.460170 -0.350673 -0.387169 -0.233833 -0.194398 0.064020 -0.332361 0.230352 0.211241 -0.064506 0.006173 -0.463182 -0.166158 -0.408726 -0.095499 -0.032555 0.150486 -0.443049 0.302646 -0.210279 -0.136936 0.386142 -0.037865 -0.217621 -0.107322 0.070872 -0.326185 0.447916 0.406982 -0.160409 -0.169645 0.352467 -0.025846 -0.069746 -0.393602 0.257424 0.468047 -0.253051 -0.012573 0.179135 0.178836 0.471049 0.192393 0.490724 -0.448392 -0.412375 -0.054625 0.193242 -0.361004 -0.259393 0.486517 0.001795 -0.373609 -0.067979 0.267996 0.002677 0.484427 0.423387 -0.067887 0.376840 -0.251677 0.249677 0.217018 0.201547 -0.344669 0.296817 -0.040322 -0.375491 -0.456722 0.430493 0.285898 0.208104 0.393690 -0.026460 0.185252 0.438298 0.053616 -0.365005 0.132092 0.188391 -0.128733 0.101234 -0.326245 -0.018718 -0.484457 0.423991 0.466027 0.485438 0.332929 -0.114907 0.349193 -0.440785 -0.390300 0.042389 0.262920 -0.232703 -0.161441 -0.295690 -0.127903 -0.132642 -0.378432 -0.352211 -0.443747 0.499767 0.105579 0.243467 0.435562 -0.345965 0.373071 0.050704 0.325481 -0.272010 -0.365713 0.481542 0.191506 -0.365259 0.390459 0.142502 -0.394911 0.207900 0.501837 0.430161 0.252231 -0.394780 -0.037475 -0.003865 -0.148174 0.284997 0.185407 0.211034 -0.352887 0.296660 0.347985 -0.306110 0.294262 -0.050303 0.431524 0.213131 0.086753 0.288344 -0.253926 -0.105445 0.498587 -0.134722 -0.139005 0.175001 -0.015243 -0.263731 -0.206693 0.067348 0.421772 -0.209488 -0.009913 0.166280 -0.114402 0.444288 -0.344971 0.233513 0.231973 0.337604 -0.057697 0.359537 0.131396 -0.212681 -0.452113 -0.091153 0.220202 0.463204 -0.394526 -0.209474 0.235234 -0.164918 0.168518 0.217279 0.185045 0.514355 -0.123106 -0.345395 -0.273730 0.154950 0.208176 -0.357213 0.439141 -0.311263 0.309273 -0.171797 -0.364580 0.452187 -0.451415 0.344661 0.285266 -0.012018 0.200357 -0.099992 0.258578 0.232021 0.292386 -0.037637 0.178837 0.379993 0.234957 -0.103923 -0.300238 -0.111874 -0.401992 0.369625 -0.121758 -0.049173 0.503330 0.101131 -0.398918 0.200753 0.242919 -0.458625 0.390780 0.030048 -0.153773 0.502379 -0.023646 -0.107839 0.344384 -0.254900 0.363595 0.028491 0.128752 0.105820 -0.255995 -0.095421 -0.448425 0.406243 -0.230571 0.271297 -0.212808 -0.045792 -0.355563 -0.129678 -0.191152 0.016569 0.315005 -0.197038 -0.391483 0.408093 0.495575 0.334531 0.433011 0.369702 -0.146511 -0.230224 0.362545 0.313315 0.145488 0.190654 
-0.563338 -0.021104 -0.311774 0.139536 -0.432764 -0.084645 -0.427658 -0.323547 -0.089571 -0.143234 0.428416 0.098490 0.251423 0.510661 0.468334 -0.470190 0.016844 0.258805 -0.125055 0.132996 0.226102 -0.107728 -0.040978 0.016768 -0.390443 0.231460 0.289229 0.474992 0.026624 -0.084254 0.145760 0.050890 0.390697 0.331543 -0.266898 0.530313 -0.149683 -0.209471 -0.371846 0.074718 0.029247 0.443173 -0.335959 -0.268388 0.430217 -0.416324 -0.201975 -0.065750 0.382179 0.127804 0.516072 -0.126358 0.264796 -0.155703 0.426571 0.410602 -0.398264 0.240427 0.409166 0.113972 -0.377639 -0.015820 -0.393789 -0.390756 -0.030658 -0.041996 0.551613 0.125939 0.092472 -0.422603 -0.325494 -0.469913 0.400833 -0.227659 -0.238121 0.378922 -0.091707 0.052252 -0.262494 -0.422127 0.469035 -0.326268 0.000488 0.202779 0.047611 -0.045346 0.211405 0.120883 -0.353905 0.034443 -0.338177 -0.136102 -0.295850 -0.035386 -0.134523 -0.021975 0.203343 -0.181895 -0.430433 -0.296695 -0.253400 -0.291541 -0.206997 -0.241314 0.056898 0.108168 -0.414637 0.279917 -0.509933 -0.182112 0.443402 -0.483951 0.020047 -0.029828 0.325960 -0.470545 0.318968 -0.081276 0.042537 -0.420013 -0.336557 0.421728 -0.188097 -0.437861 -0.401628 -0.128525 -0.146509 0.087265 0.082041 0.004266 -0.526580 -0.351709 0.394562 -0.190368 -0.281301 -0.246002 0.420891 0.038755 -0.218013 0.527952 0.335810 -0.296735 -0.511575 -0.218885 0.056480 0.179857 -0.317779 -0.005436 -0.224078 0.472955 -0.008548 -0.184529 0.252228 0.189912 -0.047535 0.348934 -0.103301 -0.290794 0.310929 -0.248721 0.218850 0.200199 -0.295277 0.041553 -0.329878 0.247742 -0.406136 -0.329497 -0.295266 -0.228723 -0.487925 -0.513359 -0.118813 -0.445620 -0.256078 -0.321868 0.458274 0.182816 0.066755 -0.345629 -0.019150 -0.610606 0.058954 -0.199920 0.461442 0.568297 -0.367641 -0.346996 -0.471865 0.378087 -0.061422 0.254492 0.100783 0.210697 0.007973 0.338772 -0.109740 0.055854 0.336737 0.047578 0.256407 -0.591061 0.058604 -0.187720 -0.343779 0.538584 -0.227247 -0.403137 0.074148 0.413227 -0.193993 -0.275539 0.674291 0.193719 -0.160329 0.454134 0.400490 0.126876 0.525459 0.237220 -0.232494 -0.188507 0.133737 0.420178 0.377857 -0.424459 0.046722 -0.305056 0.052059 -0.062651 0.251050 -0.071448 0.082867 0.178661 0.119732 0.239518 -0.225667 0.403595 0.254314 0.529463 0.333461 0.319143 0.420241 0.248966 0.237503 -0.201440 0.052997 -0.320986 0.103550 -0.210147 -0.438476 0.351375 -0.049813 0.111432 0.096307 -0.211445 0.153273 -0.315709 -0.052143 -0.254358 0.231435 -0.200506 0.019563 -0.381288 0.149620 -0.438303 0.281110 0.405177 -0.626925 -0.235703 0.079841 0.450077 0.144012 0.306054 0.013939 0.354308 0.259077 0.289420 -0.291481 -0.113909 -0.480737 -0.320595 -0.410426 -0.085983 0.233632 0.146948 0.072731 -0.128580 -0.525347 -0.268914 0.079610 0.098990 -0.012819 -0.601668 -0.712288 -0.516662 -0.467264 -0.965720 -0.648013 -0.172506 0.201319 -0.471262 -0.421640 0.345250 0.063978 0.090857 0.461630 -0.058432 -0.149597 -0.407750 0.267877 -0.137901 -0.311065 0.230301 0.213454 0.498765 0.171012 0.057013 -0.077989 0.053484 0.212130 0.400282 -0.115676 -0.464824 -0.496879 -0.099608 0.131004 0.099863 0.143386 0.274820 0.291132 -0.440893 0.285760 0.557561 -0.353227 -0.048040 0.088029 -0.400242 0.385934 0.400089 -0.370074 -0.003245 -0.428287 -0.239400 -0.132037 0.566679 -0.146746 -0.477122 -0.114349 0.074016 -0.088502 -0.775991 0.041717 -0.343379 -0.097952 0.357389 0.262308 0.360402 -0.143754 -0.328977 0.236752 -0.213583 -0.074954 -0.017436 -0.294123 0.083402 0.402453 0.230446 0.113847 0.135483 -0.050461 0.022003 -0.348616 0.314314 0.496906 0.171546 0.111327 -0.391462 -0.038444 0.318610 0.508971 0.014599 -0.380021 0.040935 0.006990 -0.253822 -0.273766 -0.375014 -0.076207 0.281543 0.088999 -0.624978 0.403996 0.522762 0.021517 0.524680 -0.028478 -0.241464 0.071991 -0.463242 0.454264 -0.167399 0.353644 -0.211193 -0.000618 -0.198070 0.395533 0.036554 0.499769 0.116078 0.018289 0.207646 0.375565 -0.315176 -0.442731 0.001798 0.538358 0.172026 0.394191 -0.374795 -0.317959 -0.062354 -0.214171 0.506531 -0.160778 0.113762 0.405171 0.267887 -0.611496 0.102179 0.328764 0.320791 -0.097337 -0.064808 -0.317779 0.156737 -0.262763 0.555403 0.467866 0.284574 -0.076518 -0.439677 -0.167434 -0.136947 0.308648 0.264992 -0.454501 -0.143416 -0.601535 0.465290 0.398831 -0.194111 -0.156298 -0.471408 -0.314678 0.117069 0.125014 -0.254407 -0.185507 0.091428 0.125727 -0.237597 0.266677 0.055720 0.199548 0.342945 -0.381989 0.138066 0.245207 -0.506815 0.182092 -0.102435 -0.022698 -0.375980 0.448284 -0.310504 -0.084154 -0.717342 0.320447 0.344336 0.440644 0.091058 -0.505377 -0.254974 0.110149 -0.109224 0.427918 -0.190405 -0.022878 -0.296342 -0.244608 -0.176762 0.080330 -0.521366 -0.445904 -0.056958 -0.584522 -0.401660 -0.171054 -0.641034 -0.040088 0.527537 -0.011105 0.436845 -0.367355 -0.033168 -0.358673 0.274928 -0.063281 0.332122 0.007786 -0.217166 -0.180053 0.101218 0.085795 -0.570015 -0.394758 -0.116899 0.210677 0.380849 -0.558262 -0.495222 0.006126 0.261823 -0.323961 0.042044 -0.092236 -0.107621 0.463330 0.213723 0.045032 -0.008933 0.234139 0.497291 -0.083400 0.349413 -0.029403 -0.076900 0.068425 0.325101 -0.305285 -0.372609 -0.496755 -0.050676 0.459909 0.272997 -0.436215 -0.167348 -0.007854 0.205051 -0.387375 -0.117387 -0.391191 0.160671 -0.056466 -0.106505 -0.197787 0.178923 0.428399 -0.269507 -0.121101 -0.131801 0.249804 -0.332794 0.014325 -0.423429 0.462066 0.417518 0.035014 0.338532 0.321251 0.097007 0.216299 0.305631 -0.141100 0.162121 0.064570 -0.250912 0.316732 -0.359556 -0.110347 -0.296866 0.348412 -0.221261 0.239576 0.470190 0.245771 0.380884 0.116343 0.139466 -0.323098 0.501394 -0.371555 0.355962 -0.379595 -0.022245 0.258305 -0.544493 -0.204808 -0.233053 0.127839 0.576030 0.495612 -0.128687 0.346854 -0.235692 -0.770279 -0.061739 0.148029 -0.494399 0.304650 0.481786 -0.370567 -0.072996 -0.183907 0.258786 -0.190562 0.467389 0.165269 0.385408 0.106918 0.326358 0.396854 0.117568 0.103379 0.502733 -0.368424 0.173733 0.790730 0.168630 0.480674 0.263935 0.078284 0.488277 0.611411 -0.219405 -0.502327 0.353119 0.329309 0.245066 0.376487 0.062912 0.227009 0.458961 0.457401 0.511700 0.228506 -0.262329 0.478801 -0.130343 -0.364879 0.047699 -0.267164 0.496004 -0.311676 0.525710 0.674678 -0.062917 0.040688 0.646628 0.256421 0.795837 0.202795 0.518246 0.245065 -0.235325 -0.265308 0.182303 -0.388868 -0.495603 -0.073046 -0.496244 0.095484 -0.317240 0.491239 0.026332 -0.242307 0.246911 0.327898 -0.320868 -0.379396 0.354864 0.100817 -0.328673 0.251859 0.153767 0.484701 0.162234 0.419528 -0.133323 0.186185 -0.139219 -0.316167 0.361760 -0.222747 0.374371 -0.409684 -0.110760 0.014712 -0.322250 -0.080423 0.467534 -0.292556 0.482759 -0.345343 -0.326340 -0.031376 -0.259698 0.300627 -0.353885 -0.222474 0.308953 0.481953 0.478605 0.571970 0.296202 -0.066748 0.389905 -0.159288 -0.298332 -0.462671 0.219733 0.034515 -0.261437 0.096626 0.266674 -0.385055 0.192873 -0.318188 0.155576 0.396549 0.063774 0.121151 -0.427222 0.005509 0.159649 -0.301856 0.426570 0.361881 0.461040 -0.395320 -0.325495 0.262869 -0.449951 -0.506658 0.268933 0.311085 -0.028299 0.150846 -0.461156 0.204906 0.257875 0.375057 -0.194757 -0.414469 0.030825 -0.431237 -0.302668 -0.279486 -0.281646 0.356304 -0.379677 0.289604 -0.089173 -0.344345 -0.280005 -0.498214 -0.250661 -0.357215 0.398425 -0.223411 -0.195896 -0.385345 -0.360390 -0.059046 -0.359283 0.377119 -0.297085 0.135082 0.088178 -0.174227 -0.094788 -0.089029 -0.258163 
0.381200 -0.000807 0.273619 0.275665 0.190421 0.489650 0.486503 0.020859 -0.382869 0.312307 0.473055 -0.314339 0.510913 0.439681 0.006983 -0.296738 0.319432 0.337640 0.036186 0.447461 0.467620 0.459997 -0.446591 0.267707 -0.375424 0.188182 -0.140232 -0.044935 -0.406947 0.268243 0.192116 0.294164 -0.244456 -0.042922 0.059624 0.452727 -0.013415 0.118495 0.030892 -0.006229 -0.193210 -0.155711 0.206822 -0.209786 -0.274988 -0.261076 -0.015574 -0.427885 0.548122 0.488516 0.452752 0.327500 0.337935 0.479637 0.075075 0.442823 0.167808 0.430569 -0.108667 0.211330 0.155680 -0.459204 0.024594 0.401015 0.073276 -0.464931 0.300049 0.491228 0.152082 -0.127398 0.039024 0.494535 0.154949 -0.226196 -0.268404 0.375047 -0.144465 0.204652 0.371657 -0.224279 0.049965 0.304293 -0.418474 -0.000907 0.282307 0.151754 -0.194758 -0.062693 0.074615 0.187973 -0.298550 -0.237412 0.348414 0.193668 -0.353587 -0.164034 0.303671 -0.326494 -0.148561 0.055446 -0.052408 0.361701 -0.050402 0.477193 0.339020 0.086465 0.273282 -0.375959 -0.384899 0.131137 -0.123972 0.163192 -0.070267 -0.049247 0.505342 -0.300011 -0.412300 -0.185844 0.164863 0.072689 0.464791 0.246371 0.323216 0.285544 0.119891 -0.396665 0.462290 -0.231451 -0.487391 -0.312160 0.243705 -0.089981 0.298163 0.487641 -0.284792 0.060032 -0.025210 -0.469553 0.173287 0.030215 0.205135 -0.407378 -0.281576 -0.384285 0.020953 -0.298475 -0.190283 -0.011217 -0.073029 0.321749 -0.306639 0.048737 0.340035 -0.335364 -0.471094 -0.477009 -0.521735 -0.328848 0.044404 -0.245376 -0.261851 -0.460201 -0.033158 -0.454951 -0.478946 0.345750 0.147839 0.008941 0.495463 -0.080608 -0.329349 0.207707 0.015140 -0.174171 0.236935 0.394521 0.011481 -0.403258 0.173226 -0.215129 0.819693 0.526877 0.036811 0.255348 0.576998 0.406516 0.660079 -0.229495 0.221715 -0.202218 -0.274278 0.462160 -0.212376 0.315872 -0.490124 -0.126026 0.228124 0.186794 0.461836 0.184861 -0.425566 -0.502633 -0.296400 -0.127798 -0.253751 -0.559576 -0.071201 0.441042 -0.160039 -0.164963 0.369678 -0.337055 0.445457 -0.094836 0.383751 0.350365 0.384900 0.078376 0.283574 0.031417 0.423209 -0.236027 0.102340 -0.246245 -0.403044 0.107042 0.216466 0.376933 -0.123847 0.151799 0.061106 -0.231195 0.043845 0.179990 0.392758 -0.357579 -0.398896 0.184003 0.365609 -0.280201 0.071784 0.303889 -0.115220 0.132210 -0.330027 -0.355157 0.090570 -0.297087 0.444824 0.142499 0.354793 0.354073 0.384731 -0.060153 -0.332132 -0.479680 -0.417665 0.332738 0.323828 -0.270402 -0.189959 -0.260323 0.397749 -0.089369 0.075594 0.388148 -0.298821 -0.076628 -0.222854 -0.215915 0.156685 -0.351032 -0.371148 0.573902 0.248019 -0.164457 -0.201894 -0.117348 -0.064847 -0.367027 0.504596 -0.202022 -0.442515 0.396370 0.216487 -0.350345 0.348783 0.233604 -0.596265 0.028196 -0.261581 0.216857 -0.012419 0.638446 0.184158 0.085329 0.311651 0.583542 0.498372 -0.251032 -0.319685 -0.101635 -0.400218 -0.346475 -0.068452 0.413554 -0.143360 0.042804 -0.229993 0.296201 0.245475 -0.228792 -0.389986 0.240813 -0.318331 0.283203 0.374864 -0.748852 0.011641 0.513669 0.292504 0.336518 -0.073624 0.415752 0.170964 -0.309088 -0.096494 0.050498 -0.417607 -0.426587 -0.021580 -0.428379 -0.033166 0.271027 -0.360020 0.292185 0.175825 0.005282 -0.100362 0.449742 -0.189444 -0.400737 -0.313482 -0.193801 0.274864 -0.352914 -0.435836 0.238137 -0.236515 0.300306 0.381377 -0.325047 0.001603 -0.047058 0.458994 -0.245049 -0.060436 -0.275435 0.194626 -0.018190 -0.185033 -0.102893 0.042586 0.281501 -0.350084 0.203039 0.117897 0.362232 -0.255446 0.500796 0.285450 0.017682 -0.370043 0.392612 0.358203 0.542520 -0.307484 0.513654 0.306348 -0.046384 0.171479 0.193730 0.050192 -0.268249 0.459967 0.106436 -0.025038 -0.175804 0.173987 -0.304731 0.299105 -0.251386 0.133311 -0.091802 0.376000 0.313908 -0.354576 -0.047043 0.135248 -0.112430 0.109746 -0.136418 0.318799 0.114521 -0.034624 0.410075 -0.121952 -0.029552 0.157987 -0.185456 -0.501077 -0.108828 0.252297 0.176666 0.142463 0.169167 -0.401087 -0.487919 0.415553 0.509088 -0.200091 0.306293 0.364812 0.394397 -0.295280 0.177660 0.189638 -0.134592 -0.292315 -0.347113 0.294585 0.545703 0.529377 0.205699 -0.349068 0.516336 -0.260965 0.305337 0.126485 0.453934 0.329984 0.191566 -0.298067 0.243684 -0.331815 0.204475 -0.154274 0.332857 0.677522 -0.264720 -0.336325 -0.383689 -0.439169 -0.500530 0.456907 -0.291398 0.331769 0.102415 0.420193 0.623722 0.511855 -0.238727 0.023998 0.160285 0.243722 0.261501 0.149880 0.393874 -0.152663 -0.262974 0.115182 -0.227196 0.147910 0.225252 0.152933 0.346872 0.417673 0.747096 -0.318132 -0.155362 -0.334402 -0.200640 -0.114793 -0.382964 0.084791 0.063171 0.065228 -0.457944 -0.511152 -0.654866 -0.764949 -0.625051 -0.492682 -0.250316 -0.035545 0.284926 -0.324857 -0.170427 0.058323 -0.066307 -0.134728 -0.291361 0.034238 -0.454429 -0.429121 -0.171662 0.485994 0.118543 -0.217033 -0.324983 0.432185 -0.069815 0.198137 -0.041040 0.190827 0.313516 0.187303 -0.589030 -0.762058 -0.625643 -0.489423 -0.734856 -0.390664 -0.135152 0.044849 0.365991 -0.286982 0.235515 -0.332147 -0.480395 -0.181214 0.137111 0.008426 0.673921 0.283456 -0.034414 -0.153863 0.267212 -0.470307 0.071900 0.425595 -0.550818 -0.430496 -0.002234 0.003927 0.204216 -0.133832 -0.082522 -0.581067 -0.072673 0.130369 -0.271661 -0.021594 0.165604 0.088299 -0.412973 0.042926 -0.458581 -0.520888 0.420510 -0.137584 0.290917 -0.000193 0.068580 -0.083091 -0.198971 -0.473869 0.279065 -0.517976 -0.523619 -0.192207 -0.522737 -0.231824 0.067920 0.115255 0.370653 -0.093636 -0.459225 -0.195109 -0.072520 -0.025412 0.208538 0.019056 -0.418609 -0.009129 -0.182230 -0.242081 -0.159072 -0.048071 -0.171038 0.476934 0.159807 0.279191 0.027165 -0.165871 -0.276572 0.246801 -0.289747 0.383805 0.253983 -0.156789 -0.202694 0.365100 0.235807 0.338832 -0.256695 -0.353006 -0.487445 -0.151040 0.122936 -0.043413 0.317339 -0.096324 -0.451841 0.439883 0.631223 -0.052026 -0.221705 -0.386490 0.401590 0.117518 -0.433960 0.003943 -0.157584 0.012322 0.253603 -0.060688 -0.251274 0.585691 -0.129286 0.411150 -0.261070 0.063113 0.110581 0.278227 -0.227008 -0.522694 -0.256935 -0.053250 -0.130416 0.390868 0.397141 -0.273118 -0.159049 0.487843 -0.294017 -0.174475 -0.075727 -0.017173 -0.066897 -0.213179 -0.535563 -0.146861 0.281022 -0.166646 0.450485 0.128231 0.342645 -0.371822 -0.053305 -0.238746 -0.393791 0.317401 0.311291 0.369031 0.155189 -0.351570 0.354635 0.437315 0.088446 -0.319923 0.296246 -0.009693 -0.089873 -0.359847 -0.034312 0.102295 -0.052410 0.349279 -0.478136 0.304311 -0.351844 -0.423055 -0.197503 0.463644 -0.025768 -0.244968 0.006009 -0.051092 -0.000074 -0.414112 0.025296 0.016006 0.278949 -0.153812 -0.176119 -0.056074 -0.006180 -0.351135 -0.134766 -0.415352 -0.168352 -0.336072 0.061732 0.238109 -0.203647 0.518427 -0.187267 0.206986 0.332879 -0.187374 0.034074 -0.526699 0.013208 0.469590 -0.405442 0.467217 -0.330048 0.041960 -0.215564 0.089061 0.035353 0.363300 -0.372036 -0.163860 -0.302636 -0.055141 0.288043 0.193800 0.096312 -0.344275 0.266020 0.415434 -0.196264 -0.190175 0.123433 0.061400 -0.235059 0.377403 -0.245891 -0.371580 -0.262252 0.308592 -0.358987 0.214572 0.251101 -0.298604 0.164039 0.400556 0.226507 0.497684 0.017276 -0.214273 0.341506 0.124759 0.118889 -0.461800 -0.431269 -0.093747 0.218777 0.151850 0.048241 -0.030982 0.049016 0.337787 0.265898 -0.335295 -0.091345 -0.432670 -0.425901 0.185278 -0.283484 -0.153364 0.039216 -0.084099 -0.408595 -0.202976 0.115770 0.276600 -0.293358 -0.146614 0.263763 0.209874 0.134896 
0.126901 -0.176538 -0.255278 0.125786 -0.114604 0.142294 -0.161187 -0.480289 -0.360869 0.230491 0.007713 -0.538668 -0.033752 0.207262 -0.107325 0.089258 0.267771 -0.429844 0.316311 -0.340183 0.149550 -0.282875 -0.270272 0.429332 0.341196 0.504107 -0.374060 -0.316174 0.259681 0.330046 0.315864 -0.146655 -0.347440 -0.444758 0.476227 0.022739 0.148062 -0.266319 -0.013437 0.302154 -0.509988 -0.418329 0.340537 0.103750 0.289426 -0.262540 -0.280448 0.134802 -0.126095 -0.457617 0.273187 0.503466 -0.208524 0.510795 0.427101 -0.373302 0.502844 -0.454373 -0.193696 0.277283 0.390431 -0.376132 -0.392640 0.529377 -0.348086 -0.443675 -0.000352 0.269593 -0.255063 -0.509006 0.062661 -0.200780 -0.493240 -0.131463 -0.553864 0.381817 0.255224 -0.230440 0.118854 -0.333831 -0.192354 -0.133301 -0.358984 0.110722 -0.140738 -0.444723 0.201378 -0.143296 -0.401771 0.493132 -0.407508 0.446090 -0.422681 -0.329061 0.405517 -0.331138 -0.346604 -0.083018 -0.529868 -0.035342 -0.131676 0.060748 0.372071 0.061783 -0.285030 0.499517 0.158791 -0.443339 -0.264365 -0.286259 -0.333815 0.022146 0.066413 -0.202211 -0.404098 0.410488 -0.198177 0.238383 -0.292577 -0.104264 0.239998 -0.144548 -0.159573 0.318338 -0.137008 -0.301363 -0.479426 0.171266 0.186974 -0.400851 -0.240795 -0.198571 0.407329 -0.154372 0.510375 -0.295766 -0.224885 0.063737 -0.349845 -0.033109 0.233254 -0.225276 0.418569 -0.244811 0.030540 -0.461919 -0.265665 0.257776 0.219448 -0.099483 -0.034748 0.249410 0.271024 0.195657 0.019268 -0.031703 -0.456798 -0.051995 -0.416066 0.323280 0.211753 -0.046512 -0.395985 0.106084 0.179665 0.474595 0.138386 0.358618 -0.055781 0.209212 -0.289847 -0.403248 0.422264 -0.271224 -0.013704 0.052112 -0.218317 0.143969 -0.007728 -0.443528 -0.300245 0.276555 0.022655 0.400040 0.124856 -0.379915 -0.240345 -0.044254 0.047534 -0.262394 -0.438424 -0.173418 0.277883 -0.207273 0.336958 -0.085238 -0.303152 -0.058838 -0.300609 0.080753 -0.306508 0.054974 0.370379 -0.301737 0.258195 -0.157160 0.267384 0.516892 0.451150 -0.367402 0.227557 -0.603910 0.436746 0.078342 -0.424985 0.061164 0.239269 -0.103754 0.294706 -0.257211 0.133876 -0.342825 0.009690 -0.110528 -0.034352 -0.096855 0.325835 0.104255 0.338732 -0.419321 -0.186601 0.556603 0.174995 -0.347476 -0.455521 -0.303444 -0.169817 0.012485 -0.871841 -0.744914 -0.738945 -0.717631 -0.366459 0.540405 0.086395 -0.159272 -0.268576 -0.104478 0.186446 -0.172785 0.179684 -0.104367 0.042590 -0.205075 0.324467 0.452471 0.126460 0.158159 0.104880 -0.148382 0.265978 0.518362 -0.096882 -0.241449 -0.459408 -0.026490 -0.310491 -0.458501 -0.211463 0.072072 0.154557 0.162571 0.441287 -0.561070 -0.298405 -0.039275 -0.126565 0.340645 0.561912 -0.422499 -0.326358 0.185111 -0.159876 0.126496 0.381934 -0.341753 0.151226 -0.114977 0.352125 -0.187947 -0.483940 0.138013 -0.313772 -0.018434 0.205498 -0.395623 -0.350512 0.155506 0.218561 0.435365 -0.275113 -0.030504 -0.386618 0.429030 -0.243808 -0.038854 0.065466 0.118312 -0.178551 0.033152 0.155910 -0.059896 -0.348597 -0.497375 -0.417919 -0.553956 -0.328138 0.287200 0.060697 -0.666747 -0.441499 0.151955 0.065775 -0.079833 -0.003083 -0.044119 0.130031 0.243526 0.358396 -0.115557 -0.245039 0.407207 0.062730 -0.161416 0.398026 0.367977 0.310658 -0.093504 -0.087522 -0.435818 0.453553 -0.341540 0.142040 -0.417910 -0.298858 0.396699 -0.228125 -0.198316 0.140539 -0.529241 -0.061727 0.449651 0.455013 0.380413 -0.167766 -0.040989 -0.163298 0.536500 0.385588 -0.342492 -0.210151 -0.295377 -0.432785 0.363828 0.041827 0.466170 0.204104 -0.190559 -0.190569 -0.338802 -0.085210 -0.348864 -0.308635 -0.482590 -0.221390 -0.186349 0.263459 0.251112 0.452468 0.242008 0.356832 0.382238 -0.055820 0.222561 0.273211 -0.041070 0.382782 -0.193367 0.087402 0.388770 -0.135578 0.419112 -0.451583 -0.123864 0.071157 -0.021758 -0.267163 -0.265164 0.288689 0.141631 -0.079133 -0.279559 0.203098 -0.210514 -0.232002 -0.014778 0.578654 0.747806 0.506694 -0.111120 0.146253 0.234613 -0.264786 0.317829 -0.247965 -0.302305 -0.188580 -0.476289 -0.188838 0.421146 0.399613 0.055311 0.047733 0.391761 0.380122 -0.314640 -0.052105 -0.188651 0.151250 -0.168839 0.238292 0.075063 0.021094 0.267608 -0.072350 0.295084 0.245806 0.351389 0.114399 0.038046 -0.333650 -0.221629 -0.241263 -0.087453 0.304346 -0.294460 0.070816 -0.242107 -0.202297 0.214834 0.353660 -0.420495 -0.247154 -0.016430 -0.363454 -0.206735 0.386018 0.216307 -0.230766 -0.604833 0.319936 -0.298175 0.234802 -0.193534 0.367711 -0.662938 -0.709642 0.069174 0.329321 0.210692 -0.396622 -0.635230 0.257506 -0.178774 0.105924 0.156303 0.096026 -0.370233 0.175524 0.201079 0.275506 0.085335 0.336300 -0.496032 -0.422050 0.436984 -0.224122 0.179197 0.161594 0.447556 0.323896 -0.113743 -0.411498 0.071447 0.145225 0.464478 0.115132 0.220267 -0.046822 0.058991 -0.112087 0.308106 0.336425 -0.229628 -0.380442 -0.135459 0.337802 0.066240 -0.121341 0.007991 -0.194803 -0.420696 -0.458268 -0.274398 -0.128480 -0.307852 -0.310574 0.204928 0.435100 0.217036 0.014659 0.196590 0.400902 -0.118800 -0.264417 0.014683 -0.110651 -0.457005 -0.094018 0.489318 0.278560 0.313358 0.307390 0.104708 0.495587 0.341024 0.382965 0.256723 -0.106423 -0.277810 -0.193379 0.277640 -0.158480 -0.287613 0.390288 0.405449 0.318608 0.782277 0.034745 0.032651 0.095971 0.033717 -0.687711 -0.079039 -0.501622 -0.130946 -0.353222 -0.032130 0.151106 0.127482 -0.027181 -0.012025 -0.171957 -0.360685 0.359293 -0.311132 0.351053 0.233517 -0.398376 -0.055640 0.361605 -0.352318 -0.489119 -0.146452 0.300546 0.538952 -0.277919 -0.218185 0.601341 -0.252308 -0.044155 -0.031389 0.282932 0.093581 -0.478958 0.434857 -0.274044 -0.133902 -0.057370 0.372210 0.322440 0.333657 -0.298368 -0.429417 0.381512 -0.363088 -0.115800 0.490490 0.339754 0.087590 -0.041371 0.462953 0.486050 0.123580 -0.120267 0.082166 -0.037459 -0.251293 0.167486 -0.188519 -0.058008 -0.234375 0.237832 -0.111575 -0.447310 0.444710 -0.080846 -0.184707 -0.340887 0.335274 -0.337771 0.454853 0.220315 -0.040630 -0.315116 0.291290 0.147181 0.254890 0.296727 0.064025 0.635932 0.621351 -0.196718 0.305117 -0.109487 -0.034084 -0.227287 0.233260 0.182910 0.414836 -0.507407 -0.300318 -0.199787 0.351077 0.162807 -0.121358 0.242901 -0.414883 0.201393 0.420123 0.460732 0.383217 0.389718 0.184855 -0.157304 0.593949 -0.096409 0.400677 0.054323 0.492758 -0.297629 -0.066657 0.307034 -0.085191 -0.332614 -0.347291 0.323129 -0.131230 0.363812 0.009998 -0.142019 0.374080 0.211826 0.143097 0.195648 -0.126985 -0.403084 0.025837 0.038544 0.299601 -0.074993 -0.005000 0.209256 -0.130687 0.637777 0.461223 -0.207089 -0.119376 0.203224 0.222286 -0.280994 0.363983 -0.380901 0.493780 -0.283700 -0.246362 -0.352915 0.449275 0.067614 0.411496 -0.085884 0.380472 0.240429 -0.375758 0.016368 -0.068438 -0.006358 0.041453 0.350058 0.437290 -0.225923 -0.220402 -0.089694 0.377139 -0.067173 -0.201071 0.143377 0.092677 0.032648 -0.274251 -0.302430 0.113463 -0.494325 -0.235587 0.072905 -0.347444 -0.035051 0.132514 -0.443297 0.487384 -0.001057 -0.030870 0.357441 -0.268935 0.085509 -0.112978 0.149460 -0.428562 0.462911 0.100963 -0.438429 -0.297727 0.279043 -0.130084 0.480985 -0.334917 0.123652 0.093980 0.213662 -0.396915 0.342028 0.470957 0.295182 0.376854 -0.229803 -0.136980 0.485885 0.191584 0.452049 -0.459117 0.168562 -0.058892 0.002880 0.043145 0.186895 -0.376426 0.450346 -0.129677 -0.303948 0.363328 0.404318 -0.296417 -0.483323 0.132036 0.038633 0.493108 0.284292 -0.349619 0.101442 0.032925 -0.210285 -0.043472 0.014471 -0.426288 
-0.183803 0.267530 -0.080403 -0.201215 -0.044206 -0.131652 -0.164114 -0.371018 0.309797 0.338010 0.164399 -0.016627 0.422912 0.090650 0.346555 -0.385217 -0.075290 0.220392 -0.183462 -0.051112 -0.140060 0.350814 -0.060394 -0.354019 0.503040 -0.458049 0.178602 -0.207445 -0.005003 -0.310395 -0.137185 0.301628 0.447498 0.272840 -0.409648 -0.107121 -0.372890 -0.085769 0.010059 0.423745 -0.263851 -0.327881 -0.077160 -0.324031 0.241557 -0.253285 -0.219768 -0.319935 0.482177 0.087189 0.122315 -0.163416 -0.067191 -0.445263 -0.027044 -0.073669 -0.371801 -0.316924 0.250329 0.113736 -0.136829 -0.442319 -0.140684 -0.204380 0.357887 -0.003026 0.182752 0.490921 0.396323 -0.296660 0.429166 -0.351278 -0.187224 -0.224856 -0.234644 -0.425996 0.056028 0.031750 -0.271193 0.013619 -0.387497 0.343341 0.340844 0.035906 0.429762 -0.154537 0.493876 0.507269 -0.022186 0.147582 0.023858 0.278102 0.228506 0.426598 0.529431 0.055906 -0.144689 0.179676 0.012967 -0.281520 0.272131 -0.187790 -0.245335 -0.404718 0.123580 0.002433 -0.375429 -0.364095 -0.473717 -0.156010 0.139311 -0.371482 -0.281019 0.011679 0.196015 -0.406980 0.301275 0.134282 -0.450289 -0.278487 -0.201856 0.091815 0.487468 0.494025 -0.041345 0.486841 0.020015 0.290751 0.094566 0.450512 0.376108 -0.172477 -0.267282 -0.380286 -0.118060 0.315622 0.113382 -0.003551 0.440747 0.128434 0.364610 0.104116 0.280961 0.528000 -0.440089 -0.104831 -0.441598 0.288212 0.504117 -0.446940 0.432078 -0.321972 0.040216 0.371679 -0.377817 0.455456 0.316823 0.109753 0.222425 -0.098890 -0.016996 0.044935 0.142754 0.184474 0.165874 -0.475248 -0.009983 -0.231683 0.036944 -0.054208 0.448216 -0.113175 0.533899 0.148207 -0.152382 0.472115 0.486500 -0.177334 0.265399 0.487570 -0.101450 0.259413 -0.311434 0.472707 0.161606 -0.141151 0.488049 0.002571 0.410922 0.123411 0.240700 -0.157276 -0.353604 -0.095351 -0.472766 0.310686 -0.045586 0.039409 -0.363169 0.486876 0.472496 0.452605 -0.226152 0.404448 0.056077 0.030382 0.339904 -0.002562 0.359165 0.112173 -0.005928 -0.231481 -0.099821 0.213554 -0.183770 0.544497 0.512731 -0.295831 -0.055576 0.420144 0.283072 -0.322347 -0.270563 0.429654 0.107742 -0.222399 0.296086 0.545188 0.298405 0.306294 0.434850 0.171832 0.208486 -0.393411 -0.011044 -0.273203 0.139994 -0.127243 0.295117 0.062017 -0.488294 -0.188088 0.403417 -0.042054 -0.425893 -0.336352 -0.038081 -0.430027 -0.154746 0.388171 0.418431 -0.408834 -0.444564 -0.330278 -0.425877 0.123495 -0.090259 0.242318 0.095456 -0.377717 -0.040095 -0.069959 0.210942 -0.322656 0.036837 -0.260663 -0.036903 -0.251898 0.140482 -0.216144 0.373269 0.258778 0.150289 0.273060 -0.324863 0.213102 0.408705 0.117033 0.222643 -0.306289 -0.032820 0.163440 -0.160287 -0.024099 0.285125 -0.220739 -0.451828 -0.346033 0.474787 0.048794 -0.316108 -0.033348 -0.510672 0.428190 0.175460 0.094876 -0.310558 -0.332352 0.426017 0.467550 0.027403 0.311599 0.161715 -0.302248 0.045064 0.315853 0.351506 -0.098449 -0.104288 0.087902 0.145318 0.323220 -0.273521 0.390840 -0.213116 0.463422 -0.401803 -0.273741 -0.476825 -0.431199 0.296489 -0.292942 0.042203 0.335264 -0.311819 -0.245233 0.032403 0.014390 0.015966 -0.073068 -0.117809 -0.450755 -0.282335 0.524240 -0.312954 0.207851 0.317895 -0.434833 -0.325792 -0.306632 0.106700 0.182785 0.451962 0.281232 -0.006141 -0.386869 0.144258 0.088930 -0.135744 0.193514 0.179933 -0.307207 0.435925 -0.231245 -0.357219 -0.255298 0.145917 0.119437 0.170674 -0.355079 -0.452964 -0.453549 -0.358234 -0.294947 -0.465418 -0.158770 0.462653 0.331261 -0.116766 0.497173 0.430574 0.431841 0.171506 0.296886 0.129739 -0.346505 0.441260 -0.202691 0.258545 -0.151814 -0.460846 -0.013246 0.117485 -0.420417 0.314536 0.187940 -0.287029 -0.073625 -0.182920 0.342705 0.020473 -0.194269 0.404483 0.188321 0.075846 0.433368 0.508225 -0.086782 0.161353 -0.205506 -0.134774 0.018352 -0.325924 -0.510454 -0.194826 0.284148 -0.370598 -0.223529 -0.397642 0.457125 0.236887 -0.269610 -0.048921 -0.241035 -0.344435 -0.277278 0.427930 -0.162766 0.100362 -0.275307 -0.268357 -0.353149 0.095026 -0.383775 0.300360 0.540499 0.438609 0.198538 -0.159892 -0.019398 0.470849 0.231776 -0.457233 -0.364454 0.230516 -0.122303 0.437716 0.462881 0.276255 -0.378047 0.359770 -0.126307 -0.343788 -0.283044 0.111481 -0.173159 -0.063853 0.063203 0.215742 -0.436143 0.354301 0.412870 -0.339008 -0.171850 0.443821 0.385943 -0.206832 0.304644 0.054059 0.169613 -0.131925 0.039792 -0.099494 -0.130492 0.147262 -0.343149 0.242390 0.040590 -0.477224 -0.092480 0.031839 0.334930 0.327449 0.267810 -0.407431 -0.041950 -0.371231 0.041057 0.572589 0.316744 0.069134 0.318974 0.164147 0.170163 -0.436598 0.020462 0.002245 -0.162516 -0.153743 -0.434650 0.471493 0.102595 0.041467 -0.133267 0.440764 -0.367313 -0.029674 0.167532 0.136239 -0.003944 -0.339233 -0.244221 -0.136033 0.496250 -0.455664 -0.042009 -0.007975 -0.369911 0.447979 -0.025777 0.420837 0.043203 -0.261091 0.048711 -0.340753 -0.189436 0.554905 0.127422 0.092550 -0.207069 0.086784 -0.027231 0.349735 -0.342641 0.373713 0.289071 -0.265748 -0.175577 0.034922 0.442449 0.348323 0.194971 -0.290725 -0.287180 0.227820 -0.270941 0.138323 -0.359911 -0.136121 0.090252 0.025436 -0.297146 -0.456254 0.249989 0.176569 -0.387142 0.464847 0.171171 0.210372 -0.002591 0.443750 -0.170865 -0.485267 0.290988 -0.068967 0.365047 0.136841 0.200294 -0.269958 -0.331147 0.152797 -0.420362 0.364542 0.300135 -0.262081 0.023534 -0.472436 0.350230 0.093441 -0.147772 -0.039724 -0.329840 0.042699 -0.022906 0.362247 -0.283360 0.046480 0.293165 0.393202 -0.198507 -0.162583 0.331402 0.099758 -0.141088 0.161724 -0.450667 -0.226835 -0.195847 0.274133 0.011606 -0.018995 -0.098436 0.082151 -0.187147 -0.301677 0.276149 0.290118 -0.296463 0.156884 -0.086516 0.030542 -0.405974 0.036265 -0.419337 0.018916 -0.085300 -0.162139 -0.339948 -0.243889 -0.276177 -0.068431 0.089548 -0.422603 -0.454468 0.498350 0.245721 -0.380047 -0.219423 -0.443761 0.363779 0.263074 -0.015390 -0.286361 -0.249472 0.264017 -0.105395 -0.444679 0.057410 0.082666 0.192729 0.449646 -0.366202 0.268322 0.035191 -0.209056 -0.109834 0.466649 0.103346 0.001525 -0.288383 0.340824 0.444249 0.351954 0.424444 0.514772 0.359398 0.178971 -0.395403 -0.389932 0.166594 0.398669 0.299968 -0.342076 -0.372351 -0.420827 0.425659 0.035566 -0.347936 0.013094 -0.355977 0.338544 -0.001318 -0.159302 0.208808 -0.430276 0.117508 -0.440787 -0.472195 -0.267982 0.070734 -0.218893 -0.429132 0.039253 -0.350671 0.511507 0.026205 0.481120 0.119718 0.077714 -0.463277 -0.172987 0.009236 0.355355 -0.004322 0.139257 0.466340 -0.067612 -0.330690 -0.393087 0.428511 -0.219755 0.487357 -0.034234 0.131431 0.161917 0.016705 -0.235208 0.236098 0.076541 -0.013279 -0.161876 0.388940 0.088887 0.326850 0.488010 0.009261 -0.207388 0.407590 -0.353665 0.360555 0.417946 -0.038236 -0.138317 0.298173 0.426818 0.458942 0.226952 -0.185804 -0.415185 0.336946 -0.206639 -0.089542 0.303626 0.232968 -0.427464 -0.003889 -0.219676 -0.172466 -0.236469 0.388156 0.345574 0.035806 0.211415 -0.172116 -0.197937 0.138269 0.354718 0.067942 0.018861 0.502760 -0.048522 -0.023029 -0.054416 0.271108 -0.262716 -0.143985 0.198214 0.446476 0.202145 0.325666 0.276762 0.499028 -0.234115 0.110897 0.245541 -0.171398 -0.402569 -0.483788 0.146486 -0.189580 0.353977 -0.058345 0.311083 0.029791 0.274898 -0.396919 -0.341709 0.121470 0.176406 0.183406 0.111471 -0.396514 -0.360604 -0.445341 0.372134 -0.128382 -0.078585 0.096524 -0.171479 -0.369567 -0.067809 -0.384341 -0.377131 0.188319 
0.226626 0.368492 0.516918 0.314471 0.375083 0.153824 -0.385383 0.218580 -0.415641 0.415581 -0.262185 0.349696 0.510262 -0.109619 -0.032705 0.181254 -0.435703 -0.431780 0.274400 -0.306480 -0.386365 0.135604 0.054518 0.024886 -0.276507 0.374043 0.145612 0.145995 0.480080 0.258899 -0.175308 0.187365 0.108037 -0.177649 -0.018123 -0.036875 0.455513 0.077415 -0.337950 -0.478034 -0.024101 -0.113925 0.357832 -0.030585 0.253589 -0.199737 -0.373989 0.297288 -0.150610 0.379465 0.470161 -0.057313 -0.002284 0.006685 0.448225 0.201833 -0.138682 0.074486 -0.171507 -0.177442 -0.185478 0.134531 0.490179 0.402769 0.437748 -0.045996 -0.152327 0.376143 0.514398 -0.006937 0.377698 -0.031878 0.353716 0.211059 0.415317 0.088967 0.495451 -0.475901 -0.133353 -0.175385 0.383614 -0.181204 0.247957 -0.138044 0.306146 0.176807 -0.455512 -0.351803 -0.267958 -0.146176 -0.049477 0.026459 0.467138 -0.079505 -0.091261 0.385577 0.354748 0.236432 0.237111 0.344918 -0.293615 0.097269 -0.202130 -0.453309 -0.204214 -0.302897 0.117169 -0.228860 -0.301300 0.465840 0.076471 -0.437031 -0.234738 -0.194934 -0.094431 -0.447711 0.462831 -0.069055 -0.319897 -0.325639 0.260225 0.108846 0.175598 0.208215 0.509703 -0.433574 0.073350 0.344266 0.285924 -0.202212 0.179527 0.483296 0.383059 0.462641 0.511250 -0.340431 -0.362765 0.110509 -0.088183 -0.183603 0.057062 0.469009 -0.139942 0.303194 -0.245023 0.244060 0.330895 -0.307070 -0.353178 0.486703 -0.153434 0.395109 0.086967 0.514844 0.094860 0.083108 -0.430946 -0.342669 -0.083602 0.343628 -0.057685 -0.419808 0.307818 -0.191744 -0.476133 0.303128 -0.050910 -0.358718 -0.104982 0.342232 -0.061085 0.432676 0.291957 0.275759 0.209645 -0.478861 -0.003685 0.024587 -0.297629 0.140820 0.013195 0.043521 0.031548 -0.415209 0.039980 -0.391967 0.147124 0.090914 -0.255638 -0.453417 -0.084438 0.174058 -0.386436 -0.290262 0.463133 -0.382720 0.494163 -0.106556 -0.260329 -0.132667 -0.288012 0.152800 -0.225261 0.477950 -0.092577 0.467112 0.486685 0.399395 -0.009880 -0.318784 0.029789 0.481463 0.200993 -0.460491 -0.456765 -0.281672 -0.376111 0.173356 0.292750 -0.139244 0.209040 -0.304960 0.515626 0.302251 -0.113539 0.460500 0.399404 -0.140812 -0.169813 -0.383700 0.201110 0.020278 0.247120 0.458163 -0.011615 -0.347903 0.427916 -0.027508 -0.457126 -0.101031 0.132682 0.053898 -0.134415 -0.181063 0.075069 -0.109187 0.018768 0.191432 -0.446758 -0.199998 -0.466524 0.242963 -0.022557 -0.468643 0.024132 0.343007 0.469002 -0.097607 -0.325633 -0.225186 -0.005543 0.361495 0.287814 -0.255409 0.326246 -0.226979 -0.112620 0.236225 0.227377 -0.086439 -0.377764 -0.155686 0.449808 -0.031670 0.141619 0.014374 0.348157 -0.349026 -0.312636 0.383598 -0.065826 -0.296231 0.106012 0.390721 -0.287744 -0.390639 0.207235 -0.344414 -0.013252 0.368008 -0.076911 0.486001 0.233039 -0.290133 -0.278000 0.042313 -0.035351 0.092378 -0.235775 -0.324107 0.487777 -0.133273 -0.002788 0.424797 0.326719 -0.367294 -0.076436 0.157755 -0.233883 0.093138 0.021054 0.182169 0.275444 -0.395360 0.042166 0.460192 -0.306787 -0.258015 -0.384434 0.187512 -0.390745 0.033717 0.159592 0.323212 0.222772 0.361547 -0.150073 -0.327378 -0.060869 0.096114 -0.175240 -0.087067 0.455119 0.317831 -0.174937 0.265661 0.431494 0.227062 -0.101257 -0.320661 -0.198496 0.398947 0.333586 -0.448388 0.487364 -0.129290 0.513736 -0.317614 0.106828 -0.382283 0.349848 0.196148 0.128634 -0.008406 0.005275 -0.156613 -0.158814 0.339431 -0.006249 0.267440 -0.070560 0.314989 -0.330292 -0.130432 0.115360 -0.027538 -0.387446 0.031334 -0.316116 -0.009754 0.185787 -0.039218 -0.121569 0.015720 0.012468 -0.136240 0.379293 0.015034 0.027999 -0.030512 0.114120 -0.135130 -0.346301 -0.264861 0.341294 0.141365 0.056964 -0.326648 -0.023906 -0.451888 0.431642 0.390554 0.343903 -0.421555 -0.261229 -0.055000 0.036982 -0.168797 0.451184 0.194250 0.308531 0.132626 -0.345041 -0.316916 -0.359336 0.157549 0.032581 0.505046 -0.347484 -0.451495 -0.035308 0.257227 -0.104754 0.098319 0.471687 -0.271975 -0.265677 0.023919 -0.109526 0.194084 0.051426 -0.200820 0.063179 -0.118640 -0.135875 0.280754 0.301248 0.370398 -0.407056 0.245497 0.067262 0.399308 -0.128869 0.210294 -0.433074 -0.007692 -0.153317 0.089119 -0.012546 -0.012372 0.115472 0.429310 -0.276628 0.502731 0.021170 -0.312400 -0.283052 0.237666 0.190767 0.084510 -0.089605 -0.271782 0.370531 0.452842 0.083274 -0.296095 0.214035 -0.124311 -0.422464 0.304242 -0.385289 0.127313 0.186005 -0.035754 -0.176819 0.247111 0.444418 0.151749 -0.189752 -0.084788 -0.377271 0.424324 -0.160251 -0.160356 0.411421 0.343045 0.008444 -0.391574 0.062309 -0.314574 0.177076 0.449576 -0.114429 0.017715 0.382202 0.459156 0.221897 0.092258 -0.171311 0.284490 -0.116111 -0.072659 -0.095134 -0.433315 0.379195 0.205546 0.288865 0.312158 -0.153108 -0.398944 -0.275444 -0.036302 0.510165 0.045446 0.282424 0.400780 -0.132645 -0.225986 0.490347 0.406479 -0.070126 0.141856 0.332270 0.300398 -0.349723 0.210419 0.256842 0.360512 -0.204541 -0.426985 0.136693 0.165295 -0.015014 -0.481595 0.215823 -0.146306 0.217544 0.001892 -0.340304 -0.443606 0.088217 -0.135048 -0.001218 0.075977 0.387753 -0.235526 -0.041959 -0.264233 0.013334 -0.074317 -0.376981 0.428660 -0.447201 0.446773 0.224664 -0.301905 0.152188 -0.030567 -0.452011 0.430054 0.027559 0.167582 0.086974 0.504214 0.185247 -0.204586 -0.152098 -0.108115 0.282371 -0.010378 -0.070760 -0.149699 0.334328 0.412946 0.408753 0.204144 -0.347236 -0.151479 0.421344 0.151482 0.257993 -0.469433 0.070360 0.304418 0.470871 -0.215420 0.490123 0.109169 0.242472 -0.470022 0.032710 -0.241353 0.189500 -0.392401 -0.251246 -0.141460 -0.112718 0.078279 0.231981 -0.348812 -0.451005 -0.358843 -0.021068 0.362148 -0.468791 -0.128603 0.048957 -0.328259 0.203455 -0.045582 0.307955 -0.052398 -0.025545 -0.132548 -0.258031 -0.067646 0.140495 -0.278224 -0.469070 -0.134625 -0.266076 0.043914 0.108667 0.406544 0.137304 0.338510 -0.253051 0.506358 -0.103478 0.457609 -0.363669 -0.074369 -0.419635 0.101527 -0.229822 -0.404022 0.453275 0.297654 -0.251374 0.140031 -0.256543 -0.453543 -0.425139 0.200563 -0.101862 -0.197928 -0.383535 -0.481545 0.004385 -0.370456 -0.130738 0.222017 0.159189 0.458924 0.109922 -0.222134 0.278763 0.335727 -0.238536 -0.345905 0.273776 -0.118296 0.062821 0.337412 0.460706 0.312265 0.413964 0.396470 0.100883 -0.350371 0.023356 0.325452 -0.321326 0.080016 0.009235 0.058687 0.365804 0.109680 0.061072 -0.147473 0.223169 0.411098 -0.444539 -0.136763 0.350860 0.145808 0.119869 0.106678 -0.039666 0.365310 0.243691 -0.282994 -0.275164 -0.212140 -0.464379 -0.329825 -0.411465 0.436581 -0.443945 0.173689 -0.429700 0.060133 -0.015340 -0.268321 -0.375938 0.476351 0.274334 0.472281 0.070114 -0.183818 -0.194581 -0.226090 -0.292069 -0.158457 0.116125 -0.462294 0.466159 -0.280004 0.128199 -0.089775 -0.435966 -0.145153 0.109903 -0.225279 0.130887 0.133975 -0.066695 0.204160 0.055181 -0.028230 -0.138244 0.108179 0.514179 0.327075 0.325145 -0.377910 0.287293 0.080064 -0.425018 -0.162005 0.376911 -0.138709 0.092859 -0.434269 0.183355 -0.308763 -0.414493 0.129955 -0.110165 0.195916 -0.476258 -0.060855 -0.465179 0.118108 0.198203 0.147859 -0.267422 -0.389314 -0.168773 0.268787 0.064702 0.176790 -0.137755 0.062720 -0.013850 -0.331973 0.165407 -0.245983 0.228681 0.221052 0.072736 0.086277 -0.437145 -0.353942 0.132419 0.226494 -0.182456 0.198501 -0.161292 0.189682 -0.125057 -0.156718 -0.390560 -0.109828 0.441727 0.287956 0.518314 -0.343692 0.381643 -0.167390 0.408078 -0.071435 0.490131 -0.249051 
0.453708 -0.061183 -0.118391 0.100047 0.173504 -0.409036 -0.225612 -0.281337 0.148409 -0.154631 -0.171556 -0.340681 -0.559942 0.070253 0.393412 -0.185041 -0.257944 -0.299970 0.126944 -0.156762 0.124190 0.059342 -0.348519 0.175553 0.255027 -0.456553 0.489037 0.143798 -0.047417 0.459742 0.375461 -0.094720 -0.102580 -0.244257 -0.523426 -0.438650 -0.164012 -0.195471 -0.229875 -0.609533 0.036101 0.066092 -0.284806 0.142804 -0.281710 -0.384876 -0.498352 0.050517 -0.027106 0.205979 -0.498714 -0.299310 -0.118276 -0.289202 0.375277 -0.364345 -0.247212 0.362981 0.278214 0.202311 0.319585 0.162946 -0.406507 -0.297040 0.392641 -0.364450 -0.197806 -0.304111 -0.133388 0.059837 -0.300484 -0.459074 -0.306439 -0.080536 0.205274 0.008129 0.166726 0.304279 -0.384834 -0.233530 0.092928 -0.327269 -0.033294 0.473507 -0.117686 -0.159329 -0.391967 0.133968 -0.297464 0.397570 -0.175750 -0.489745 0.024074 -0.029140 -0.242268 -0.110965 0.008578 0.006411 0.141985 0.448878 -0.429016 0.340744 -0.526639 -0.186053 -0.109591 0.262111 0.325899 -0.292454 0.115147 0.495609 -0.025879 -0.292863 -0.332845 0.439553 -0.320462 0.060810 -0.188450 -0.181424 -0.330765 -0.075182 -0.417905 -0.005392 0.020419 0.193923 0.538160 0.259018 -0.379043 -0.012434 -0.209010 0.358392 -0.003619 -0.152016 0.211101 -0.047818 0.112018 -0.311880 -0.203088 0.051385 -0.044249 0.408357 0.045546 0.428343 -0.368119 0.242175 0.399485 -0.185745 -0.227699 -0.370824 0.018681 -0.117333 0.079469 0.204625 0.451008 -0.407613 -0.101542 0.334558 0.336730 0.133299 -0.077626 -0.347865 -0.080850 0.359608 -0.038130 -0.307920 -0.082848 -0.302735 -0.032303 0.208197 0.246768 0.430144 0.134436 -0.175657 0.383823 0.265475 -0.447374 0.238218 -0.502348 -0.298776 0.314216 0.033063 0.177699 -0.065971 -0.170321 0.112602 0.089373 0.351832 0.062477 -0.030802 -0.091651 0.469326 0.086881 0.308753 0.418972 -0.381455 -0.445551 -0.171869 -0.180675 0.034151 -0.446744 -0.413834 0.002342 0.234467 -0.111981 -0.248654 -0.197747 -0.291300 0.404249 -0.230076 0.083530 0.333672 0.399468 -0.297106 -0.306855 -0.255489 0.316141 0.403020 -0.362799 0.084493 -0.080564 0.008741 0.040158 -0.472730 -0.161215 -0.080965 -0.364926 -0.108624 0.243403 -0.049463 0.398725 0.302639 -0.001628 -0.204730 -0.168560 0.255641 0.148705 0.230641 -0.324989 0.184350 -0.470957 0.071263 -0.289989 -0.635065 -0.728810 0.229961 -0.133799 0.581564 0.245821 0.015779 -0.005564 -0.375456 0.497683 0.460961 -0.352662 -0.168302 -0.085574 -0.188016 0.222090 -0.368757 0.189052 0.033188 0.212448 -0.463156 0.312505 -0.438713 0.387318 0.058123 0.297597 -0.565524 -0.600778 0.333672 0.122338 -0.083201 -0.576262 0.336038 -0.197889 -0.024930 0.205178 0.482504 0.457568 -0.368274 -0.401225 0.424286 -0.389971 -0.217130 -0.238180 0.009326 0.039402 0.420347 -0.066899 -0.503401 -0.097500 -0.303328 -0.335013 -0.145584 -0.274443 -0.544217 0.198509 -0.319277 -0.390463 0.321257 -0.428567 0.414368 -0.125449 -0.200974 0.081669 0.122313 0.195736 -0.279614 0.089241 0.129435 -0.148351 0.168683 0.015624 -0.013920 0.419760 0.217470 0.279586 -0.274529 0.079637 -0.268474 -0.216479 -0.572630 -0.137989 -0.065959 -0.129550 0.376814 0.160808 -0.328229 -0.386393 0.300859 -0.464065 -0.165672 0.050734 -0.156002 0.108238 -0.430069 0.469864 -0.206404 -0.229685 0.006918 0.368364 0.099271 -0.321835 -0.130094 0.425598 0.386561 -0.488334 0.183733 -0.320029 0.071221 0.434384 0.040026 0.217191 0.019960 -0.337520 -0.407130 -0.140547 0.356652 -0.219254 -0.072818 -0.029116 -0.231047 0.306829 0.510641 0.132154 -0.100361 -0.431368 0.069363 0.160782 -0.181127 -0.402400 0.039355 0.343719 -0.411961 0.280308 0.175127 -0.405185 0.357921 0.025887 -0.236894 0.100408 0.146161 0.419820 -0.157653 -0.427271 -0.327870 -0.045602 -0.182164 0.307774 0.178363 0.309211 -0.204282 0.470422 0.105207 -0.201663 0.083127 0.488502 -0.124365 -0.311908 0.158695 0.058509 -0.420619 -0.421172 -0.125840 -0.238314 0.412689 -0.312984 -0.268210 0.373858 0.351181 0.115835 -0.003999 -0.061876 0.214376 0.399535 -0.097522 0.194633 -0.226319 0.245747 0.001020 0.487554 0.047021 0.298092 0.453724 -0.381286 -0.418938 -0.003257 -0.422095 -0.232765 -0.048219 0.149278 0.428428 0.242390 0.253422 -0.139245 0.359351 0.194594 0.247676 -0.208702 0.166915 0.175344 -0.289961 -0.203014 0.491901 0.271776 -0.389689 -0.125043 -0.055321 -0.070083 -0.381387 0.438032 -0.096783 0.121181 0.216882 -0.279544 0.137674 0.090206 0.173636 0.267445 -0.434924 -0.043495 -0.002164 -0.480973 -0.518098 -0.272942 -0.090415 -0.476430 -0.534156 -0.277033 -0.017305 0.250280 0.265083 0.014469 0.461441 0.260548 -0.223791 -0.375384 -0.364222 0.216045 0.026108 -0.288956 0.132955 0.324278 0.233647 -0.290612 -0.376890 0.020242 0.480949 0.484258 -0.130666 -0.416783 -0.295487 0.249386 -0.534128 -0.307760 0.428702 -0.007349 -0.247921 0.475287 0.176297 0.088570 0.189518 -0.009727 -0.381245 0.192394 -0.267757 -0.123928 0.305846 -0.157090 -0.405956 -0.198706 0.045555 0.156154 -0.338845 -0.189665 0.424223 -0.085850 0.451292 0.462281 -0.267665 -0.234773 0.436248 -0.123028 0.383177 -0.415060 0.119311 0.391192 0.015275 0.221885 0.357942 -0.263751 -0.172784 0.075671 0.193252 -0.084796 -0.250958 0.404459 0.310329 -0.459885 -0.280916 0.293693 -0.266174 0.248379 0.022418 0.022081 -0.304205 -0.065205 0.290196 -0.450741 -0.102276 0.447006 -0.421774 -0.268621 -0.157567 -0.362599 -0.194994 0.327007 0.497781 0.344004 0.058567 0.372922 -0.435366 0.364206 -0.072326 0.230033 -0.189453 0.196347 0.164013 -0.501176 0.078843 0.405127 0.352315 -0.437038 0.275124 -0.076740 0.042544 0.368138 0.295942 -0.186332 0.339696 -0.432955 -0.330619 -0.518482 -0.083585 0.000903 -0.346965 0.272645 -0.178064 -0.340504 0.104661 0.373672 0.508613 0.153745 0.219775 -0.097711 -0.170163 0.445061 -0.466382 -0.459068 -0.449772 0.237910 0.375722 0.328602 0.192894 0.034411 -0.261355 -0.268562 -0.096526 -0.456794 -0.025255 -0.298966 -0.314135 0.183786 -0.185475 0.145817 -0.337721 -0.069561 -0.096950 -0.003390 0.092246 0.496003 -0.168517 0.048944 0.108205 -0.484708 0.475535 0.489565 0.517112 -0.498386 0.462764 -0.555605 0.209479 0.333179 0.345775 -0.024322 -0.024922 -0.349000 0.306115 0.414907 -0.270532 -0.233728 -0.336564 -0.072244 0.396114 -0.078646 -0.450063 -0.440434 0.350596 -0.069652 0.004484 -0.107438 -0.082571 0.333624 0.493709 -0.433383 0.396078 0.461329 -0.450147 0.389465 0.488225 0.538314 0.422917 0.282428 0.477191 0.310242 -0.236333 -0.133421 0.392330 0.492080 -0.250290 -0.408245 -0.295828 -0.114346 -0.006084 -0.396158 0.305760 0.031220 -0.349185 0.167625 0.511279 0.213699 -0.381261 -0.024618 0.088338 -0.397385 0.033264 -0.044612 0.540127 0.060061 -0.188104 0.457848 0.050129 -0.324690 0.175774 -0.110941 0.361520 0.379758 0.239247 0.239043 0.343376 0.487753 0.329596 -0.453713 -0.127853 -0.189276 -0.362497 -0.309355 0.383945 -0.160323 0.367745 0.392426 0.516877 0.454185 -0.163271 0.085658 0.504255 0.318627 0.453816 0.452037 -0.193275 -0.297116 0.370121 0.249361 -0.218221 -0.016476 -0.386446 -0.381213 -0.164616 0.351599 0.356628 -0.322441 0.338207 0.179492 -0.282760 -0.270889 -0.473906 -0.100306 -0.078667 0.404700 0.205889 -0.223432 0.286642 0.235024 -0.324595 -0.432200 -0.266299 -0.406991 0.320761 -0.349255 0.505021 -0.480138 -0.210026 0.318765 0.244718 0.047478 -0.225552 0.357122 0.164976 0.108794 0.207512 0.015023 0.279638 0.039127 -0.301093 -0.498731 0.255889 -0.287277 -0.120874 -0.360506 -0.419849 -0.442674 -0.146900 0.303183 0.227165 -0.036817 0.304830 0.437355 0.032456 0.079174 -0.449914 0.002189 0.072897 -0.186137 -0.207056 
-0.184811 0.358947 0.065077 -0.328891 0.022780 -0.327382 0.377478 -0.457897 0.456575 -0.079085 -0.254657 0.462073 -0.327555 -0.046310 -0.163053 -0.192243 0.029858 -0.109872 0.156555 -0.171253 -0.383563 -0.381197 -0.367363 -0.460852 0.136601 0.197125 -0.425403 -0.375880 -0.231231 -0.112680 -0.084077 0.083985 -0.253705 0.481029 0.255120 0.269111 -0.346319 0.132640 0.311237 -0.389723 -0.446432 -0.443401 -0.427629 -0.273962 0.010317 -0.090660 0.033815 -0.459809 0.299487 -0.309609 -0.131048 0.415937 -0.190791 0.001617 0.455114 0.445836 -0.301230 -0.470261 -0.430016 -0.032433 -0.082912 -0.014066 -0.448422 0.163409 -0.033012 0.306728 -0.067461 0.120691 -0.060618 -0.256202 0.230989 -0.007031 -0.199580 0.303381 0.219043 0.310766 -0.287250 -0.247121 0.350969 -0.487747 -0.056713 -0.280049 0.428218 0.252523 0.221598 0.383360 0.198388 0.420396 0.413127 0.268399 -0.112011 -0.169759 -0.245640 -0.060408 0.493677 0.221380 -0.253647 -0.073754 -0.157898 0.185768 0.170076 -0.426877 -0.321216 0.470539 0.376546 0.397850 0.281317 -0.410686 -0.349251 0.132319 -0.398405 0.094064 0.352297 -0.470159 -0.153384 0.073923 0.413229 -0.454971 -0.005659 0.326379 0.313452 0.382363 -0.343344 -0.432129 -0.177986 -0.349618 0.289278 0.068397 0.076652 -0.368597 -0.245813 -0.253243 -0.295452 -0.067023 -0.282695 -0.418887 -0.169138 0.498658 -0.329539 -0.018364 0.131004 -0.227917 -0.424273 -0.016674 -0.198049 -0.077631 -0.442724 -0.284799 -0.032588 0.051667 -0.458362 -0.219067 -0.065939 -0.301678 -0.151194 0.256089 -0.151274 -0.361895 -0.175521 0.425367 -0.230508 0.078666 -0.327865 -0.025937 -0.488314 -0.110523 0.055216 -0.157425 -0.111840 0.225700 0.324233 -0.480810 0.497808 0.399988 0.002540 -0.200193 -0.177597 0.059872 0.015043 0.289838 -0.388470 0.056668 -0.429200 0.045634 0.255032 -0.080369 -0.198296 -0.396279 0.057693 0.126194 -0.470892 0.327214 -0.295097 -0.298721 -0.198682 -0.283384 0.090781 0.356554 0.059213 0.478969 0.082283 -0.116525 0.498186 0.080138 -0.216491 0.000778 0.379954 0.105902 -0.439360 -0.105005 -0.104220 -0.327785 0.451717 -0.033384 0.217844 0.206718 0.386209 -0.480427 0.310467 -0.056068 0.145809 0.339611 -0.228817 0.350736 -0.459086 0.072520 -0.432624 0.131725 -0.070896 0.126618 0.110719 -0.488570 -0.489862 0.108956 0.091582 -0.206359 -0.390273 -0.028470 0.399600 -0.329573 0.366566 -0.204591 -0.157364 0.318255 0.261991 -0.439496 0.024996 0.148226 -0.419890 -0.164501 -0.407809 0.225944 -0.324870 -0.136603 0.076698 -0.283930 0.435945 0.144107 0.347822 -0.134932 -0.229254 -0.041406 -0.123463 -0.219065 -0.432429 0.468113 0.074595 -0.322678 -0.060326 -0.025810 -0.152281 -0.193782 0.269567 0.190376 -0.375504 0.031581 0.250914 0.149530 -0.320156 0.331051 0.485044 -0.227941 0.057016 -0.339803 0.135483 -0.366256 -0.123701 0.071444 0.277875 -0.275846 0.436558 -0.451310 0.182786 -0.186871 -0.170413 0.250326 -0.218772 0.404178 0.427642 0.220910 -0.121633 -0.224616 -0.472845 -0.352037 0.465797 -0.348313 0.179585 0.216739 0.301230 0.359447 0.047810 0.286301 -0.368464 -0.395143 0.446532 0.267063 -0.261349 -0.177112 -0.161449 -0.483432 0.047081 -0.224860 -0.434752 -0.270136 0.088242 -0.105163 0.480181 0.369495 -0.200961 0.407852 0.090438 0.177432 -0.316729 0.117628 0.325425 -0.350911 0.269327 0.005026 0.365849 0.070584 -0.135495 -0.086315 -0.143062 -0.003919 0.018585 -0.196531 -0.236868 0.257230 0.126367 0.101716 0.273811 -0.326529 0.376826 0.339036 -0.096702 -0.034909 -0.266080 -0.116494 -0.165384 0.032954 -0.208613 0.425079 -0.289584 -0.025324 0.042726 -0.464135 0.123790 -0.187918 0.040919 -0.010340 0.382714 0.405470 0.403395 -0.260361 -0.098450 -0.078018 0.043137 0.164703 -0.320756 -0.330448 -0.233544 0.453073 -0.156968 -0.356693 0.292133 0.246328 0.108400 -0.473971 -0.370138 0.443044 0.059013 -0.078726 0.368149 0.269453 0.395973 -0.089097 0.305345 0.019786 0.223033 -0.153685 -0.490500 0.105736 -0.248217 0.412889 0.345393 0.153348 -0.165109 -0.111438 -0.181878 0.014189 0.058156 0.084581 -0.032741 0.401155 0.227854 -0.240641 0.147515 -0.163715 -0.214577 0.277403 -0.220645 0.344458 -0.301300 -0.352470 0.113938 -0.405300 0.058484 -0.080667 0.114538 -0.218495 0.265645 0.124031 0.387257 -0.482557 0.036944 0.232687 0.170852 0.371902 -0.378692 0.488977 -0.113909 0.179439 0.073520 0.353314 0.080624 -0.198592 -0.387291 -0.271833 0.137718 -0.101846 -0.494406 0.417097 -0.257361 -0.295679 -0.435322 0.356632 -0.200922 0.123149 -0.224045 0.413610 0.404682 -0.458378 0.037657 0.291974 -0.440882 -0.425332 0.024718 0.229973 0.446550 0.145997 0.218921 -0.167367 -0.174540 -0.207532 -0.314024 0.406112 0.093900 -0.201289 -0.365698 -0.268358 0.196891 -0.360076 -0.351209 0.439584 -0.155699 -0.286542 0.296204 0.143366 0.336636 -0.427821 0.057007 0.241366 -0.386159 -0.405309 0.033359 -0.327042 -0.330640 -0.441958 0.402903 -0.384099 0.204056 0.121842 -0.051444 -0.470458 0.414333 0.134556 0.435678 0.008256 0.433291 -0.429993 0.239930 0.130233 -0.290018 0.388750 0.069825 0.054293 -0.397766 -0.133955 -0.302334 0.438891 -0.061759 0.254669 0.180225 0.052053 0.349366 -0.286395 0.225045 -0.481299 -0.228353 0.127943 -0.365375 0.475729 -0.250192 0.083205 -0.494705 -0.335831 -0.282212 0.441001 0.172458 -0.348891 -0.488963 -0.087559 0.281372 -0.278948 -0.198800 -0.148798 0.275337 -0.096560 0.217224 0.472990 -0.157689 -0.344535 0.227693 -0.477413 0.207586 0.077043 -0.263822 -0.067396 0.095771 0.007850 -0.439432 0.230419 -0.016399 -0.189595 -0.186348 -0.011072 -0.025396 0.031467 -0.070042 -0.352915 0.182606 -0.058980 0.059523 -0.036026 0.162072 0.360730 0.315181 -0.062578 -0.235829 0.032427 -0.089564 0.106505 0.187929 -0.361867 0.129104 -0.104483 0.215206 0.365308 0.328141 -0.189002 -0.126818 0.388742 -0.458553 0.356815 -0.300826 -0.144879 -0.154232 0.173802 0.386617 0.275749 0.320912 0.069246 -0.283204 -0.119532 -0.466746 0.378901 -0.258770 0.348465 -0.183654 0.005425 -0.119077 0.226815 -0.388035 -0.431113 0.364984 0.241099 -0.035579 0.080207 0.106427 -0.207405 0.391236 0.479639 -0.318640 0.432705 0.336477 -0.119444 -0.212145 -0.317733 -0.445621 -0.325504 0.458044 0.375321 0.243771 -0.325131 -0.244180 0.277055 -0.446201 -0.002923 0.125547 -0.129824 -0.497465 -0.493498 -0.402977 -0.385469 -0.424595 0.462024 0.355648 0.039854 0.042258 -0.037898 0.332472 -0.066484 -0.058238 -0.486146 -0.133752 -0.221733 -0.105565 0.154128 -0.039438 -0.051157 0.328652 -0.081364 -0.175806 0.072453 0.093533 0.080043 -0.150464 0.147361 -0.422852 0.475110 -0.482436 -0.420291 0.481634 -0.385391 -0.305737 -0.442933 -0.423339 -0.450061 0.096949 0.118949 0.012067 -0.070551 -0.447505 0.453864 -0.056667 -0.081228 -0.267841 0.337798 -0.427073 0.192752 -0.213328 0.401608 -0.388585 0.110893 -0.025913 0.204977 -0.309037 0.323652 -0.147634 -0.231861 0.298788 -0.130044 -0.152125 0.280450 -0.015411 0.042163 0.337545 0.061281 0.092132 -0.065477 -0.319742 -0.395771 0.364001 -0.267221 -0.441880 -0.192638 0.151579 -0.209692 -0.354814 0.224533 0.483086 -0.068115 0.126169 -0.405471 -0.457193 -0.399714 0.299534 -0.266203 0.423964 -0.348075 0.001959 0.222781 0.021907 0.349863 0.003257 -0.493472 -0.107944 -0.159167 0.067838 0.484215 0.275384 0.248125 -0.411529 0.139412 0.480928 -0.353381 0.446799 0.132534 -0.063047 -0.407987 -0.142906 -0.079933 0.023924 0.483291 0.014622 0.066760 -0.416397 -0.185814 0.300583 -0.492405 -0.033862 -0.197427 0.230405 0.488074 -0.347537 -0.266310 0.494630 0.044546 0.074550 0.062494 0.028787 -0.150038 -0.189354 0.117287 0.489399 -0.208398 0.263933 0.436226 0.424162 -0.299086 -0.471734 -0.218716 0.121009 0.052220 
