784 256 256
0.348319 -0.097403 0.291195 0.306523 0.419734 -0.294331 -0.156086 0.278536 -0.202360 0.074298 -0.002567 0.143323 -0.122943 0.023840 0.462911 0.426869 0.146914 0.229591 -0.342727 0.122826 -0.472302 -0.245569 -0.352899 0.313492 -0.334782 -0.090855 -0.362091 -0.383060 0.506956 -0.273612 0.021146 0.347196 0.120799 -0.195787 0.146576 0.035887 0.013494 0.493040 -0.187491 0.285751 0.039063 0.280264 -0.089013 0.402191 -0.205518 -0.135064 0.323929 0.435066 -0.418673 0.461154 0.038230 -0.401929 -0.296582 0.172146 0.398355 -0.142907 -0.427679 -0.471828 -0.034071 -0.428794 -0.253632 0.478125 0.410372 0.362139 -0.216222 0.061085 -0.103419 0.273039 0.021599 0.173225 0.047215 -0.445589 -0.044987 0.447060 0.450881 0.241787 -0.203019 0.250540 0.151910 -0.133384 0.200274 -0.323915 -0.050964 0.388209 0.337352 -0.161442 -0.262913 0.401480 -0.141471 0.194234 0.465218 0.099157 0.172486 0.376376 -0.042539 0.432701 -0.099096 0.313631 0.190692 0.418148 -0.006315 -0.273832 0.465920 0.435600 -0.344239 0.389390 0.149665 -0.058854 0.132115 -0.206928 0.294778 -0.184202 -0.044689 -0.265725 -0.304310 -0.215536 0.064818 -0.074210 -0.320420 0.420458 -0.376556 -0.354496 0.013214 0.269174 0.497355 0.445976 0.195779 -0.105596 0.261946 -0.117645 -0.194326 -0.256693 0.098529 -0.248546 -0.334770 0.241650 -0.362140 0.305868 -0.326356 0.253431 -0.417285 0.458290 -0.439287 0.029264 -0.315728 -0.251481 0.306160 0.243604 0.172877 0.484405 0.158249 0.279380 -0.400342 -0.359307 0.025943 -0.414453 -0.421789 -0.286461 -0.034338 0.319582 0.086731 0.268722 -0.428143 -0.332224 0.512774 -0.282877 0.399859 -0.365765 0.501541 -0.442095 0.370554 -0.427636 -0.495980 0.422177 0.088580 -0.314754 -0.324835 -0.089750 0.431358 0.330839 -0.138100 0.053159 0.079247 -0.046092 0.194631 -0.393221 0.035675 0.259300 -0.185189 0.500953 0.097850 0.383693 0.252932 0.134250 -0.457994 0.253328 0.341304 0.433357 0.377474 0.334065 0.483284 0.244120 0.399629 0.490404 0.179713 0.017016 -0.312937 0.340787 0.392052 -0.416778 0.155244 -0.248097 0.137015 -0.262474 0.205975 -0.178542 -0.151530 -0.251365 -0.402514 0.143659 -0.271154 0.156376 0.019994 0.479386 -0.211709 0.054388 0.222552 -0.383376 -0.025261 0.094115 0.441005 -0.042812 -0.152166 0.366032 -0.037509 -0.488649 -0.157106 0.100249 0.336772 -0.263719 0.183019 -0.009903 -0.009833 -0.187629 0.230584 -0.295595 0.144655 -0.449657 -0.081015 0.200130 0.182716 0.145505 -0.144681 -0.307248 0.103467 0.122300 0.226031 -0.178378 0.240340 -0.291066 0.431956 0.196480 0.171906 -0.251143 0.026171 -0.416479 -0.244226 0.362728 0.179112 -0.411006 -0.390274 -0.141600 0.091805 0.116314 0.188294 -0.206242 0.284449 -0.205270 -0.158538 -0.302476 0.483563 -0.497222 0.321718 -0.173074 -0.316231 -0.069946 0.450958 0.422846 0.283797 0.219965 -0.358222 0.172755 -0.132085 0.256902 0.430800 0.397522 0.353992 -0.293812 0.290213 0.041540 -0.195102 0.418034 0.418660 0.377944 0.001354 0.078329 -0.326165 -0.214845 0.362706 -0.009365 -0.041970 0.345165 -0.007724 -0.214834 -0.326109 0.190623 0.253446 -0.331025 0.124719 -0.020257 0.323059 0.208313 -0.329425 -0.294249 -0.018503 -0.381499 -0.365811 -0.140445 -0.155781 0.447045 0.418987 0.123791 0.337708 0.318860 0.007367 -0.153766 -0.098597 0.165905 0.112166 -0.246347 -0.353094 -0.434183 -0.390038 0.159200 -0.116361 -0.189455 -0.146819 -0.418826 -0.084915 0.422045 0.081502 -0.239421 0.157093 0.266525 -0.004173 -0.335445 0.395696 0.135671 0.023364 -0.297003 0.057470 -0.072729 0.341097 -0.094355 -0.248774 -0.167061 0.233485 0.134621 0.479880 -0.168607 0.405465 -0.350485 -0.069959 -0.466659 0.310441 0.276518 -0.205471 -0.390561 0.361787 0.217664 -0.447375 -0.041580 0.497548 0.218057 -0.271262 -0.013344 0.371155 -0.407458 -0.396415 -0.108830 -0.190402 0.168365 0.315881 -0.361512 -0.444454 -0.452734 -0.048357 0.270297 0.196163 -0.051847 -0.369258 0.102717 0.095218 0.046141 0.104426 -0.135737 -0.191213 0.392282 -0.013598 -0.315326 0.119535 0.036952 0.127742 0.086367 -0.278275 0.331506 -0.421567 -0.392992 0.434913 -0.319158 -0.011381 -0.267723 0.330815 -0.215061 -0.147093 0.367726 -0.152216 0.320468 0.173470 -0.448671 -0.228445 0.291592 0.130920 0.334284 -0.188562 -0.274346 -0.291056 0.123494 -0.378933 0.190698 0.293510 0.213374 -0.306084 -0.092758 -0.176173 -0.057746 -0.257835 -0.102977 0.039665 -0.338540 0.059891 -0.491230 -0.124146 -0.126053 -0.199686 0.237139 -0.232734 0.155628 0.065157 0.429990 0.196681 0.315976 0.209566 -0.173880 0.164319 -0.472351 0.052377 0.365620 0.125467 0.137213 0.012249 -0.093851 -0.130137 0.227504 0.313549 0.189545 -0.340393 -0.460376 -0.431801 0.180475 -0.316449 0.110771 0.195144 0.070905 -0.490546 -0.489361 -0.187535 -0.234387 0.162432 0.360882 -0.305633 -0.147861 0.182051 0.397549 0.171708 -0.172681 0.386663 -0.314404 -0.341531 0.013705 0.340076 0.187208 0.415261 -0.301178 -0.102711 0.208975 0.368227 0.038340 0.230464 0.425324 -0.268104 0.428885 0.057129 0.436786 -0.006367 0.037138 0.432312 0.289501 0.319573 0.099152 0.161181 0.505493 0.447663 -0.167232 0.371086 0.090553 0.143239 0.274708 0.288163 0.306859 -0.229327 0.112239 -0.026302 -0.330030 0.295687 0.358610 0.366291 0.160754 -0.083354 0.114709 0.102101 0.149970 0.037354 -0.363046 0.068691 -0.479119 0.203383 0.017112 0.330321 0.018366 -0.379367 -0.000709 0.009884 -0.448936 0.317739 -0.100926 0.149990 -0.039503 -0.347993 -0.078870 -0.245965 -0.086227 -0.474180 0.219536 0.075382 0.317282 0.094979 -0.043299 -0.015131 0.501874 -0.434145 -0.425303 0.135359 0.095559 -0.271410 -0.275998 0.130913 0.424920 0.241641 -0.031629 -0.062911 0.353360 0.458209 0.462738 0.411915 0.275981 -0.157811 0.044962 -0.281623 -0.023090 0.450588 -0.031998 0.384506 0.469539 -0.312432 -0.035375 0.289182 0.266291 0.404968 -0.236560 0.262434 0.461867 -0.172345 -0.108925 0.051619 0.047793 0.119162 -0.311526 -0.019177 -0.132717 0.160484 0.423079 -0.286202 0.106671 0.374149 -0.381768 -0.127003 -0.301629 0.146947 0.095057 0.176892 0.096642 -0.438688 0.061112 0.067789 -0.262520 -0.485110 -0.157876 -0.493295 0.419609 0.099267 0.264865 0.380098 0.429911 -0.325946 -0.050728 -0.010872 0.301107 0.144525 0.468998 -0.341398 -0.207109 0.390204 -0.125818 0.408113 0.256265 -0.013340 -0.215595 0.458211 -0.368103 0.376482 0.130961 0.225022 0.428624 -0.310238 -0.211974 -0.327085 -0.288916 0.134616 -0.319410 -0.372324 -0.270004 0.453856 -0.479221 -0.329433 -0.367563 -0.025701 0.158823 0.426952 -0.391014 0.122462 -0.421290 -0.097295 0.005009 -0.052294 -0.194326 -0.243452 0.421648 0.076627 -0.302431 -0.461328 -0.066603 0.315473 0.255428 -0.141956 0.501824 -0.460491 0.025421 -0.297001 0.164239 0.208084 -0.164445 0.400940 0.159261 -0.146084 -0.439997 0.277589 0.311474 0.206938 0.190146 0.413988 -0.177656 0.263426 -0.189580 0.321768 -0.300627 0.099987 -0.438671 -0.394935 -0.339091 -0.252124 -0.360019 0.092997 -0.438213 0.393240 0.449126 -0.439208 0.432461 -0.018517 -0.230418 0.099523 -0.318621 0.095205 -0.014443 0.324955 0.434210 0.034768 0.090472 0.239737 -0.265059 -0.223909 0.146070 0.050675 -0.473333 0.440472 -0.143925 -0.285356 0.031320 -0.090390 -0.186937 0.185969 0.151370 -0.049868 -0.223831 0.214697 -0.155203 -0.273219 0.271763 -0.229260 0.196450 -0.474710 0.352958 0.361147 0.108984 -0.170311 0.176171 0.037827 0.358588 -0.238130 -0.231288 -0.414369 0.026365 0.398777 0.120705 0.039990 0.330570 0.467886 0.246039 -0.146780 -0.130325 -0.446216 -0.464356 -0.482821 -0.000299 -0.194893 0.220767 0.332582 0.018153 -0.023284 -0.412299 -0.300960 -0.008088 0.431519 -0.448467 
-0.431343 -0.270896 0.195540 0.095437 -0.422896 0.445849 0.351800 -0.349678 -0.039903 0.241340 0.261683 -0.507982 0.063614 0.221509 0.228771 0.407664 -0.418519 0.272693 0.431466 -0.413500 -0.240923 -0.276425 0.294123 -0.420573 0.231095 -0.238407 -0.342331 0.422070 0.245043 -0.419081 0.465344 0.329508 -0.174284 0.176679 -0.059241 -0.081499 0.138187 -0.191950 0.084610 -0.384995 -0.433696 -0.136956 -0.377953 0.144924 -0.400464 0.365725 0.067406 -0.304147 0.152473 0.013031 -0.203472 0.427454 0.252484 -0.393520 -0.477398 -0.000807 -0.116531 -0.304217 -0.063181 -0.355623 -0.207603 -0.082067 -0.510332 0.133868 -0.389512 -0.053006 -0.430658 0.264468 0.270216 0.168894 0.394717 0.351707 -0.452811 -0.468310 0.012168 -0.337758 0.412991 -0.405381 -0.127784 0.080338 0.122528 0.184567 0.023645 -0.109133 0.306648 0.061838 0.405770 -0.294058 0.273451 -0.141636 -0.133984 -0.418220 0.292698 -0.127162 0.232851 0.418864 0.334088 0.316155 0.199266 0.120019 0.000912 0.109119 -0.012526 0.063908 0.156904 -0.485491 0.240117 0.083806 -0.376891 -0.371872 -0.319826 0.261690 0.328501 0.219472 -0.331755 0.150872 -0.202856 -0.410195 0.372829 -0.412335 -0.033180 -0.242755 -0.313036 -0.226006 0.143931 0.432206 -0.292960 -0.008036 0.263496 0.420111 -0.374703 -0.222605 0.045126 0.128358 0.357441 -0.283436 0.158748 0.114155 0.317463 0.297934 0.257509 -0.487340 0.074566 0.101752 0.254189 0.264780 -0.225970 -0.432638 0.371788 -0.335562 -0.327872 -0.154291 -0.071473 -0.135854 0.133782 -0.413646 -0.188665 0.354688 0.091862 -0.411614 0.290320 0.233036 -0.111765 -0.144370 -0.115842 -0.237001 0.090665 -0.440647 0.385821 -0.083577 0.365487 0.159007 -0.048773 -0.037433 -0.216654 -0.283952 -0.261308 0.068843 -0.204125 -0.385714 0.236251 -0.033825 -0.027470 -0.321463 0.345740 -0.380838 -0.222803 -0.329425 -0.509970 0.387479 -0.218434 0.297960 0.140322 0.178261 -0.333479 -0.464157 0.443956 0.259347 -0.402559 0.346049 -0.307685 0.479582 0.021098 0.151181 -0.044155 0.320656 0.388244 0.201490 -0.104512 -0.315360 0.326384 -0.356949 0.163136 -0.184926 -0.162736 0.021623 -0.056248 0.124637 0.208571 -0.049053 0.032948 -0.502266 -0.245454 -0.322399 0.177547 -0.071720 -0.278885 0.138110 -0.295736 -0.165537 -0.000913 -0.084052 -0.164816 -0.456300 -0.410531 0.306442 0.369503 0.476550 0.011560 -0.225124 -0.326599 -0.146931 -0.070386 0.343592 0.171779 0.277576 -0.121646 -0.370238 -0.083016 -0.412454 0.084965 0.452381 -0.406532 0.353324 -0.356019 0.287385 -0.202047 -0.119019 -0.060747 0.020280 0.234370 0.461172 0.453521 -0.416194 -0.488955 -0.456010 0.386674 0.388529 -0.469818 -0.087016 -0.324508 -0.289070 0.267436 0.114096 -0.440226 -0.048626 -0.100153 -0.049104 0.086713 0.320500 0.047482 -0.313553 0.287886 0.157004 -0.444093 0.447685 -0.040965 -0.126896 -0.148820 0.419140 0.408144 -0.398109 0.397593 0.366356 -0.317611 0.411908 0.421280 -0.416269 0.311758 0.460338 0.004685 -0.499972 -0.321622 -0.221099 0.120062 -0.246071 0.234671 -0.477455 0.206276 -0.165041 0.356687 -0.230403 0.037213 0.160219 0.441916 0.113172 0.132900 -0.077971 -0.500544 0.494092 -0.141776 0.412270 -0.412173 -0.245043 0.290898 -0.218308 -0.324135 0.219480 -0.124507 -0.506091 0.191404 0.380256 -0.496789 0.377465 -0.338359 0.124124 -0.367230 0.409918 0.160158 0.354221 -0.239640 0.032309 -0.360070 0.318118 -0.282479 -0.398043 -0.059589 0.355925 0.039280 -0.051855 0.345501 0.398138 -0.125824 0.445909 -0.336462 -0.322519 -0.257862 -0.151747 0.412327 0.118990 -0.141291 0.106583 0.002272 -0.136306 -0.013664 0.178593 -0.497782 0.134093 0.103489 0.178007 0.005071 0.385390 -0.265469 0.162749 0.211757 -0.039989 0.280861 -0.329841 -0.189426 -0.180583 0.122338 -0.331236 -0.261687 -0.477517 -0.364671 -0.094423 -0.293520 -0.124667 0.270011 -0.379324 -0.502001 -0.370217 0.229663 0.015059 0.007932 -0.268874 -0.291324 0.026043 0.380049 0.333176 -0.269799 -0.093943 0.229028 -0.032474 -0.414566 -0.043731 0.425316 0.365019 0.125974 -0.246221 -0.291372 -0.227613 -0.063799 -0.053263 -0.203694 0.075952 0.366865 0.005815 0.456756 0.138663 0.129022 0.469545 0.282955 -0.126269 -0.000553 -0.193222 0.119787 0.229296 0.358874 0.022712 0.071329 -0.411893 0.443204 -0.183986 0.061020 -0.471862 0.272785 0.011701 0.418949 -0.076602 0.274217 -0.370759 0.200209 -0.278032 0.088095 -0.501020 0.304044 -0.042037 0.007226 0.275471 -0.388981 -0.348662 0.259865 0.409845 0.041224 -0.219076 -0.256569 -0.315593 -0.477289 -0.397073 0.215440 0.109511 -0.295202 0.172618 0.428954 0.283193 0.210088 0.217811 -0.203512 0.134778 -0.349971 -0.419749 0.276048 0.350491 -0.192449 -0.133524 0.351857 -0.373669 0.338831 -0.125873 0.416744 0.465756 0.041569 0.198201 0.399815 -0.397596 -0.508604 -0.354602 -0.200605 -0.470226 -0.237975 -0.470208 0.136682 -0.026636 0.201931 0.079035 -0.241851 -0.077390 -0.191490 0.062615 -0.428351 -0.041020 0.148128 0.349824 -0.187844 0.470529 -0.268989 -0.320906 -0.388188 -0.414629 0.071369 -0.445760 -0.423276 -0.370309 0.257438 0.477533 -0.253497 0.265662 -0.360833 0.059100 0.288779 -0.094270 0.087328 -0.061127 0.380984 -0.198097 -0.467696 -0.351587 0.238600 -0.159659 0.215597 0.312600 0.302302 -0.121568 0.176895 -0.370544 -0.135954 0.423427 -0.174951 -0.000186 -0.465371 0.411583 0.056247 -0.389250 -0.443301 -0.173420 -0.390705 -0.178104 -0.396329 -0.252063 0.380389 0.397178 0.157555 -0.026264 -0.157881 0.048630 0.291074 -0.118295 0.201120 0.032308 0.224946 -0.068617 -0.140613 0.042375 0.325235 -0.447990 0.190664 -0.286847 -0.499583 -0.469305 0.214417 -0.466553 0.454809 -0.216953 -0.336846 -0.468553 0.128517 -0.230522 -0.149807 0.227125 0.023953 -0.265336 0.139917 -0.302916 0.227554 -0.506859 0.249671 0.021858 -0.122730 -0.034712 -0.431500 -0.381980 0.418665 -0.050189 0.184549 0.260927 0.019625 -0.111931 0.480596 0.024947 -0.076134 0.200701 0.070825 -0.099864 -0.494182 0.233029 -0.071684 0.131264 -0.478437 0.299906 -0.118215 0.058816 -0.454553 -0.474619 0.265754 0.283432 -0.479079 0.023931 -0.186134 -0.085972 -0.494749 -0.101903 0.050237 0.435403 0.358887 -0.259351 0.202005 -0.115109 0.135644 0.192460 0.419779 -0.423417 -0.088214 -0.001056 -0.017492 -0.075189 -0.251622 0.431080 -0.425483 -0.223931 0.233184 -0.041795 0.344816 0.288878 -0.007299 0.119591 0.081182 0.029323 -0.340596 0.410765 0.462010 -0.317310 -0.174201 0.023290 -0.371345 -0.301944 0.277537 0.346750 0.099199 -0.070436 0.055435 0.032296 0.016852 0.482262 -0.451943 -0.482142 -0.079923 -0.193756 0.458441 0.003228 0.097448 0.206560 0.477318 -0.041996 0.011053 -0.014565 -0.406890 -0.391666 -0.466191 -0.228424 -0.463701 -0.493133 -0.036398 -0.125258 0.043020 0.108181 0.089249 -0.163076 -0.028785 -0.296221 0.279863 -0.457253 0.250930 -0.187476 -0.465916 0.307150 -0.158544 -0.035621 -0.372868 -0.186506 0.483413 0.240268 -0.464157 0.476483 -0.285884 0.062851 -0.020681 -0.175333 0.189875 0.027397 0.110065 0.239160 0.047299 -0.410025 -0.369221 -0.392888 0.212338 0.233706 -0.042355 -0.300562 0.450881 -0.247722 -0.246537 0.211080 0.076029 -0.202249 0.031804 0.431061 0.277934 0.174636 -0.239794 0.277151 -0.069248 -0.188037 0.270849 0.162170 0.391696 -0.235667 -0.499183 0.093360 0.303614 0.124105 -0.152506 -0.134206 0.225210 -0.009349 -0.014684 -0.044935 -0.260235 0.458468 0.166603 -0.299513 -0.279299 0.428946 0.425086 0.310144 -0.257583 -0.027444 0.256868 -0.463822 -0.336882 -0.466977 0.329275 0.111110 -0.137842 0.115866 -0.212245 -0.231338 0.395022 -0.197905 0.376556 0.212984 0.440737 -0.261452 -0.405310 0.183063 0.245055 0.094622 -0.349601 -0.504038 0.064264 0.328143 -0.288939 0.299543 
0.294370 -0.327782 0.139644 -0.460021 0.135495 -0.106487 -0.405568 0.319918 -0.041903 0.426968 -0.046251 0.337810 0.061365 0.271153 -0.364474 -0.020449 -0.460128 -0.498157 -0.281175 -0.456263 -0.218253 -0.166390 0.254618 -0.456294 0.446222 0.407300 -0.447028 0.026185 0.247160 -0.229566 -0.176081 0.023878 -0.073680 0.459123 0.078600 -0.427761 -0.129742 0.151169 0.422389 0.354350 0.132230 -0.086103 0.184478 -0.313252 -0.391785 0.292403 0.183936 -0.267543 0.326693 0.395903 -0.221545 -0.401498 -0.274588 -0.491545 -0.370614 -0.343264 0.428841 -0.314458 0.185882 0.168682 -0.049418 0.497393 -0.322300 0.380350 0.456299 0.265308 0.467621 -0.139848 -0.063929 0.372691 -0.334784 -0.444536 -0.286519 0.334930 -0.286256 -0.118410 0.163109 0.460744 0.183778 0.001017 0.331521 0.421917 0.089138 -0.442880 0.444181 0.223898 -0.293941 0.335265 0.379493 0.357561 -0.003331 -0.152258 0.374687 0.183573 -0.322854 0.329436 -0.044077 -0.352561 -0.377666 0.365950 0.455724 -0.220127 0.376335 -0.288343 -0.342837 -0.308352 0.208540 0.340776 -0.395315 -0.175054 -0.172335 0.443002 -0.237534 0.424637 0.509990 -0.315349 0.102564 -0.311872 0.509026 -0.027737 -0.513870 -0.067093 0.236657 0.348432 -0.407019 0.414682 0.114705 0.019377 0.483470 0.223696 -0.190818 0.427471 -0.472993 -0.215330 -0.251651 -0.290095 -0.069774 0.390694 -0.485046 0.019007 -0.221862 -0.097044 0.007779 0.048728 -0.197201 0.007860 0.173011 0.418771 0.158301 0.123507 -0.132922 0.129221 -0.480938 -0.476355 -0.054240 -0.340416 0.449139 -0.387367 0.164829 0.483621 0.386294 0.554197 0.417602 0.397810 -0.213877 -0.327980 -0.383081 0.215611 -0.438273 -0.367997 -0.262990 -0.209852 -0.040742 0.204799 0.214077 0.205575 -0.404374 -0.200100 0.070876 0.195227 0.319309 0.299321 -0.245839 0.417195 0.325359 0.233358 -0.504726 0.290799 0.359364 0.221102 0.207750 0.197631 0.223240 0.150034 0.096032 0.466903 0.338262 0.248656 0.221027 0.400032 0.348871 0.424660 -0.335903 -0.209237 0.031110 0.311489 -0.538725 0.136416 -0.385762 0.000480 -0.168530 -0.484952 -0.136342 0.212571 -0.490248 -0.236395 0.040871 -0.346884 -0.455972 -0.076627 0.381904 0.347814 -0.363583 0.136614 0.013184 0.275529 0.147603 -0.159010 -0.018304 -0.147828 -0.282749 -0.141048 -0.290888 -0.247824 0.089325 0.313625 -0.382769 0.118920 -0.052305 -0.237449 -0.417276 0.319590 -0.072329 0.125576 0.158836 -0.023010 0.316633 -0.351472 0.154548 0.429931 0.006291 0.022651 0.270508 0.199480 -0.309366 -0.235680 -0.080700 0.290640 0.056659 0.373002 -0.482163 0.117433 -0.334159 -0.206128 0.468639 0.328488 -0.335989 -0.381502 -0.127756 0.026509 -0.178889 -0.019327 -0.095454 0.245898 -0.453465 -0.413632 -0.261800 0.350356 -0.377455 0.311167 0.282671 0.219879 -0.067379 0.056223 -0.118434 0.074720 0.306697 0.416939 -0.116777 -0.188586 0.277804 0.053707 -0.449169 0.480431 0.398606 0.491099 0.164012 0.392222 -0.498542 -0.447091 -0.002471 -0.123429 0.115683 0.492755 -0.373460 0.117885 0.379156 -0.290202 -0.063730 -0.391025 -0.347839 -0.316079 0.294153 0.060600 0.250957 -0.326126 -0.409668 -0.021882 0.498817 0.006432 0.290823 0.274912 -0.515750 0.258294 0.081315 0.356772 0.261690 -0.154238 0.312741 0.254599 -0.094627 -0.174303 -0.398174 0.515133 -0.267813 -0.395074 0.090894 -0.305556 -0.044722 0.503085 -0.201138 0.067367 -0.309924 -0.485799 -0.438149 0.332097 -0.256250 -0.320040 -0.229646 -0.275979 0.210994 -0.403068 0.416214 0.307334 0.399786 0.005808 0.072499 0.104586 0.441632 -0.050401 -0.141315 -0.072826 0.271423 -0.080536 -0.069630 -0.458588 0.158628 0.502941 -0.277016 -0.435784 0.473527 -0.069357 0.080080 -0.461292 -0.069778 0.154781 0.384443 0.116817 0.268711 -0.424412 0.275525 0.049050 -0.274850 0.131640 -0.292281 -0.422687 -0.276499 0.359704 0.175405 -0.281073 -0.196185 -0.519300 0.117800 -0.413225 0.015089 0.517268 -0.392689 -0.388694 0.498910 -0.237994 -0.373862 0.354763 0.171975 0.203084 0.449430 -0.378440 -0.141697 0.289317 0.210998 -0.314390 0.482890 -0.038930 0.211701 -0.225574 -0.289557 0.495418 -0.254964 -0.023726 0.321453 0.356292 0.163686 -0.372350 0.442136 -0.240930 -0.311027 -0.084957 -0.196587 -0.211851 0.019522 -0.326126 0.000850 0.131933 -0.430262 -0.256946 -0.019387 -0.423217 -0.199302 0.340506 0.362569 -0.503745 -0.411266 0.443465 0.123502 0.322122 -0.434705 0.279879 0.226681 -0.242766 -0.241496 0.095145 -0.284542 0.403420 0.183048 -0.318069 -0.292297 0.405670 0.056680 -0.148630 -0.402911 -0.499969 -0.069496 0.106458 0.330490 0.222454 0.248711 -0.337290 0.088827 -0.533996 0.480663 0.099187 -0.344609 -0.428875 -0.045791 0.210033 0.287925 -0.032852 0.047627 0.110625 0.373215 0.298417 -0.316268 -0.419300 0.183527 0.385605 -0.320962 0.303491 0.237987 0.233185 -0.413006 0.292137 0.267789 0.221213 -0.160687 0.005893 -0.229847 -0.427732 0.098842 0.498488 -0.304619 0.073847 0.062158 -0.171174 0.089960 -0.510826 -0.418074 -0.044546 0.055149 0.097041 0.535286 -0.142761 -0.204185 -0.402348 -0.159885 0.417128 0.492288 0.047701 0.133139 0.135255 -0.207033 0.442392 -0.143645 0.493760 -0.016506 0.100789 -0.172371 0.240744 0.260718 0.405883 0.238301 0.441213 -0.029592 -0.241949 -0.172889 -0.370977 -0.161389 -0.090530 0.090317 0.321545 0.401568 -0.091762 -0.430652 -0.288183 0.116007 0.036932 -0.412493 0.164448 -0.453277 0.328972 -0.397891 -0.322572 0.130691 -0.072283 -0.416945 -0.462623 -0.411497 -0.093260 0.290326 0.352287 -0.215269 -0.033490 0.386056 0.347321 0.327016 -0.329526 0.428097 -0.428536 -0.005890 -0.144054 0.315831 -0.173718 0.407262 -0.467191 0.046836 0.050431 0.012130 0.187903 -0.393653 0.058912 0.022165 -0.257483 0.219313 -0.440056 0.168147 0.278222 -0.391679 0.284839 -0.318907 0.405554 0.204085 0.008914 -0.086451 0.017476 -0.224997 -0.332639 0.144181 -0.343338 -0.272621 -0.359716 0.129463 -0.378334 0.047297 0.105333 -0.339005 -0.362039 -0.343197 0.208805 0.395755 -0.225643 -0.237649 -0.112542 0.022353 -0.522937 -0.038577 -0.272725 0.267489 0.123598 -0.385997 -0.481402 0.074696 0.276516 -0.024697 0.448156 -0.239607 0.227462 -0.399238 0.435983 0.449458 -0.178501 -0.452641 0.041912 -0.004074 0.134064 -0.367301 0.138067 0.276396 -0.192759 -0.089367 0.207174 0.146547 0.207344 -0.385049 -0.295497 0.243111 0.163835 0.050668 0.097470 -0.148533 0.136202 0.087896 0.388365 -0.109106 -0.440179 0.373799 0.229799 0.353423 -0.507168 0.169377 0.375264 -0.011412 0.391536 0.006376 -0.481230 0.048829 0.159242 0.240440 -0.087089 -0.445729 -0.289300 -0.347792 0.219535 0.457757 -0.169923 0.503734 0.232092 0.519605 0.012217 -0.209771 -0.179840 -0.408332 0.332766 -0.277872 0.021402 0.394234 -0.413656 -0.255443 0.260134 -0.375832 0.437874 0.114108 0.069911 0.265457 -0.427436 0.082376 -0.188718 0.247630 -0.178726 0.252047 0.330652 0.073263 0.449813 0.100640 0.034240 -0.217208 0.065069 -0.266459 -0.246154 -0.476196 -0.018452 0.064398 -0.373647 -0.196196 0.295705 0.143211 -0.300064 0.345610 0.342439 0.448200 0.472367 0.263612 0.041309 0.020119 0.038394 0.122857 -0.388035 0.426626 -0.057181 -0.008789 0.198889 -0.195120 -0.432211 0.154200 0.377053 0.083571 0.391866 -0.109245 0.257646 -0.383715 -0.090757 -0.268893 0.227649 0.070029 0.051864 -0.019195 -0.313671 0.264659 -0.143646 -0.462629 0.201593 -0.195594 0.325984 -0.230228 0.347689 -0.071226 0.451373 0.506441 -0.153206 -0.116925 -0.019676 -0.468869 0.160855 0.032473 0.163296 0.005604 -0.422209 0.039932 0.406693 0.348000 0.181116 -0.170616 -0.415514 -0.142884 0.355097 0.130214 0.350736 -0.416903 -0.087562 -0.278162 -0.345401 -0.346536 0.068896 -0.489834 -0.052405 -0.066306 -0.070895 
-0.148632 -0.107384 0.228100 0.225790 0.369938 0.252988 -0.123455 -0.107658 -0.093459 0.380705 -0.025908 0.450457 0.282708 -0.173610 0.133790 -0.386795 -0.070434 -0.469587 -0.492768 -0.412282 0.413170 -0.399282 0.012175 -0.350938 -0.246252 0.161323 0.208168 -0.246153 -0.402166 -0.368992 0.172201 -0.023179 0.051236 -0.072113 -0.269808 -0.050925 -0.290917 0.135502 0.370042 0.144304 0.043752 -0.129370 0.120103 -0.148219 0.224597 -0.218127 -0.009249 -0.324629 -0.167196 0.022887 -0.212280 -0.228500 0.149381 0.326191 -0.053481 0.428957 0.012806 -0.319430 -0.291073 0.138232 -0.160806 0.408718 -0.357369 0.418084 -0.135644 -0.098666 -0.104242 0.101122 -0.436376 -0.205930 -0.226423 0.135086 0.190046 0.419419 -0.486573 -0.061092 -0.274967 0.029452 0.136514 0.080778 -0.424720 0.450533 0.378001 0.250234 0.301929 -0.149297 0.205708 -0.157663 0.058877 0.442236 -0.491821 0.425718 0.386045 -0.314229 0.379039 -0.222379 0.115065 -0.195708 0.409222 0.207353 0.124509 -0.298157 -0.137720 -0.167887 -0.354311 -0.101415 0.288590 -0.111211 0.445832 -0.048552 -0.504797 -0.453495 -0.072902 0.399533 0.323498 -0.243325 -0.221718 0.056423 0.126187 0.364457 0.035628 0.171526 0.330717 -0.055226 0.382315 0.230581 0.242605 0.014083 -0.445698 0.166065 -0.269231 0.182506 0.385793 0.115034 -0.469668 -0.452052 -0.470136 0.345192 -0.037690 -0.498966 -0.177984 -0.015757 -0.424837 0.277204 -0.088107 0.426429 -0.431077 0.225806 0.024685 0.227147 0.120595 -0.425797 -0.082115 -0.030579 0.037861 -0.186564 -0.286634 -0.201618 0.346040 -0.219154 0.475381 -0.407453 0.468541 0.376378 0.222877 -0.475197 0.450589 0.279091 0.396309 -0.059881 0.308031 -0.253578 0.452452 0.417444 -0.440068 -0.098277 0.381707 -0.353051 -0.357119 -0.091999 0.389653 0.283598 0.005495 -0.173892 -0.230684 -0.430588 0.160703 -0.002617 -0.124460 0.015312 0.276816 -0.144598 0.117882 0.268018 -0.240988 -0.131972 0.319963 -0.262998 -0.325037 0.251588 0.211959 -0.481147 -0.478293 0.189196 0.454962 -0.399413 -0.389413 0.347833 -0.228444 -0.222997 -0.224613 -0.320804 -0.418189 0.305300 0.027976 -0.132917 0.382119 -0.302174 0.360114 -0.245899 0.222032 0.159436 0.136619 -0.132882 -0.045169 0.423190 0.270427 -0.190152 -0.305231 0.467159 -0.422081 0.422835 -0.492668 -0.368808 0.147411 -0.506482 -0.241629 0.282364 0.351149 0.046139 -0.424349 -0.339787 0.239745 -0.336809 0.469634 -0.210966 0.037493 0.354592 -0.002758 -0.081006 -0.363398 -0.253480 -0.394074 0.301010 0.149158 0.089001 0.252387 -0.065955 0.424027 0.470391 -0.063255 -0.465489 0.432367 -0.025063 -0.309905 0.100711 -0.030646 -0.044910 -0.113287 -0.146732 -0.491293 -0.037205 0.009712 0.276771 0.144299 -0.007497 -0.428282 -0.303259 -0.124822 0.096432 0.143291 0.039566 0.378432 0.277746 -0.130927 0.042771 -0.100412 -0.347078 -0.487697 -0.146501 -0.339391 -0.028776 -0.091587 -0.388606 0.443282 0.099403 0.212222 -0.055876 -0.441583 -0.406105 0.291595 -0.407286 0.076892 -0.182794 0.371699 -0.266700 0.336296 0.470157 -0.035171 -0.253552 0.101591 -0.371023 0.307221 -0.004998 0.446328 -0.283136 -0.423560 -0.136838 -0.112440 -0.400543 0.234478 0.064395 0.092577 -0.339431 0.187930 0.051895 0.257487 -0.109358 -0.509483 0.342287 0.005656 0.296714 0.433876 -0.407907 -0.361791 0.331565 -0.139793 -0.490527 0.336682 0.338609 -0.230457 -0.048432 -0.494725 -0.384116 0.479094 0.463124 -0.157843 -0.424622 -0.152784 0.254621 -0.304733 -0.393186 -0.159894 0.289214 -0.238576 -0.484587 -0.167782 -0.462151 -0.076246 -0.155259 0.380484 0.439211 -0.341152 0.340254 -0.433937 -0.168037 0.199440 -0.060406 -0.145207 0.063419 -0.186914 0.160052 -0.460577 -0.168466 0.288343 -0.454515 -0.183769 -0.341187 -0.359025 0.194098 0.433480 -0.152884 0.303724 -0.235906 -0.370463 -0.419440 -0.201598 -0.011567 -0.379254 0.231982 0.345509 -0.471396 0.206102 -0.460668 0.395617 0.285417 -0.115399 0.131959 -0.236529 0.277397 -0.293474 0.085265 -0.047177 -0.222960 0.449796 -0.227145 -0.149049 -0.203988 -0.051487 0.002401 -0.507175 -0.129577 0.344614 0.314124 0.158489 -0.506551 0.394189 0.464036 0.000397 -0.457511 0.231089 -0.119150 -0.402472 -0.049705 -0.066507 -0.469912 -0.225566 0.357178 0.174110 0.045754 0.147247 0.413393 -0.335243 -0.372108 -0.278123 -0.357838 -0.079186 0.084902 -0.052802 0.362249 -0.414446 -0.040813 -0.241406 0.448729 -0.227823 0.424104 0.466796 -0.306125 0.424486 0.002147 -0.236251 0.167884 0.396815 -0.098326 -0.340192 -0.128979 -0.053005 -0.051882 -0.258962 -0.352469 -0.479701 0.412700 -0.408971 -0.295021 -0.438511 -0.174843 -0.139791 -0.020329 0.415683 0.328501 -0.139275 -0.490691 -0.216974 0.126054 -0.518313 0.082033 0.086840 -0.515205 0.303690 0.022141 -0.000616 -0.396944 -0.271237 -0.062650 0.020515 -0.100857 0.315737 -0.515298 0.365458 -0.417990 -0.342955 0.397802 -0.489687 -0.239454 -0.369804 -0.422060 0.089039 -0.001778 0.063857 0.004393 -0.173122 0.434253 0.033986 0.133805 0.096058 0.051221 -0.248574 -0.305577 0.047831 -0.425836 0.252991 -0.412889 -0.287416 -0.492930 0.040884 0.250945 -0.091941 -0.136951 0.252680 -0.203160 -0.029652 0.432050 -0.279281 -0.014238 -0.312589 -0.147088 0.068596 0.284187 0.355997 -0.352998 -0.192030 -0.292291 -0.382904 0.377558 0.377133 0.225778 -0.058609 -0.360107 0.456421 -0.470424 -0.243459 0.233903 -0.369791 -0.021505 0.233111 0.170394 -0.258309 -0.324508 -0.428531 -0.481353 -0.007567 0.045788 0.447136 0.218728 -0.458130 -0.346068 -0.421126 0.128080 0.459167 0.463672 0.310818 -0.197303 -0.293045 0.440357 -0.307432 -0.403961 0.204149 0.173534 -0.222130 0.180301 0.218381 0.050451 -0.081894 0.358792 -0.455190 -0.311151 0.063459 -0.188741 -0.130312 0.130533 -0.172040 0.377408 -0.302518 -0.204258 0.109594 -0.241067 -0.027942 0.216778 0.415526 -0.040333 0.209232 0.253657 0.289845 0.435586 0.216120 -0.493840 -0.440404 -0.065869 0.192440 -0.146491 -0.368183 -0.069888 0.421481 0.077359 -0.191076 -0.518696 0.268210 0.370084 -0.204995 -0.325629 0.038860 0.153613 -0.437868 0.250456 0.465833 0.199199 -0.462570 -0.034038 -0.048648 -0.512405 0.460443 -0.313971 0.254037 0.265549 -0.355715 -0.002835 0.291647 -0.270387 0.457215 0.010668 0.108260 -0.386488 0.461804 0.051123 0.210823 -0.213931 0.058489 0.017500 -0.304426 0.373616 0.198053 0.243679 0.043996 0.287681 0.022088 0.037813 0.014907 0.094409 -0.461293 -0.506518 0.103996 -0.476829 -0.301189 -0.121420 0.301594 -0.136021 0.397736 0.118189 0.119785 0.380726 -0.341668 -0.235835 -0.469476 -0.346032 0.346933 0.265380 -0.040347 -0.085221 -0.202825 0.174739 -0.185346 -0.477457 -0.053334 0.386910 0.338631 -0.503613 -0.047595 -0.111639 0.120600 0.023824 -0.092644 -0.256910 0.058166 0.124501 0.144535 -0.115002 -0.485150 0.068380 -0.464249 0.165575 -0.019639 -0.276782 0.447789 0.027484 -0.113350 0.307531 -0.187353 0.374654 -0.250070 0.136827 0.077136 0.092442 0.187749 -0.447589 0.008007 0.054535 -0.424058 -0.510194 0.474229 0.225608 0.037288 -0.103953 0.484813 -0.386078 -0.460388 0.148991 0.020478 -0.432149 -0.269072 0.067725 0.249870 0.224533 0.302891 0.218085 -0.224619 -0.283191 0.052757 0.114916 -0.380629 0.330697 -0.219709 0.225426 -0.047930 -0.503999 0.303978 -0.511551 0.080893 0.410485 -0.495739 0.069589 0.149651 0.055322 -0.520145 0.149806 0.184029 -0.466584 -0.187206 -0.281627 -0.380810 0.059049 0.302396 0.390616 -0.189160 0.132310 0.135802 0.113211 0.377143 -0.283425 -0.243392 -0.475376 -0.424606 0.064009 0.275877 0.053475 0.085945 0.105977 0.068073 -0.309212 0.040030 0.093235 0.281282 -0.288963 -0.327693 0.284221 0.379466 0.372568 0.333471 -0.287909 -0.388167 -0.523738 0.298005 0.441337 0.394235 -0.363806 
0.120488 0.080908 0.281008 -0.008285 0.286983 -0.439536 0.078644 0.440651 0.151409 -0.163565 -0.037095 -0.273842 -0.524615 -0.437396 -0.036112 0.030807 0.190058 -0.224049 0.264546 0.365507 -0.402512 0.176179 0.295328 0.434226 0.422057 0.437817 0.471656 0.282054 0.410406 0.392083 0.423293 0.003992 -0.058109 0.212653 -0.427525 -0.180140 0.313670 0.114106 -0.303125 -0.041032 -0.487290 0.221682 0.270976 -0.481011 0.329152 -0.218117 0.097640 0.026865 0.104478 -0.082273 -0.036195 0.190004 -0.358426 -0.216716 0.205734 -0.357698 -0.240430 0.204464 0.437057 -0.332970 0.081701 0.375823 0.200995 -0.448579 0.077854 0.260952 -0.145396 -0.114419 -0.068426 0.117706 -0.473209 0.042765 -0.084089 0.358406 0.101351 -0.229894 -0.325900 -0.316111 0.274242 0.215202 0.174769 -0.200005 0.001061 0.395632 0.135796 -0.272310 -0.471957 0.353169 0.396148 0.467890 -0.448312 0.021169 0.352458 0.249819 0.093129 -0.013902 0.097672 -0.495000 -0.391741 -0.354396 0.186335 -0.384874 0.119005 -0.383521 0.434269 -0.350949 -0.212060 0.477349 -0.103007 -0.351135 0.256977 -0.375486 0.007701 -0.219052 -0.468312 -0.400051 -0.040097 -0.413368 -0.438052 -0.038406 -0.375505 -0.403530 0.459482 0.478054 0.337861 -0.048393 0.044444 -0.022260 0.051669 0.092134 0.055113 -0.228058 0.067523 -0.471084 -0.290373 -0.074631 -0.235995 0.122444 -0.042104 0.193826 0.316620 -0.258924 0.322184 -0.203880 -0.003718 0.395195 -0.031456 0.516925 0.547348 -0.012310 -0.125596 -0.493377 -0.063803 -0.214437 -0.559400 -0.186002 0.365094 0.038888 0.382545 0.046702 -0.459370 -0.156979 0.118605 0.151299 -0.054904 -0.472540 -0.343121 0.234224 0.168911 0.145593 -0.061379 -0.090804 0.275824 -0.254159 0.245491 -0.217903 -0.412166 -0.368936 -0.333897 0.448139 0.023599 0.154419 -0.399266 -0.331077 -0.482489 -0.441122 0.106277 0.471500 0.076291 -0.063982 -0.003146 0.244742 0.289810 -0.265980 -0.048070 -0.315874 -0.359768 0.057260 0.406969 0.304906 -0.313288 -0.122872 -0.246467 0.454701 0.113027 0.586401 -0.158359 0.235956 0.676507 -0.091765 -0.084031 0.011929 -0.398756 -0.114263 0.083054 -0.411282 -0.049236 -0.413567 -0.475828 -0.387462 0.016300 0.028524 0.245665 -0.347029 0.100291 -0.376441 -0.120011 0.326586 0.254811 -0.142096 0.170620 0.324819 -0.024996 0.422498 0.258016 0.521752 0.097893 0.040691 -0.414289 -0.149807 -0.432102 0.169890 -0.450961 -0.340546 -0.358199 0.129207 -0.219833 0.114332 0.358809 -0.139186 0.225907 -0.223000 0.350355 0.035512 -0.036549 0.072650 0.294107 0.426185 -0.226902 -0.242571 0.457413 0.252057 0.516811 -0.165510 -0.125963 0.174703 -0.420975 0.420380 -0.255000 -0.034913 0.168839 -0.010755 -0.253718 0.075640 0.252802 -0.063469 -0.172981 0.573077 0.527814 -0.414332 -0.161409 0.219161 -0.185518 -0.343732 -0.212906 0.286791 0.160843 0.256678 -0.087945 0.229587 -0.415549 -0.033996 -0.087294 -0.400495 0.331340 0.410872 0.260978 0.585025 0.418698 0.308738 -0.104924 -0.175785 0.001998 0.130858 0.410248 -0.293386 0.473787 -0.375364 -0.436259 0.414077 -0.410554 -0.093501 0.199544 -0.106619 0.138965 0.309566 -0.562063 -0.546528 0.018460 0.161696 0.508710 0.230609 -0.335132 -0.032784 0.383694 0.608536 -0.011046 -0.098653 0.400358 -0.345826 -0.154076 -0.193817 0.025214 0.392888 0.427056 -0.181103 0.433206 0.328549 -0.122438 -0.455465 0.351460 0.072399 -0.054467 -0.145500 0.333869 0.369901 -0.219030 -0.360897 -0.174421 0.386862 0.439543 -0.201319 0.366667 0.620214 0.224025 -0.046991 0.333311 0.249827 0.244594 0.167464 0.492328 -0.280991 0.464208 -0.101797 0.386527 0.291005 0.154360 0.335760 0.262096 -0.325828 0.427018 -0.105387 0.130639 -0.158276 0.434865 0.094492 0.000555 -0.357005 0.173944 0.117208 -0.249969 0.077531 0.269749 0.331795 -0.111902 -0.483302 -0.423414 -0.377728 0.327615 0.383378 0.359866 0.205693 0.450177 0.316255 -0.413904 0.413304 0.250205 0.460807 0.431881 -0.022755 -0.548311 0.318633 -0.461484 0.203038 -0.297958 -0.650402 -0.175777 0.142541 -0.252070 -0.377173 -0.134315 0.072791 0.167788 0.380312 -0.273807 -0.533750 0.336891 -0.270193 -0.294816 0.110183 -0.483655 -0.464059 -0.173280 -0.491376 0.440837 0.060654 -0.415734 0.220244 -0.233024 0.253972 -0.358646 -0.058758 0.122939 -0.422578 -0.229052 -0.556661 -0.297598 0.143244 0.234079 0.050903 0.413308 0.505920 0.518028 -0.048275 0.179831 -0.429660 -0.023569 0.017874 -0.201483 0.167958 -0.351137 -0.111692 0.309704 0.078498 -0.059311 0.172045 -0.546676 -0.124426 -0.106305 0.152783 -0.022249 0.115771 -0.280202 -0.222564 0.357170 -0.185224 -0.224455 -0.492658 -0.288923 -0.420132 0.118439 -0.488108 -0.495575 0.073464 0.051634 0.222645 0.137256 -0.508854 -0.251404 -0.502085 0.267998 -0.014665 -0.100210 0.010223 -0.564259 0.404208 -0.021975 -0.071847 0.146799 0.352246 0.461165 0.511408 -0.005058 -0.410591 -0.149816 -0.178676 0.207672 0.196756 -0.037363 0.306969 0.195877 -0.403478 0.438133 0.191315 0.043002 -0.117438 -0.215880 -0.351858 -0.089636 0.109160 -0.186475 -0.360427 -0.351763 0.449724 0.600918 0.151834 0.337107 -0.309742 0.075341 -0.232633 -0.464118 0.099064 -0.071973 0.075971 0.419990 0.187065 0.283890 -0.237423 -0.271777 -0.241487 -0.233881 0.446718 -0.245901 -0.418383 0.002295 -0.651758 0.113827 -0.478764 -0.182197 -0.262651 0.345763 0.284990 0.113607 -0.322892 0.146710 -0.016887 0.016195 0.108641 0.367729 -0.058814 -0.273413 0.493437 -0.252792 0.058665 -0.063643 0.312146 -0.394378 -0.240875 -0.207691 -0.107931 0.033194 0.012511 -0.175728 0.391753 0.250938 -0.448663 0.450936 -0.002849 -0.246861 -0.023586 0.376408 -0.485876 -0.315399 0.027336 -0.008892 0.745504 0.579205 0.542124 0.342576 0.437759 0.037477 0.415301 0.445399 -0.028029 -0.247996 -0.293642 -0.258971 -0.251424 -0.097229 0.040138 0.177051 0.450112 -0.497605 -0.573156 0.257255 0.122549 -0.614886 0.225626 -0.307053 -0.384671 -0.413440 -0.334562 -0.103135 0.104683 -0.171785 -0.108507 -0.109142 -0.154832 -0.187435 -0.380084 -0.238664 0.166922 0.340392 0.498124 -0.441960 0.487069 -0.418089 -0.195116 -0.243609 -0.039539 0.237123 0.277792 -0.312258 0.141401 0.255200 -0.430506 0.054137 0.414084 -0.432586 0.542432 -0.308201 -0.158806 0.477258 -0.089879 0.345282 0.002820 0.411948 -0.230038 0.431184 -0.400821 -0.249359 -0.339209 0.233354 -0.468355 -0.394727 0.285896 -0.494266 -0.331777 -0.445250 -0.269038 0.082516 0.328242 -0.373219 -0.555718 0.201092 -0.435077 -0.281338 -0.104148 -0.450530 -0.159626 -0.221842 -0.293658 0.219589 -0.106461 0.148290 -0.103140 0.351965 -0.155021 0.015797 0.266489 -0.038351 0.276420 0.426410 -0.276543 0.326447 -0.474756 -0.501820 0.345364 -0.302921 -0.415158 -0.363968 0.306870 0.387799 -0.246056 0.380640 0.162605 -0.135765 -0.358837 -0.233954 0.000630 0.159586 0.086989 0.234776 -0.310095 0.470562 -0.206384 0.011003 0.321317 0.135835 -0.451562 0.084380 -0.389524 0.332413 0.005904 -0.173777 0.171454 0.080059 -0.124933 0.034488 0.275908 -0.080684 0.125184 0.101533 0.080049 0.524721 0.109063 -0.379946 -0.278321 0.115059 -0.100269 0.324697 -0.310651 0.496643 0.021697 -0.189551 0.437121 0.293670 0.339019 0.266059 -0.053542 0.396444 -0.154885 0.050826 0.244988 0.386912 0.425043 -0.035642 -0.002060 -0.181312 0.514869 -0.218042 0.194376 0.081372 0.326632 -0.369593 -0.042937 -0.193502 -0.117868 0.367925 0.512332 0.301902 0.151402 -0.360678 0.259835 -0.351962 -0.031313 0.220948 0.463965 -0.174952 -0.010101 -0.086182 -0.262874 0.355508 0.469563 0.478220 0.260471 0.427053 -0.076358 -0.324614 -0.328506 -0.097150 -0.123578 0.417166 0.495323 -0.277143 -0.435423 0.024438 0.087141 -0.039281 -0.143779 0.061095 -0.255600 -0.501200 0.212066 
-0.428376 -0.287585 -0.301095 0.242606 -0.351763 0.050578 -0.251192 0.079322 0.314783 -0.355947 0.066826 0.350764 0.392458 -0.039319 -0.245239 -0.453139 0.119768 0.108595 -0.064598 0.016710 0.057474 0.172362 0.094505 -0.360446 -0.244981 -0.437206 -0.013446 0.303312 -0.184569 -0.012358 -0.030862 -0.215068 0.100012 0.162164 -0.472552 0.261238 -0.260655 -0.168814 -0.182909 0.553439 -0.037890 0.393249 0.337364 -0.207622 -0.189915 0.486465 -0.231838 0.396152 0.016713 0.165776 -0.103410 -0.337700 -0.185677 0.479239 -0.252898 0.015623 -0.495274 0.182935 -0.285063 -0.262701 -0.418210 0.179288 0.072496 0.246678 -0.045526 0.178611 0.021419 0.200908 0.510906 0.336057 0.143432 -0.213289 0.185172 -0.092971 0.069519 0.405008 -0.168854 0.294700 0.362493 0.457785 -0.034045 -0.238761 -0.407323 0.270771 -0.265987 -0.186038 -0.278400 -0.299974 0.442069 -0.063212 -0.010496 -0.338016 -0.166724 -0.329839 0.472380 0.305472 0.295338 -0.199844 -0.226123 0.125194 -0.348610 0.403159 -0.530020 0.313611 -0.167817 0.043284 0.362184 0.311002 -0.097814 0.210409 0.241479 0.367847 0.478581 0.315931 0.094515 -0.335952 -0.419902 0.319561 -0.089681 -0.337667 -0.117730 0.395459 -0.233232 0.106953 0.460861 -0.578793 -0.421675 0.098438 -0.253032 -0.060435 -0.197013 0.119347 0.115516 -0.026753 0.044142 -0.539888 -0.526420 -0.112546 0.263147 -0.118358 -0.360035 0.021507 -0.249516 -0.406749 -0.235786 0.219272 -0.272507 -0.100331 0.023509 0.128358 -0.067023 0.416072 -0.126307 0.014091 -0.035613 0.008483 0.230805 0.275174 -0.282607 -0.336603 -0.203844 -0.074538 0.123143 -0.574769 -0.483352 -0.188446 -0.477759 -0.384841 0.430844 0.411107 0.234778 -0.359925 -0.031262 0.362330 -0.303253 0.255945 0.151201 -0.043079 -0.290785 0.032776 -0.264911 0.262598 -0.082466 0.288448 -0.167340 0.423796 -0.359564 0.601190 0.302027 -0.145048 -0.476495 -0.313756 -0.480711 -0.617746 -0.200105 -0.223152 0.017015 -0.181232 -0.012130 0.018210 -0.186644 0.471553 -0.199834 -0.187745 0.174713 -0.158479 -0.333733 -0.079340 0.249970 -0.313818 0.056609 0.304376 0.235878 -0.735933 -0.031922 -0.486510 0.257242 -0.138961 -0.771763 -0.024173 -0.587320 -0.461412 0.494822 -0.331279 -0.254143 -0.282130 -0.009337 0.235552 0.104687 0.263051 -0.523556 -0.092685 0.299028 -0.009731 -0.362266 0.053911 0.176511 -0.511379 -0.671670 0.134440 0.010613 0.005693 0.055644 -0.333142 0.116393 0.274327 -0.055717 0.178622 -0.016593 -0.064778 -0.016656 0.136742 0.194582 -0.048031 0.294609 0.227907 -0.005258 -0.488841 0.062769 -0.672212 0.634743 0.159880 -0.056214 0.343032 0.259952 -0.037433 -0.449392 0.134524 -0.293137 -0.373510 -0.228395 0.064681 -0.796771 0.625620 -0.306350 0.370318 0.326311 0.001566 0.252155 0.074920 -0.368306 -0.278308 -0.363083 0.196613 0.106186 0.182733 0.171289 -0.472487 -0.264859 -0.215159 -0.278950 -0.552233 -0.089979 0.150687 0.004044 -0.121423 -0.013582 -0.754506 -0.394297 0.190283 -0.429597 0.139567 0.025065 -0.034655 0.147791 0.123791 0.123832 0.183778 -0.116399 -0.160871 -0.301515 -0.099817 -0.015077 -0.329217 -0.218022 -0.545711 -0.299618 -0.522436 -0.268234 -0.374430 -0.234351 0.190028 -0.385815 -0.026507 -0.199866 -0.669679 -0.065308 -0.171472 -0.471245 0.109021 -0.252687 0.163738 -0.150445 0.055523 -0.235101 -0.527414 -0.078869 0.482018 0.221184 0.200067 -0.310048 0.216298 -0.218380 0.199689 -0.368077 0.049018 -0.592341 -0.252640 0.312878 0.083667 0.041914 0.145209 -0.155546 0.458232 0.359833 0.592105 0.491416 0.504650 -0.010915 -0.392344 0.164355 -0.252368 0.220750 0.418565 -0.468981 -0.374758 0.462173 -0.284033 -0.561311 -0.038628 -0.428452 -0.427939 -0.100826 -0.037979 -0.164729 0.235477 -0.346274 -0.077582 -0.582671 0.221013 0.598274 0.114572 0.095282 -0.200757 -0.118222 0.004578 0.021290 -0.128000 -0.097208 -0.048210 -0.115819 0.395682 0.504964 -0.199968 0.425903 0.357362 -0.209032 0.344215 0.029117 -0.200034 -0.028588 0.209293 0.544286 0.649708 0.356994 0.417939 0.092537 -0.292832 -0.439772 0.013476 0.615068 -0.090464 -0.578792 0.153032 0.214589 0.136669 -0.325731 0.245670 0.349160 -0.103216 -0.003919 -0.032387 -0.045916 -0.208378 0.111286 -0.157535 0.009926 0.454707 -0.559627 0.056753 -0.191622 0.187182 -0.397642 0.572694 -0.036854 -0.436643 0.444477 0.434183 -0.127676 -0.098758 -0.248931 -0.571427 -0.193619 -0.102367 0.293887 0.186848 -0.561153 0.369487 0.305351 -0.417957 -0.045382 -0.404175 -0.113364 0.265834 0.022218 -0.531606 -0.555190 0.176676 -0.517063 -0.337819 -0.036044 -0.085985 0.479552 0.185530 0.036282 0.048725 0.374931 -0.174358 -0.604244 -0.006306 -0.157814 0.154675 0.383892 0.123143 -0.328089 0.246792 0.090772 -0.226487 0.214976 -0.189111 -0.202452 -0.342759 0.185603 0.203785 -0.682234 -0.379864 0.556352 -0.138829 -0.108751 -0.456571 0.057990 0.221237 0.047457 0.107640 0.006376 0.370017 0.100513 -0.600429 -0.265829 -0.282347 0.278767 0.022199 0.449699 0.223918 -0.084403 -0.234078 0.088977 0.375243 -0.035380 -0.358372 -0.026942 0.257858 -0.316365 0.088996 0.145329 -0.218694 -0.390858 -0.141518 -0.254026 -0.459040 -0.182325 -0.523248 -0.691697 -0.559075 -0.036082 -0.055588 -0.389153 0.337443 0.104069 -0.144899 -0.265088 -0.059737 0.574491 -0.234991 -0.276613 -0.284545 -0.220160 0.036726 -0.073860 0.389987 0.456486 -0.029537 -0.018735 -0.768094 -0.216248 -0.404004 -0.149894 -0.072850 0.091623 -0.571348 -0.083847 -0.282674 -0.377550 0.274996 0.043779 -0.289825 -0.094021 0.102807 -0.273602 0.499207 0.516509 -0.050477 -0.063534 0.405928 0.071001 0.014033 -0.007466 0.518854 0.826324 -0.217440 -0.188953 0.054865 0.317851 0.432681 0.255452 0.418528 -0.268413 -0.098568 0.126875 0.391905 -0.113060 -0.134030 0.833632 0.212474 -0.256762 -0.028117 0.316704 0.034254 0.471048 0.410007 0.027376 0.517141 -0.112541 0.361368 0.311774 0.265517 -0.188750 0.328801 -0.045947 -0.390681 -0.242581 0.457463 0.444062 0.255914 0.655468 0.201177 0.460434 0.615881 0.403493 0.004465 0.376432 0.267554 -0.055605 0.118527 -0.235277 0.043143 -0.451777 0.456675 0.511837 0.547036 0.398548 -0.025764 0.492562 -0.393794 -0.360103 0.057059 0.246642 -0.183990 -0.076241 -0.157794 -0.023866 -0.161551 -0.296540 -0.221053 -0.267942 0.759005 0.366190 0.465100 0.473386 -0.325709 0.354122 0.088830 0.449679 -0.147200 -0.317318 0.530037 0.235299 -0.299876 0.452798 0.192910 -0.319710 0.155971 0.361342 0.270292 0.116282 -0.457227 -0.148331 -0.077623 -0.158857 0.189793 0.126676 0.209948 -0.241472 0.487877 0.620217 -0.017066 0.440797 0.078172 0.485262 0.241076 0.122673 0.324323 -0.219789 -0.071375 0.531895 -0.099643 -0.103368 0.228818 -0.066909 -0.373518 -0.328052 -0.120972 0.270767 -0.336342 -0.105756 0.140220 -0.078883 0.507761 -0.374116 0.176142 0.256589 0.395752 0.024123 0.547149 0.254375 -0.118362 -0.398762 -0.058027 0.255998 0.499111 -0.361559 -0.176540 0.260815 -0.146204 0.186856 0.235364 0.088368 0.324755 -0.243049 -0.471773 -0.372628 0.082315 0.136468 -0.405712 0.409860 -0.328131 0.276516 -0.174811 -0.366405 0.476713 -0.440914 0.450416 0.373607 0.018596 0.256021 -0.065549 0.293228 0.266738 0.321994 -0.008076 0.200793 0.395920 0.250702 -0.086183 -0.326359 -0.273472 -0.525122 0.228245 -0.240336 -0.154189 0.408396 0.054361 -0.463533 0.102703 0.185130 -0.464687 0.418435 0.099745 -0.076289 0.582769 0.033745 -0.076596 0.394863 -0.220286 0.398278 0.063062 0.151638 0.128712 -0.240224 -0.087326 -0.440282 0.414191 -0.222247 0.264843 -0.220295 -0.046721 -0.308924 -0.072226 -0.158820 0.052585 0.349967 -0.161911 -0.366387 0.435417 0.499284 0.413343 0.551651 0.514730 -0.027939 -0.118668 0.426993 0.343248 0.175408 0.220574 
-0.472894 -0.020920 -0.317443 0.133044 -0.442674 -0.108352 -0.404858 -0.301968 -0.058591 -0.083699 0.493455 0.066533 0.061748 0.291194 0.253187 -0.734776 -0.054746 0.285337 -0.211746 0.103954 0.245076 -0.127595 -0.044801 0.021338 -0.385848 0.217663 0.289779 0.475439 0.027367 -0.083353 0.140939 0.045417 0.385300 0.311498 -0.242185 0.554409 -0.120315 -0.151610 -0.302928 0.022919 -0.145539 0.225649 -0.560013 -0.462335 0.400433 -0.389637 -0.288191 -0.092557 0.404534 0.112130 0.516340 -0.118913 0.271143 -0.168612 0.427730 0.411691 -0.390789 0.247946 0.386705 0.089939 -0.419346 -0.046362 -0.441953 -0.477439 -0.058477 -0.086474 0.537415 0.069864 -0.091602 -0.672093 -0.414946 -0.567059 0.396495 -0.281067 -0.303316 0.328001 -0.179493 0.010521 -0.263981 -0.478832 0.432005 -0.349993 0.004579 0.273448 0.065044 -0.027774 0.225210 0.135002 -0.357151 0.031242 -0.372941 -0.164960 -0.284459 -0.112705 -0.221253 -0.074901 0.054858 -0.359295 -0.419279 -0.254190 -0.224781 -0.349856 -0.278289 -0.287799 -0.044701 0.057279 -0.423337 0.216443 -0.550141 -0.179886 0.443157 -0.474908 0.037795 -0.012080 0.334326 -0.455342 0.367081 -0.051765 0.034322 -0.453875 -0.257237 0.498020 -0.121470 -0.353811 -0.469982 -0.138867 0.061839 0.304890 0.279041 0.159377 -0.392712 -0.350842 0.388812 -0.202748 -0.255481 -0.289905 0.403927 0.033561 -0.225465 0.519778 0.402632 -0.229973 -0.432439 -0.100512 0.178115 0.341846 -0.156961 -0.058192 -0.207218 0.514360 0.021300 -0.243002 0.146790 0.125854 0.144088 0.569936 -0.106154 -0.278957 0.402738 -0.148122 0.261292 0.283429 -0.113699 0.187229 -0.221679 0.320632 -0.449428 -0.372891 -0.319104 -0.235560 -0.500243 -0.421497 -0.048173 -0.359349 -0.210510 -0.557285 0.316614 0.133181 0.128216 -0.298132 -0.016394 -0.680376 0.002017 -0.182685 0.347488 0.728512 0.013341 -0.133174 -0.231089 0.391612 -0.103009 0.340542 0.296480 0.357996 0.046142 0.386511 -0.158418 0.004026 0.308102 0.004527 0.215978 -0.700557 -0.038775 -0.379253 -0.525657 0.518307 -0.370534 -0.736293 -0.078512 0.407930 -0.053952 -0.229146 0.501633 0.084897 -0.147257 0.332946 0.439095 0.152787 0.476125 0.192226 -0.247676 -0.197670 0.044727 0.384969 0.349855 -0.452462 0.062091 -0.210717 0.142985 0.016942 0.320777 -0.075736 -0.032317 -0.114848 -0.095875 -0.128651 -0.561294 0.118522 0.202655 0.319025 0.114209 0.205400 0.404396 -0.021478 0.140074 -0.300745 -0.066091 -0.390542 0.111503 -0.121107 -0.528406 0.353241 -0.071432 0.089370 0.054529 -0.201621 0.202799 -0.295228 -0.117458 -0.347782 0.185430 -0.278354 -0.219408 -0.688643 -0.049393 -0.852320 -0.071098 0.234371 -0.658505 -0.096295 0.218164 0.285394 -0.027673 0.197041 -0.106986 0.352380 0.431141 0.424161 -0.346264 -0.132439 -0.484639 -0.324498 -0.402255 0.004746 0.323623 0.175975 0.165441 -0.208254 -0.592510 -0.160883 0.061614 0.016703 -0.091526 -1.079620 -0.969414 -0.507197 -0.368313 -0.717117 -0.527368 -0.108668 0.332787 -0.472387 -0.363420 0.436611 0.267810 0.212714 0.439914 -0.033043 -0.102692 -0.360827 0.294925 -0.080286 -0.200663 0.322031 0.213088 0.412875 0.163770 0.259708 0.039635 0.168699 0.200744 0.141273 -0.267012 -0.421562 -0.497972 0.105640 -0.013490 0.115365 0.385301 0.409997 0.408318 -0.403419 0.342290 0.561319 -0.355861 -0.013353 0.150095 -0.337548 0.446872 0.438481 -0.278683 0.063621 -0.340263 -0.302584 -0.181616 0.565206 -0.292135 -0.561857 -0.209489 -0.184197 0.101049 -0.514458 0.010826 -0.268175 -0.190155 0.309711 0.384566 0.636241 0.172213 -0.281810 0.285777 -0.208515 -0.105977 -0.001080 -0.275579 0.101907 0.431722 0.270716 0.145235 0.143185 0.093979 0.121097 -0.285050 0.418941 0.523057 0.176254 0.193664 -0.304074 0.246352 0.644118 0.517850 0.092704 -0.382524 0.029734 0.201550 -0.026550 -0.074721 -0.513559 -0.116586 0.188446 0.010321 -0.458300 0.403300 0.522091 0.045030 0.505680 -0.027445 -0.205937 0.281966 -0.337342 0.571703 -0.100359 0.284009 -0.240346 0.250615 0.080505 0.380018 0.051870 0.217653 -0.100987 -0.316660 -0.084280 0.539105 -0.234126 -0.409737 -0.172148 0.394932 0.024823 0.311350 -0.249615 -0.303662 -0.067989 -0.182446 0.501875 -0.203464 0.071588 0.542890 0.397528 -0.683624 0.062831 0.269531 0.320702 -0.014036 -0.266685 -0.545190 -0.170117 -0.873893 0.006801 -0.026639 -0.061336 -0.012655 -0.413424 -0.116893 -0.298496 0.252424 0.071774 -0.507156 0.166729 -0.327168 0.482251 0.446421 -0.188403 -0.172268 -0.417887 -0.266696 0.132887 0.119936 -0.270008 -0.079864 0.156988 0.290230 -0.314422 0.301825 0.141232 0.030207 0.079172 -0.517447 0.073520 0.361199 -0.488673 0.242620 -0.120063 -0.010435 -0.514365 0.338325 -0.317934 0.202916 -0.489905 0.283507 0.234499 0.286607 0.061536 -0.546140 -0.229426 0.193547 0.056627 0.493243 -0.155568 0.171749 -0.204910 0.217193 0.293753 0.136642 -0.482926 -0.431030 -0.046545 -0.322681 -0.379108 -0.216236 -0.765273 -0.194146 0.217780 -0.103868 0.406447 -0.341681 -0.007522 -0.274902 0.440143 0.070271 0.427907 0.088544 -0.108453 -0.249856 0.088007 0.100381 -0.579289 -0.438759 -0.164730 0.539286 0.693608 -0.320739 -0.338281 0.007590 0.143672 -0.148009 0.076121 -0.138319 -0.275186 0.548276 0.196997 -0.040585 -0.025933 0.326035 0.602618 -0.007736 0.442729 0.022397 -0.072401 0.014143 0.286086 -0.456007 -0.281934 -0.330503 0.174742 0.537933 0.300701 -0.322774 -0.018772 0.171400 0.479521 -0.199640 0.117151 -0.160459 0.026285 -0.357325 -0.361224 -0.279096 0.072271 0.307620 -0.295970 -0.025316 0.013473 0.297677 -0.295090 0.021063 -0.562838 0.241220 0.251284 -0.245751 0.158172 0.062709 0.147828 -0.084848 0.400998 0.028659 0.228526 -0.044740 -0.236004 0.305261 -0.600203 -0.418448 -0.779143 -0.148494 -0.545611 0.111487 0.356681 0.168480 0.376389 0.122099 0.145247 -0.341997 0.472662 -0.423891 0.321925 -0.340751 0.076528 0.529065 -0.159913 0.031002 -0.085427 0.254937 0.802407 0.722537 -0.057212 0.506717 -0.051920 -0.587668 0.048934 0.305356 -0.461218 0.364107 0.520101 -0.319471 -0.061191 -0.166954 0.309691 -0.216822 0.441150 0.136401 0.355162 0.057329 0.277796 0.455684 0.194847 0.287641 0.722544 -0.220737 0.235065 0.764381 -0.075447 0.329072 0.107572 0.137818 0.386761 0.415674 -0.379978 -0.634336 0.390253 0.291265 0.262480 0.381044 0.110031 0.277212 0.508856 0.449526 0.504339 0.223248 -0.270346 0.452488 -0.165861 -0.288024 0.175430 -0.112335 0.741665 -0.260760 0.454918 0.666980 -0.266451 -0.059982 0.521399 0.246877 0.639524 0.018332 0.457735 0.231508 -0.125887 -0.212427 0.233033 -0.366173 -0.502912 -0.073861 -0.497034 0.087869 -0.323692 0.486582 0.023364 -0.322961 0.146147 0.347639 -0.294619 -0.348830 0.462729 0.101211 -0.375872 0.210808 0.141847 0.620826 0.247996 0.568651 -0.066487 0.232192 -0.177805 -0.338804 0.394773 -0.220445 0.379745 -0.392342 -0.124378 0.013805 -0.323149 -0.088153 0.461852 -0.296754 0.479409 -0.378567 -0.376102 -0.077879 -0.220650 0.397976 -0.231650 -0.138633 0.361701 0.527370 0.545493 0.791144 0.516511 0.082457 0.491107 -0.125706 -0.266635 -0.527476 0.206799 -0.002376 -0.274419 0.113398 0.265012 -0.386667 0.191312 -0.325827 0.150840 0.392466 0.060086 0.089017 -0.475621 -0.038540 0.159024 -0.269053 0.505850 0.392855 0.480124 -0.276616 -0.218816 0.376301 -0.335597 -0.413843 0.352485 0.357532 0.004656 0.079760 -0.494347 0.173150 0.262311 0.397765 -0.196427 -0.416080 0.029151 -0.420543 -0.289059 -0.265300 -0.264472 0.345120 -0.391747 0.279196 -0.076403 -0.331461 -0.177413 -0.361448 -0.091124 -0.201926 0.522647 -0.145169 -0.116632 -0.338553 -0.385595 -0.112809 -0.386345 0.337565 -0.363286 0.099168 0.076174 -0.187384 -0.095417 -0.089659 -0.258762 
0.218449 0.003572 0.276467 0.276906 0.182975 0.503908 0.495832 0.021049 -0.413382 0.219560 0.378144 -0.346329 0.450392 0.410286 -0.022136 -0.324638 0.328042 0.298626 -0.019371 0.378238 0.357537 0.374850 -0.447612 0.273372 -0.366702 0.210300 -0.139777 -0.044076 -0.409668 0.266262 0.190580 0.293102 -0.245491 -0.021952 0.070016 0.447834 -0.049479 0.020434 -0.059947 -0.026316 -0.245354 -0.176765 0.169410 -0.238869 -0.265972 -0.302529 -0.073999 -0.501079 0.433548 0.396734 0.439415 0.320512 0.334265 0.494891 0.069994 0.437592 0.163908 0.426409 -0.112007 0.247036 0.197120 -0.415201 0.081672 0.443296 0.019156 -0.457627 0.315740 0.430355 0.107570 -0.176736 -0.002944 0.468120 0.163906 -0.317415 -0.329556 0.282905 -0.209880 0.124012 0.387141 -0.219565 0.036239 0.289434 -0.426381 -0.136317 0.280646 0.150689 -0.197471 -0.065333 0.081752 0.198148 -0.268843 -0.212904 0.273889 0.174975 -0.365532 -0.243948 0.294661 -0.408223 -0.243471 -0.028874 -0.122157 0.204438 -0.179684 0.388733 0.272824 0.003091 0.292023 -0.368821 -0.397583 0.112076 -0.130615 0.140445 -0.058227 -0.037180 0.514197 -0.294777 -0.406514 -0.180216 0.184068 0.156957 0.434556 0.205920 0.269681 0.145317 -0.032752 -0.450119 0.494350 -0.194046 -0.394936 -0.319390 0.147761 -0.148480 0.267200 0.475617 -0.190278 0.133582 -0.036736 -0.447126 0.207661 0.069306 0.220452 -0.392450 -0.267696 -0.363576 0.044430 -0.259029 -0.119615 0.152330 -0.019846 0.355979 -0.358899 -0.112769 0.194961 -0.391373 -0.312259 -0.301242 -0.306396 -0.384711 -0.067007 -0.321351 -0.287812 -0.386164 0.089276 -0.390748 -0.451395 0.370949 0.172096 0.035816 0.498739 -0.076904 -0.341239 0.196254 0.021906 -0.123525 0.390254 0.568325 0.066439 -0.489064 0.007989 -0.525590 0.517457 0.429832 0.105169 0.324502 0.588647 0.166719 0.420331 -0.323157 0.275511 -0.099092 -0.116333 0.516469 -0.170999 0.310594 -0.480667 -0.095311 0.258938 0.219592 0.465375 0.182943 -0.408279 -0.433960 -0.134837 0.104053 -0.064848 -0.407956 0.005859 0.398493 -0.256234 -0.229310 0.524046 -0.213027 0.639280 -0.087610 0.378076 0.461084 0.495459 0.315949 0.608413 0.197436 0.486308 -0.206133 0.131961 -0.188855 -0.376711 0.133461 0.210650 0.369574 -0.170951 0.118041 0.048074 -0.078966 0.150491 0.276467 0.404180 -0.400904 -0.418518 0.171239 0.603163 -0.147587 0.325607 0.359543 -0.093560 0.227642 -0.223815 -0.141380 0.241777 -0.265831 0.489452 0.154199 0.367124 0.409986 0.412960 -0.031724 -0.330327 -0.484240 -0.444056 0.318927 0.355780 -0.106406 -0.124224 -0.195905 0.216502 -0.342961 -0.112779 0.363057 -0.131816 -0.050188 -0.147474 -0.332902 0.072425 -0.442073 -0.401542 0.629394 0.386105 -0.185682 -0.248458 -0.099975 -0.023126 -0.319328 0.516688 -0.189810 -0.429791 0.405307 0.215413 -0.326409 0.366236 0.330720 -0.513038 0.165140 -0.383726 0.003673 -0.261467 0.547904 0.222815 -0.015194 0.218026 0.335006 0.306463 -0.378350 -0.381553 -0.030548 -0.249783 -0.338463 -0.114231 0.411532 -0.133865 0.084493 -0.214023 0.312163 0.253134 -0.224310 -0.401779 0.273431 -0.324510 0.372225 0.515533 -0.499927 0.086705 0.550448 0.317004 0.279898 0.032785 0.439135 0.251407 -0.334881 -0.149499 0.055489 -0.434704 -0.353626 0.196067 -0.341232 0.006759 0.293451 -0.326206 0.327178 0.189360 0.019701 -0.098922 0.459414 -0.185779 -0.412315 -0.290226 -0.080620 0.411410 -0.188369 -0.365815 0.318721 -0.249054 0.209627 0.352366 -0.349302 0.008000 -0.172517 0.430368 -0.261605 0.021707 -0.196800 0.348021 0.071947 -0.152276 -0.077874 0.087166 0.327225 -0.317614 0.235515 0.136693 0.345705 -0.275647 0.450965 0.271195 0.037659 -0.397661 0.427639 0.273064 0.379004 -0.343439 0.472940 0.268010 0.077479 0.177567 0.038138 0.062165 -0.280686 0.440353 0.038422 -0.034739 -0.116007 0.219826 -0.269653 0.350753 -0.438219 0.122974 -0.102101 0.365012 0.301169 -0.369816 -0.053633 0.129830 -0.165896 0.016081 -0.101755 0.330093 0.048996 -0.131832 0.227994 -0.044456 0.065506 0.174086 -0.296554 -0.433658 -0.092276 0.320153 0.175291 0.095739 0.172090 -0.389029 -0.441272 0.492150 0.335083 -0.216877 0.316669 0.377020 0.403853 -0.301239 0.183124 0.187159 -0.169124 -0.285012 -0.175186 0.198050 0.187475 0.284729 0.096634 -0.315930 0.518907 -0.336200 0.151625 0.019857 0.340029 0.355588 0.154512 -0.273133 0.156176 -0.259827 0.281923 -0.244264 -0.160080 0.346074 -0.244605 -0.315147 -0.376574 -0.454277 -0.515543 0.505289 -0.214660 0.330884 0.192097 0.115564 0.395770 0.533391 -0.204412 0.085221 0.129975 0.163340 0.214639 0.117691 0.343176 -0.204297 -0.373193 0.104641 -0.373094 0.177668 0.294135 0.235424 0.415906 0.071107 0.481817 -0.271496 -0.111356 -0.301824 -0.159533 -0.027034 -0.251428 -0.044507 0.011819 0.068885 -0.366112 -0.308249 -0.441404 -0.506991 -0.428543 -0.316359 -0.020039 0.211554 0.445468 -0.254830 -0.140462 0.200485 0.015879 -0.060688 -0.174765 0.148185 -0.348069 -0.411099 -0.154016 0.505213 0.131081 -0.202497 -0.311871 0.463535 -0.024239 0.073624 -0.039896 0.238991 0.445513 0.443834 -0.338453 -0.564368 -0.533040 -0.366307 -0.497070 -0.348924 -0.030173 0.082338 0.377153 -0.187743 0.318140 -0.275270 -0.392013 -0.094113 0.206172 -0.108487 0.504191 0.285734 -0.032435 -0.160221 0.265696 -0.413001 0.143200 0.420328 -0.469536 -0.405061 0.017104 0.046498 0.339888 0.003959 0.003877 -0.498195 0.048867 0.100926 -0.218299 0.055151 0.185341 0.185146 -0.337336 0.106309 -0.387946 -0.447295 0.365762 -0.307642 -0.081396 -0.001287 0.071048 -0.087752 -0.211898 -0.429774 0.287426 -0.443490 -0.342486 -0.086262 -0.433797 -0.167604 0.138749 0.177235 0.413016 -0.093228 -0.370854 -0.139913 -0.086651 0.052103 0.353032 0.135967 -0.379410 0.051199 -0.105215 -0.176957 -0.344997 -0.021083 -0.144193 0.475470 0.151703 0.256500 -0.034496 -0.270903 -0.344711 0.194020 -0.262935 0.383147 0.190116 -0.230386 -0.286970 0.232779 0.069749 0.244074 -0.197272 -0.172055 -0.431144 -0.160441 0.171495 -0.023067 0.359539 -0.046467 -0.399559 0.491148 0.498641 -0.028381 -0.198204 -0.370783 0.409314 0.116006 -0.439627 0.017490 -0.156104 -0.009578 0.227532 -0.032662 -0.379910 0.340633 -0.230927 0.363921 -0.254851 0.045468 0.167076 0.359879 -0.154996 -0.470283 -0.219150 -0.033068 -0.132713 0.402021 0.423757 -0.245394 -0.131201 0.500670 -0.281484 -0.169842 -0.076796 -0.028796 -0.080701 -0.207863 -0.422421 -0.020199 0.327033 -0.123105 0.384382 -0.040650 0.270925 -0.425152 -0.077756 -0.326386 -0.423872 0.277350 0.312510 0.343279 0.193557 -0.320504 0.333427 0.431128 0.116740 -0.291172 0.325052 -0.001934 -0.082037 -0.361051 -0.040611 0.095554 -0.055002 0.361902 -0.430976 0.364954 -0.326852 -0.396753 -0.213639 0.431416 -0.072482 -0.276792 -0.009295 -0.157866 -0.090307 -0.506898 0.054525 0.044609 0.316087 -0.124117 -0.166675 -0.028331 0.019857 -0.324696 -0.108145 -0.415809 -0.169362 -0.345439 0.042517 0.204692 -0.234040 0.493818 -0.189910 0.213426 0.352416 -0.168546 0.028764 -0.518344 -0.091148 0.352199 -0.523587 0.443516 -0.350325 0.016222 -0.201400 0.096024 0.054355 0.366272 -0.384948 -0.157176 -0.291980 -0.043811 0.300183 0.190581 0.092300 -0.361676 0.241276 0.388397 -0.220003 -0.208098 0.114195 0.058761 -0.219082 0.388454 -0.238022 -0.370052 -0.282009 0.317288 -0.352982 0.213998 0.223205 -0.323038 0.178679 0.409816 0.247794 0.507926 0.005374 -0.206650 0.351402 0.135382 0.128368 -0.464294 -0.435632 -0.108182 0.195469 0.127345 0.026485 -0.050113 0.037447 0.327039 0.254056 -0.346388 -0.104058 -0.448094 -0.454705 0.153892 -0.320677 -0.192072 0.000141 -0.110358 -0.435156 -0.227537 0.093173 0.258390 -0.304238 -0.151297 0.259033 0.205182 0.130204 
0.149691 -0.138487 -0.224813 0.155163 -0.088844 0.156989 -0.143704 -0.462589 -0.303474 0.299884 0.071743 -0.545144 -0.212076 0.019670 -0.260605 -0.093370 0.174187 -0.447081 0.390151 -0.281752 0.206794 -0.226920 -0.223309 0.459597 0.369408 0.529247 -0.335515 -0.276425 0.311973 0.384119 0.362395 -0.100983 -0.300899 -0.405627 0.510588 0.050949 0.218526 -0.184674 0.067561 0.240870 -0.732425 -0.676565 0.172733 0.014298 0.249365 -0.281823 -0.206795 0.197529 -0.066885 -0.406316 0.320599 0.540544 -0.164373 0.554016 0.481384 -0.316999 0.549482 -0.406225 -0.163872 0.285959 0.428671 -0.349434 -0.422243 0.499755 -0.353202 -0.424715 -0.040156 0.112792 -0.393351 -0.544720 0.075649 -0.237614 -0.508174 -0.084912 -0.508578 0.429635 0.300700 -0.200054 0.121360 -0.305625 -0.135868 -0.072191 -0.306242 0.151676 -0.094477 -0.397177 0.265222 -0.076521 -0.331062 0.548266 -0.371461 0.477470 -0.344318 -0.202420 0.469916 -0.322256 -0.542564 -0.216028 -0.577365 -0.147367 -0.363899 0.171243 0.448970 0.106589 -0.242595 0.528291 0.164705 -0.416049 -0.239559 -0.242746 -0.288013 0.068767 0.110530 -0.158067 -0.343931 0.477969 -0.151911 0.351942 -0.209545 -0.106868 0.407578 -0.137915 -0.158552 0.368245 -0.097217 -0.411285 -0.653081 -0.055933 -0.005325 -0.349629 -0.177083 -0.072192 0.445382 -0.225981 0.393957 -0.393511 -0.262012 0.055725 -0.347681 -0.035873 0.362060 -0.096511 0.517223 -0.149429 0.080859 -0.320890 -0.196888 0.458235 0.470576 0.008912 -0.039264 0.127327 0.239211 -0.042232 -0.399688 -0.423009 -0.532921 -0.119696 -0.307553 0.440905 0.451767 0.245561 -0.175062 0.216102 0.199152 0.494891 0.106473 0.325134 0.016893 0.291178 -0.247299 -0.294117 0.441882 -0.182851 -0.071128 0.019345 -0.174639 0.051240 0.003167 -0.632669 -0.817588 -0.009095 -0.160572 0.236033 0.053565 -0.456331 -0.116398 0.008588 0.120393 0.034038 -0.185679 -0.139360 0.245315 -0.206366 0.236055 -0.187006 -0.224032 0.018115 -0.329339 0.049349 -0.435297 0.016518 0.265931 -0.417160 0.298515 -0.166456 0.016697 0.257800 0.251801 -0.455061 0.177226 -0.693813 0.231049 -0.107366 -0.598015 -0.025488 0.380312 0.101083 0.360713 -0.244790 0.206422 -0.258439 0.073090 -0.048968 -0.056811 -0.119294 0.183491 -0.034227 0.180146 -0.476994 -0.309128 0.417099 0.123969 -0.377924 -0.516967 -0.416378 -0.248922 -0.103083 -0.798548 -0.652463 -0.922922 -0.702884 -0.429819 0.361846 0.105776 -0.157462 -0.252558 -0.040305 0.189702 -0.210792 0.165332 -0.169979 0.035073 -0.223784 0.210181 0.393236 0.025780 0.141677 0.069544 0.047602 0.394370 0.435983 0.005544 -0.176493 -0.663756 -0.219315 -0.272244 -0.297549 -0.115670 0.361033 0.028126 -0.070602 0.262826 -0.622827 -0.113257 0.149476 -0.122037 0.212677 0.485506 -0.485252 -0.275982 0.235475 -0.196318 0.134388 0.309946 -0.342539 0.127244 -0.087004 0.359000 -0.249630 -0.402858 0.202338 -0.437917 -0.234361 0.105007 -0.420504 -0.562768 0.043876 -0.050707 0.204434 -0.379607 -0.180315 -0.297244 0.565405 -0.196569 -0.086388 -0.018987 0.053717 -0.127928 0.083732 0.128545 -0.082576 -0.441279 -0.509251 -0.426592 -0.609752 -0.399714 0.086546 0.241873 -0.555337 -0.493620 0.132940 0.133186 0.120823 0.070053 0.177614 0.151159 0.205118 0.239844 -0.380253 -0.275859 0.451807 0.067282 -0.203086 0.465573 0.373709 0.294831 -0.111009 -0.094266 -0.425135 0.321730 -0.488630 -0.039543 -0.472871 -0.266599 0.365141 -0.027657 -0.361724 -0.108802 -0.508789 -0.032239 0.466527 0.441090 0.577266 -0.323084 -0.302809 -0.215911 0.483865 0.494250 -0.272214 -0.250979 -0.347350 -0.396813 0.345787 -0.041141 0.383218 0.087837 -0.230065 -0.241327 -0.425057 -0.231474 -0.333228 -0.191006 -0.495130 0.065309 -0.252197 0.412720 0.522744 0.416515 0.320055 0.352837 0.652459 0.045581 0.046849 0.378872 0.063086 0.510195 -0.180884 0.061933 0.388447 -0.102788 0.401024 -0.465551 -0.137849 0.079910 -0.010925 -0.252925 -0.264122 0.239727 0.092930 -0.049597 -0.339324 0.069297 -0.442547 -0.423698 -0.028510 0.484659 0.794802 0.401063 -0.204792 0.121365 -0.059407 -0.227425 0.262683 -0.264608 -0.370933 -0.148161 -0.402368 -0.131752 0.541545 0.403821 0.058422 0.061455 0.406949 0.382605 -0.296673 -0.075789 -0.232388 0.022851 -0.399940 0.047828 -0.048376 -0.196499 0.159411 -0.219649 0.332478 0.250786 0.252568 0.086724 -0.131254 -0.287566 -0.289752 -0.234037 -0.035667 0.390641 -0.226999 0.120942 -0.076492 -0.181015 0.222305 0.355429 -0.347812 -0.195151 0.016782 -0.406870 -0.347237 0.151982 -0.117200 -0.163317 -0.707863 0.058192 -0.340982 0.210059 -0.196129 0.574306 -0.614343 -0.746483 0.098947 0.566202 0.283674 -0.323558 -0.510588 0.341000 -0.187367 0.147066 0.173974 0.238657 -0.230791 0.289995 0.364490 0.370626 0.250329 0.481803 -0.480320 -0.431752 0.345474 0.009348 0.332196 0.000872 0.644670 0.544688 0.028547 -0.196411 0.262277 0.098485 0.515293 0.529278 0.411530 0.056707 0.041077 0.004539 0.348899 0.362983 -0.252670 -0.305194 -0.059941 0.405818 0.248324 -0.018926 0.155285 -0.080712 -0.355244 -0.238338 -0.329069 -0.075897 -0.216641 -0.502202 0.344023 0.545169 0.312823 0.113229 0.448587 0.583909 0.182306 0.178423 0.469600 0.102511 -0.328722 -0.003511 0.516395 0.233305 0.256905 0.348114 0.139345 0.536332 0.468566 0.388142 0.342438 -0.094708 -0.228399 -0.143413 0.240228 -0.065023 -0.223418 0.320367 0.491678 0.436436 0.873126 -0.023667 0.078464 0.020725 0.066922 -0.443846 0.304717 -0.354345 0.026901 -0.201334 0.027913 0.156302 0.103779 -0.112949 -0.114503 -0.249605 -0.420812 0.261353 -0.333976 0.239166 0.119248 -0.421874 -0.063059 0.334907 -0.323763 -0.441799 -0.131757 0.312973 0.531226 -0.479514 -0.361303 0.418078 -0.401978 -0.052233 -0.199474 0.086523 0.017796 -0.521529 0.452083 -0.255107 -0.177279 -0.056675 0.372943 0.318806 0.309560 -0.290197 -0.354127 0.529377 -0.284650 -0.042917 0.540243 0.217090 -0.004462 -0.054616 0.487422 0.464130 0.094960 -0.291058 -0.205184 -0.236619 -0.276759 0.288003 -0.165223 0.081866 -0.147634 0.323636 -0.038212 -0.394792 0.497553 -0.062334 -0.166180 -0.317754 0.339591 -0.321992 0.548192 0.386046 0.002345 -0.305089 0.213346 -0.017376 0.025405 0.003143 -0.198317 0.439318 0.445544 -0.483103 -0.060634 -0.364350 -0.017161 -0.207135 0.290675 0.334801 0.523322 -0.435796 -0.221806 -0.126746 0.410396 0.184179 -0.103453 0.260967 -0.411656 0.175241 0.393121 0.440768 0.445234 0.485107 0.228494 -0.135773 0.637272 -0.193339 0.379639 0.084799 0.542077 -0.369678 -0.161625 0.180664 -0.110812 -0.320803 -0.352530 0.337611 -0.121835 0.393967 0.043692 -0.072172 0.445864 0.245766 0.169152 0.214208 -0.113874 -0.454897 -0.040029 0.030597 0.297593 -0.088502 -0.045720 0.182647 -0.158496 0.575387 0.418124 -0.274477 -0.214196 0.008474 0.072561 -0.561011 0.269356 -0.453986 0.402515 -0.350968 -0.288830 -0.344506 0.479200 0.140865 0.487640 -0.048495 0.404287 0.251602 -0.371788 0.025325 -0.063379 0.042477 0.155010 0.447854 0.516135 -0.154623 -0.253899 -0.148698 0.134657 -0.387659 -0.512178 0.120354 0.118119 0.009075 -0.310325 -0.293735 0.116056 -0.497080 -0.217262 0.155141 -0.274731 0.040493 0.209032 -0.400261 0.511518 0.016450 -0.018743 0.378119 -0.256480 0.124364 -0.020362 0.233005 -0.356102 0.517711 0.127382 -0.544482 -0.415948 0.217148 -0.167400 0.511227 -0.326318 0.096626 0.059895 0.214700 -0.371316 0.365031 0.498303 0.386587 0.452228 -0.153566 -0.060924 0.548161 0.234820 0.488206 -0.419626 0.216636 -0.010664 0.041631 0.109646 0.254538 -0.329893 0.452369 -0.159050 -0.346920 0.256808 0.288831 -0.399649 -0.572003 0.033698 0.016853 0.483292 0.283749 -0.327220 0.138211 0.071940 -0.167612 -0.000636 0.057297 -0.383406 
-0.172611 0.279219 -0.073405 -0.188084 -0.030255 -0.125431 -0.154879 -0.361475 0.292333 0.334564 0.170035 0.017982 0.459723 0.118385 0.376626 -0.365463 -0.045042 0.254786 -0.167065 -0.031916 -0.120715 0.346574 -0.064204 -0.357034 0.499832 -0.449701 0.188426 -0.196707 -0.007111 -0.314113 -0.145518 0.299462 0.444526 0.270666 -0.416663 -0.111368 -0.405855 -0.103464 0.003615 0.463407 -0.220591 -0.292647 -0.045268 -0.305627 0.271754 -0.217648 -0.207188 -0.312327 0.487228 0.069674 0.105986 -0.176951 -0.082849 -0.452089 -0.031656 -0.078529 -0.396751 -0.342710 0.240593 0.101982 -0.149879 -0.444329 -0.152886 -0.231938 0.293082 -0.071756 0.135812 0.474691 0.339839 -0.353403 0.347687 -0.438279 -0.225055 -0.213541 -0.258017 -0.464087 0.015753 0.004622 -0.301653 -0.004369 -0.388047 0.341486 0.341057 0.036314 0.410863 -0.174638 0.482172 0.491389 -0.054433 0.133142 0.016574 0.244142 0.166687 0.357696 0.442043 -0.018523 -0.249057 0.099634 -0.093693 -0.398712 0.258015 -0.186357 -0.273977 -0.439659 0.089610 -0.018317 -0.407175 -0.381742 -0.474040 -0.150704 0.146276 -0.364206 -0.296798 -0.004085 0.190396 -0.415013 0.278073 0.095131 -0.452728 -0.314854 -0.275116 0.087450 0.432968 0.468112 -0.124630 0.403353 -0.027894 0.239663 0.145638 0.512256 0.411622 -0.134360 -0.247613 -0.329841 -0.085687 0.301048 0.119903 0.014895 0.455867 0.141816 0.314077 0.053563 0.237638 0.446544 -0.522971 -0.220321 -0.575609 0.124452 0.366131 -0.477674 0.327600 -0.406200 -0.029114 0.245460 -0.450553 0.366849 0.191591 0.061658 0.141165 -0.229797 -0.093921 -0.030829 0.077430 0.140811 0.113036 -0.504720 0.006583 -0.216696 0.009190 -0.083716 0.380038 -0.172738 0.445289 0.074627 -0.262457 0.491544 0.502663 -0.070303 0.289739 0.541314 0.080454 0.408637 -0.212331 0.545199 0.202125 -0.084244 0.526007 0.053422 0.393405 0.007986 0.172905 -0.124445 -0.366822 -0.073682 -0.445246 0.336860 -0.066119 0.018733 -0.455220 0.425017 0.492419 0.500568 -0.203310 0.535220 0.091591 -0.047419 0.202117 -0.034231 0.300092 0.067436 0.032058 -0.292158 -0.233942 0.087301 -0.300320 0.467330 0.571630 -0.283562 -0.029162 0.516579 0.355600 -0.229420 -0.235884 0.462336 0.066282 -0.263823 0.240159 0.517734 0.292113 0.273121 0.422878 0.308541 0.298057 -0.363323 -0.079263 -0.341428 0.048679 -0.142156 0.290344 -0.030002 -0.574334 -0.335800 0.296702 -0.096921 -0.437666 -0.381501 -0.115713 -0.478517 -0.114590 0.477678 0.419270 -0.397794 -0.464667 -0.354321 -0.496067 0.090390 -0.078141 0.205337 -0.009475 -0.259870 0.034547 -0.067247 0.163879 -0.391852 -0.153883 -0.480632 -0.171721 -0.350219 0.026281 -0.355566 0.261749 0.210146 0.126474 0.230940 -0.501081 0.088678 0.470678 0.204155 0.280821 -0.229799 -0.032831 0.163411 -0.179710 -0.033351 0.282239 -0.276096 -0.521934 -0.236972 0.526071 0.116503 -0.378114 -0.124836 -0.645264 0.245880 0.048206 0.054177 -0.425960 -0.420625 0.418888 0.382931 0.062600 0.338743 0.071498 -0.395065 0.110575 0.417571 0.456047 -0.012949 -0.088756 0.103419 0.131836 0.348390 -0.255796 0.314494 -0.236188 0.548229 -0.303707 -0.170636 -0.427065 -0.437740 0.214524 -0.508397 -0.128428 0.259950 -0.408116 -0.322435 0.073693 -0.010830 0.044526 -0.014637 -0.209051 -0.518118 -0.251270 0.543809 -0.264342 0.272887 0.324230 -0.428587 -0.341087 -0.319912 0.106162 0.179881 0.465243 0.365061 0.025616 -0.299706 0.139544 0.069966 -0.200302 0.017667 0.057711 -0.373966 0.400275 -0.326900 -0.471258 -0.373672 0.070622 0.209781 0.147001 -0.356792 -0.442597 -0.414509 -0.310424 -0.243289 -0.437006 -0.130401 0.467580 0.370020 -0.080041 0.542378 0.446406 0.497961 0.163373 0.322414 0.143342 -0.379509 0.442192 -0.279695 0.258814 -0.120784 -0.412570 -0.151575 -0.044554 -0.549712 0.235408 0.223333 -0.299569 -0.044137 -0.212298 0.336957 0.054600 -0.162168 0.376716 0.160529 0.034467 0.380549 0.501747 -0.108628 0.104221 -0.171330 -0.181647 -0.045023 -0.414610 -0.617324 -0.270393 0.222901 -0.408723 -0.313336 -0.499892 0.242809 0.011762 -0.326816 -0.046714 -0.241560 -0.342863 -0.242161 0.431502 -0.108083 0.179700 -0.195845 -0.320955 -0.405015 0.027892 -0.451780 0.247098 0.469076 0.380189 0.254316 -0.166932 -0.089462 0.403950 0.103693 -0.576171 -0.469170 0.123316 -0.289618 0.168685 0.224012 0.022277 -0.488296 0.374067 -0.162680 -0.326327 -0.224276 0.089922 -0.158334 0.018818 0.135088 0.185956 -0.456426 0.332295 0.406207 -0.328967 -0.201189 0.441946 0.473385 -0.233714 0.252677 -0.012087 0.084721 -0.239279 0.005637 -0.122854 -0.168764 0.018855 -0.352700 0.136679 -0.010068 -0.444979 -0.071764 0.095359 0.455730 0.371718 0.329470 -0.316644 0.052715 -0.388221 0.026221 0.578136 0.305495 0.089632 0.322223 0.112571 0.222202 -0.417030 -0.076746 -0.124769 -0.302702 -0.279370 -0.458736 0.428089 0.032163 -0.162700 -0.209141 0.377489 -0.386570 0.060454 0.185466 0.159565 0.103183 -0.293907 -0.203195 -0.080312 0.562398 -0.434789 -0.020988 0.008810 -0.348213 0.498029 0.028243 0.406198 0.100821 -0.243734 0.016662 -0.337766 -0.203967 0.512030 0.138176 0.056406 -0.337799 -0.052247 0.002699 0.412739 -0.344125 0.318257 0.285061 -0.339023 -0.140742 0.126287 0.520655 0.411133 0.261681 -0.261665 -0.258239 0.231423 -0.242847 0.186072 -0.332002 -0.153905 0.177426 0.089206 -0.159782 -0.405869 0.333396 0.267945 -0.294176 0.621002 0.330945 0.306175 0.223671 0.568305 -0.039080 -0.471909 0.309839 -0.134817 0.344471 0.182577 0.235875 -0.260859 -0.320638 0.207003 -0.366230 0.411247 0.346800 -0.203998 0.050900 -0.542241 0.444096 0.160390 0.007904 0.044080 -0.283435 0.136238 0.061356 0.408630 -0.249304 0.046904 0.366714 0.382893 -0.170120 -0.213275 0.330485 0.075251 -0.082325 0.174338 -0.456907 -0.215754 -0.182455 0.282636 0.020115 -0.017345 -0.095179 0.083420 -0.168313 -0.307533 0.301000 0.292429 -0.263000 0.222081 -0.092801 -0.011785 -0.444214 -0.006540 -0.411446 0.009513 -0.091623 -0.203786 -0.381546 -0.267644 -0.284592 -0.063623 0.106408 -0.392580 -0.430222 0.515035 0.265987 -0.385830 -0.225255 -0.443483 0.364993 0.318394 0.048181 -0.259001 -0.222535 0.277540 -0.070829 -0.377208 0.148369 0.154657 0.188970 0.459780 -0.276025 0.325080 0.010039 -0.234796 -0.168676 0.436475 0.072319 -0.015740 -0.285584 0.372147 0.460533 0.348483 0.420989 0.487161 0.331764 0.158808 -0.410539 -0.352025 0.205860 0.423956 0.326200 -0.328001 -0.363755 -0.418592 0.445551 0.114093 -0.349642 -0.032229 -0.340885 0.382407 -0.029631 -0.193165 0.146629 -0.473682 0.093114 -0.455129 -0.476802 -0.239906 0.094954 -0.206128 -0.416319 0.040497 -0.349718 0.516090 0.037022 0.499709 0.155797 0.094238 -0.471420 -0.209400 0.068139 0.423213 0.030857 0.139941 0.474011 -0.146771 -0.409612 -0.442845 0.411932 -0.198439 0.489546 -0.029879 0.164139 0.167637 0.012435 -0.223505 0.249500 0.089366 -0.000417 -0.171989 0.378715 0.081117 0.335486 0.507189 0.050524 -0.213570 0.390287 -0.364518 0.366547 0.458435 0.006175 -0.086633 0.281945 0.378138 0.411820 0.213284 -0.155689 -0.380776 0.372450 -0.178909 -0.048736 0.329777 0.245421 -0.422157 0.009153 -0.206700 -0.159497 -0.245891 0.378646 0.339113 0.044465 0.230958 -0.130283 -0.201316 0.119597 0.345476 0.080341 0.034846 0.521785 -0.038426 -0.004241 -0.062244 0.265650 -0.289651 -0.135229 0.232119 0.464991 0.201088 0.343440 0.288768 0.493666 -0.218925 0.123922 0.258578 -0.158393 -0.400548 -0.481492 0.150279 -0.186096 0.368411 -0.045390 0.315719 0.018773 0.262395 -0.422738 -0.328719 0.139586 0.194667 0.204386 0.119311 -0.382084 -0.338605 -0.409387 0.385815 -0.143660 -0.092359 0.071282 -0.188078 -0.386644 -0.053419 -0.371488 -0.364277 0.201128 
0.226903 0.368768 0.517331 0.314677 0.375298 0.153993 -0.384517 0.216823 -0.417389 0.413096 -0.264018 0.350651 0.510737 -0.113280 -0.036991 0.176989 -0.439559 -0.434812 0.271418 -0.309461 -0.389130 0.136652 0.055445 0.025093 -0.276293 0.374255 0.145887 0.146275 0.480364 0.259184 -0.175081 0.187585 0.108244 -0.177477 -0.017246 -0.038616 0.453781 0.074928 -0.339774 -0.477082 -0.023801 -0.117583 0.353604 -0.034858 0.249748 -0.202755 -0.376963 0.294320 -0.153355 0.380525 0.471131 -0.057065 -0.002047 0.006901 0.448506 0.202119 -0.138289 0.074868 -0.171120 -0.177218 -0.185261 0.130961 0.487305 0.399877 0.434397 -0.052160 -0.158506 0.368712 0.506482 -0.010334 0.378428 -0.031164 0.355655 0.213325 0.415853 0.089235 0.492748 -0.479340 -0.135723 -0.175739 0.383285 -0.181564 0.248246 -0.137762 0.306532 0.177197 -0.455164 -0.351456 -0.267579 -0.149580 -0.052310 0.026771 0.466200 -0.083944 -0.095804 0.376968 0.346219 0.229994 0.234801 0.342704 -0.291942 0.100049 -0.201206 -0.452575 -0.206516 -0.305880 0.115284 -0.228719 -0.300979 0.466157 0.076743 -0.436753 -0.234345 -0.194540 -0.094087 -0.447436 0.463164 -0.072290 -0.322756 -0.325561 0.261226 0.105197 0.174324 0.203800 0.504739 -0.432759 0.073920 0.344927 0.289421 -0.198179 0.183530 0.485737 0.382367 0.460463 0.509245 -0.339709 -0.362137 0.111198 -0.087526 -0.182938 0.057449 0.469409 -0.139541 0.299852 -0.248337 0.243061 0.329351 -0.305061 -0.347922 0.488589 -0.153839 0.395925 0.085718 0.512719 0.086011 0.074418 -0.435907 -0.341223 -0.080790 0.344963 -0.058533 -0.420104 0.307002 -0.190858 -0.475244 0.303861 -0.050269 -0.358066 -0.105190 0.342090 -0.061197 0.432522 0.291730 0.273495 0.208619 -0.476036 0.001630 0.026213 -0.298734 0.140419 0.009833 0.039920 0.021962 -0.417880 0.041703 -0.391127 0.150738 0.092394 -0.255497 -0.452011 -0.084684 0.174721 -0.385959 -0.289535 0.463775 -0.382071 0.494509 -0.106200 -0.259947 -0.132983 -0.287718 0.151052 -0.224488 0.481758 -0.087111 0.470536 0.479877 0.393046 -0.019053 -0.325247 0.024681 0.476537 0.197072 -0.464077 -0.462556 -0.279662 -0.373832 0.174796 0.294083 -0.136684 0.210305 -0.303412 0.517283 0.303753 -0.113692 0.460359 0.398518 -0.141902 -0.170529 -0.384504 0.203416 0.024398 0.247534 0.453589 -0.019476 -0.354451 0.426621 -0.026516 -0.452289 -0.096508 0.134579 0.048728 -0.139352 -0.187715 0.068160 -0.108520 0.019024 0.193612 -0.445862 -0.198904 -0.465471 0.243625 -0.022856 -0.468827 0.024310 0.343963 0.470489 -0.093127 -0.324691 -0.223283 -0.001238 0.361737 0.290047 -0.252203 0.328272 -0.224844 -0.106858 0.241368 0.226593 -0.087104 -0.377882 -0.156856 0.448467 -0.032823 0.139811 0.013760 0.350659 -0.346753 -0.310607 0.384340 -0.065899 -0.296300 0.105213 0.391780 -0.286188 -0.386314 0.207254 -0.345316 -0.011675 0.362619 -0.077825 0.486233 0.231989 -0.293251 -0.277675 0.041580 -0.037394 0.090075 -0.236233 -0.325733 0.489795 -0.130211 0.000669 0.429801 0.328703 -0.365076 -0.074426 0.158541 -0.234992 0.092019 0.020008 0.182104 0.277504 -0.389965 0.043253 0.458792 -0.306613 -0.263658 -0.386048 0.185519 -0.394032 0.031896 0.158093 0.322787 0.219899 0.360113 -0.148709 -0.328334 -0.060234 0.099063 -0.172116 -0.082544 0.458269 0.321130 -0.174131 0.266348 0.431389 0.226958 -0.099570 -0.321523 -0.198349 0.403480 0.338445 -0.443012 0.488810 -0.130015 0.507246 -0.322988 0.102907 -0.383759 0.355297 0.201418 0.134790 -0.002755 0.010380 -0.154065 -0.155433 0.342722 -0.003055 0.271611 -0.067650 0.318041 -0.329664 -0.129801 0.114749 -0.028155 -0.385418 0.033710 -0.313403 -0.001484 0.196745 -0.029323 -0.110343 0.021063 0.006109 -0.146961 0.370668 0.009028 0.022907 -0.035543 0.108750 -0.140985 -0.353737 -0.265221 0.346067 0.145112 0.060632 -0.321961 -0.020497 -0.449848 0.432567 0.390124 0.343765 -0.421693 -0.260455 -0.054079 0.037758 -0.165353 0.460137 0.203540 0.319514 0.132644 -0.349021 -0.320233 -0.361687 0.158086 0.036947 0.503175 -0.348774 -0.454932 -0.047870 0.245944 -0.113208 0.099584 0.476659 -0.266863 -0.263796 0.025523 -0.108925 0.194239 0.051099 -0.200975 0.064009 -0.117638 -0.135060 0.284043 0.308911 0.381979 -0.394514 0.245247 0.062431 0.395648 -0.133742 0.209800 -0.426909 -0.007789 -0.155532 0.084872 -0.024194 -0.022957 0.108612 0.432214 -0.271456 0.506707 0.023042 -0.310692 -0.282447 0.238264 0.188625 0.084315 -0.088913 -0.271167 0.370871 0.455032 0.089804 -0.286518 0.226198 -0.123268 -0.425684 0.308898 -0.383944 0.129788 0.189094 -0.031904 -0.175346 0.247998 0.450310 0.149960 -0.191160 -0.081215 -0.372448 0.427185 -0.158726 -0.159840 0.412057 0.343671 0.005058 -0.394481 0.061997 -0.315744 0.176758 0.451537 -0.108823 0.026300 0.394677 0.461996 0.222047 0.095375 -0.172568 0.285492 -0.113859 -0.069888 -0.095928 -0.432973 0.379436 0.199862 0.287870 0.310866 -0.153119 -0.394787 -0.274950 -0.035681 0.510959 0.046019 0.281301 0.399658 -0.133730 -0.226364 0.490828 0.410107 -0.065951 0.145940 0.340061 0.300784 -0.349544 0.214101 0.260952 0.370233 -0.199746 -0.422024 0.141151 0.172758 -0.013421 -0.484614 0.215335 -0.141369 0.224617 0.005900 -0.338857 -0.441823 0.088749 -0.134508 -0.000830 0.076372 0.388273 -0.233857 -0.039717 -0.260958 0.008602 -0.077783 -0.373114 0.430993 -0.442413 0.450078 0.230016 -0.297062 0.153359 -0.029913 -0.451231 0.425489 0.020963 0.164003 0.088480 0.509130 0.188739 -0.201048 -0.151006 -0.107208 0.283266 -0.009492 -0.071817 -0.150747 0.333311 0.412936 0.409772 0.205593 -0.351514 -0.157069 0.416604 0.144483 0.251554 -0.472978 0.070518 0.304255 0.468577 -0.219330 0.488790 0.113829 0.245598 -0.467405 0.036218 -0.238254 0.191433 -0.389090 -0.250188 -0.140366 -0.111647 0.078934 0.231908 -0.348886 -0.451132 -0.359743 -0.020899 0.363331 -0.465688 -0.127228 0.049760 -0.329887 0.202512 -0.042387 0.305442 -0.054398 -0.022641 -0.129617 -0.254883 -0.064395 0.141568 -0.277489 -0.468677 -0.135101 -0.266570 0.045455 0.109561 0.407589 0.138347 0.339544 -0.252959 0.506652 -0.104176 0.456950 -0.364313 -0.074783 -0.417228 0.101635 -0.229008 -0.406079 0.443757 0.295608 -0.254460 0.135291 -0.256309 -0.453219 -0.422877 0.202987 -0.101055 -0.197234 -0.383601 -0.481677 0.003620 -0.368694 -0.130502 0.222279 0.159416 0.459145 0.109973 -0.222069 0.278847 0.335033 -0.237502 -0.344854 0.275087 -0.121432 0.061256 0.335695 0.453700 0.307385 0.407739 0.392848 0.102489 -0.348791 0.024994 0.326288 -0.321967 0.080080 0.009457 0.059676 0.366168 0.111924 0.061785 -0.147179 0.223438 0.411363 -0.444476 -0.136700 0.350949 0.145913 0.121704 0.107706 -0.038502 0.362023 0.241113 -0.285513 -0.276104 -0.212684 -0.464893 -0.327804 -0.410991 0.437056 -0.444522 0.174585 -0.428831 0.060250 -0.014437 -0.265910 -0.374116 0.478428 0.274821 0.472554 0.070370 -0.183549 -0.194277 -0.225789 -0.291756 -0.158347 0.117965 -0.460446 0.468144 -0.279826 0.127437 -0.090543 -0.435151 -0.144102 0.111199 -0.223940 0.130268 0.133358 -0.067696 0.205819 0.057010 -0.027054 -0.137092 0.110838 0.516436 0.329169 0.325588 -0.377649 0.287555 0.080315 -0.424713 -0.161699 0.377234 -0.138601 0.092950 -0.434173 0.183603 -0.308558 -0.414375 0.131608 -0.108439 0.196031 -0.475888 -0.060395 -0.464914 0.118373 0.198086 0.148002 -0.265579 -0.386638 -0.166130 0.271477 0.066761 0.177283 -0.137291 0.062978 -0.013604 -0.331711 0.165722 -0.245666 0.229004 0.221382 0.073052 0.086585 -0.436840 -0.353451 0.132916 0.227096 -0.181873 0.198955 -0.160839 0.189939 -0.124757 -0.156512 -0.390226 -0.109504 0.442261 0.288432 0.518995 -0.343233 0.382107 -0.167146 0.408363 -0.071172 0.490407 -0.248767 
0.408425 -0.062768 -0.061723 0.233031 0.310872 -0.351518 -0.220584 -0.289488 0.171123 -0.133025 -0.118474 -0.242717 -0.430055 0.163376 0.450479 -0.153078 -0.210381 -0.224489 0.219856 -0.073317 0.160484 0.088764 -0.354970 0.148285 0.227685 -0.461447 0.487551 0.141712 -0.050997 0.455555 0.429015 0.034542 0.026454 -0.120166 -0.526074 -0.454662 -0.148528 -0.174367 -0.177654 -0.501221 0.160469 0.159480 -0.226749 0.157288 -0.243853 -0.308996 -0.406485 0.130933 0.005273 0.232095 -0.508817 -0.329806 -0.149090 -0.297358 0.371276 -0.368854 -0.261493 0.348218 0.393531 0.318989 0.424428 0.212915 -0.435151 -0.329394 0.415987 -0.394366 -0.231373 -0.250312 -0.066668 0.092640 -0.241753 -0.437779 -0.304208 -0.005056 0.291320 0.069165 0.227973 0.342866 -0.417045 -0.271231 0.049582 -0.358674 -0.045003 0.436032 -0.128865 -0.170884 -0.273245 0.252299 -0.266525 0.445935 -0.146766 -0.514812 0.047498 -0.051084 -0.245039 -0.020371 0.115922 0.081825 0.211798 0.487091 -0.415328 0.417989 -0.436373 -0.150196 -0.059738 0.280490 0.321102 -0.302633 0.091110 0.536295 0.015958 -0.255642 -0.347206 0.425193 -0.191435 0.193995 -0.063380 -0.125614 -0.297297 -0.051631 -0.353715 -0.015776 0.072075 0.154130 0.356953 0.080604 -0.467595 -0.086906 -0.231854 0.415817 0.098808 -0.105972 0.236810 -0.073228 0.127278 -0.258699 -0.196763 0.096109 0.000725 0.453562 0.035159 0.418082 -0.311021 0.297926 0.504502 -0.219745 -0.318430 -0.579086 -0.196422 -0.319061 0.073944 0.154522 0.316512 -0.596196 -0.151376 0.351425 0.375377 0.052512 -0.073816 -0.365328 -0.067464 0.300490 0.050181 -0.192470 -0.098515 -0.267199 0.046440 0.287210 0.197556 0.378192 -0.018749 -0.266390 0.338330 0.148385 -0.666216 -0.114528 -0.747190 -0.437302 0.363789 0.124261 0.247064 0.142672 0.123714 0.446951 0.497595 0.721731 0.317796 0.144172 -0.052397 0.404034 0.116831 0.412567 0.503533 -0.292914 -0.443297 -0.098833 -0.248302 -0.057586 -0.589677 -0.520193 -0.046626 0.152181 -0.420222 -0.533683 -0.355083 -0.376189 0.318194 -0.257785 0.174478 0.627817 0.918885 0.138395 0.000879 0.033039 0.508408 0.599442 -0.274550 -0.086194 -0.130009 0.120963 0.060540 -0.461672 -0.207614 -0.090078 -0.418052 -0.161846 0.140104 -0.067734 0.439567 0.421750 -0.041739 -0.313958 -0.148314 0.244568 0.016907 0.166012 -0.410284 0.171199 -0.331368 0.327075 0.033539 -0.247739 -0.620902 0.435214 -0.227245 0.463462 0.103513 -0.029790 -0.056077 -0.379910 0.449757 0.448492 -0.416859 -0.244757 -0.075448 -0.256418 0.309001 -0.385670 0.110159 -0.142994 0.201344 -0.537135 0.042763 -0.500744 0.306466 -0.028088 0.214376 -0.546120 -0.510528 0.444981 -0.093615 0.093247 -0.478542 0.298952 -0.294746 -0.130575 0.203515 0.455637 0.367247 -0.409427 -0.436118 0.389394 -0.319401 -0.146828 -0.202660 -0.047882 -0.141202 0.246110 -0.127019 -0.502731 -0.216622 -0.430687 -0.511619 -0.361975 -0.418003 -0.631997 0.199138 -0.096469 -0.541051 0.403386 -0.483996 0.304978 -0.147051 -0.265255 0.076462 0.087494 0.127421 -0.317495 0.068489 0.108784 -0.191872 0.198643 0.010186 -0.021126 0.215506 0.093657 0.139600 -0.194873 0.046157 -0.340115 -0.418838 -0.899661 -0.374772 -0.306707 -0.350548 0.480531 -0.023117 -0.289053 -0.561143 0.426986 -0.412397 -0.250992 -0.008840 -0.161799 0.028580 -0.443375 0.495743 -0.174143 -0.212045 -0.020692 0.416477 0.146629 -0.472566 -0.221231 0.562583 0.702298 -0.362689 0.233026 -0.406419 0.000744 0.450694 0.071360 0.148444 0.153737 -0.509301 -0.339475 -0.320690 0.522414 -0.085320 -0.058923 0.020310 -0.175211 0.249154 0.530112 0.105875 -0.126726 -0.459096 -0.080736 0.030821 -0.149786 -0.406598 -0.062942 0.474289 -0.141752 0.415346 0.272562 -0.305054 0.411212 0.264513 0.042958 0.277279 0.407785 0.608655 0.149490 -0.239766 -0.266174 -0.044359 -0.221824 0.350112 0.162240 0.209675 -0.255941 0.466965 0.101664 -0.131704 0.005984 0.457745 -0.117373 -0.490820 -0.011130 0.172739 -0.226762 -0.302069 -0.136396 -0.313063 0.275333 -0.096844 -0.006239 0.494989 0.459228 0.141668 0.052144 0.120541 0.372558 0.381116 -0.046111 0.205546 -0.227522 0.203461 -0.094653 0.474289 0.037983 0.359731 0.412638 -0.428394 -0.379967 -0.161619 -0.566388 -0.104107 0.202783 0.264957 0.390799 0.189996 0.161309 0.089114 0.528647 0.229006 0.271522 -0.166318 0.196958 0.317954 -0.099715 -0.184946 0.473568 0.153458 -0.440457 -0.208533 -0.300446 -0.126274 -0.381963 0.491919 -0.068222 0.097769 0.226552 -0.282552 0.146758 0.121925 0.427268 0.323647 -0.334974 -0.143833 -0.195992 -0.483178 -0.459509 -0.299294 -0.025910 -0.608434 -0.654060 -0.200279 0.047071 0.199490 0.347938 -0.003779 0.489301 0.242698 -0.195573 -0.404239 -0.380199 0.355493 0.042580 -0.309515 0.016116 0.187486 0.254436 -0.289580 -0.144731 0.038566 0.428210 0.371275 -0.254229 -0.410575 -0.281339 -0.004188 -0.704049 -0.553510 0.283535 0.040896 -0.173402 0.365628 0.123188 -0.029277 0.128099 -0.082733 -0.447619 0.084011 -0.376176 -0.124606 0.334777 -0.152313 -0.397962 -0.260809 -0.013958 -0.077671 -0.347935 -0.234725 0.485214 0.070247 0.660140 0.485619 -0.269537 -0.523879 0.322188 -0.191728 0.406108 -0.305128 -0.033257 0.096427 -0.170921 0.162937 0.395439 -0.327940 -0.210414 -0.033753 0.082878 -0.131917 -0.253234 0.412047 0.283398 -0.586503 -0.285896 0.174934 -0.291718 0.131144 -0.051301 0.064957 -0.220067 0.106495 0.441755 -0.460791 -0.090164 0.497573 -0.226486 -0.186155 -0.146646 -0.577149 -0.378267 0.226180 0.423891 0.205847 -0.072201 0.304173 -0.532447 0.371497 -0.110801 0.187023 -0.266591 -0.000799 0.088999 -0.531733 0.183431 0.427391 0.418954 -0.398446 0.416836 0.201571 0.260153 0.398836 0.231385 -0.435024 0.309009 -0.519244 -0.326776 -0.605578 -0.110803 -0.003669 -0.371925 0.224150 -0.255643 -0.465078 -0.019986 0.283558 0.415290 0.104661 0.222784 -0.085570 -0.065223 0.647750 -0.231938 -0.274085 -0.254558 0.169143 0.344829 0.327256 0.215340 0.163510 -0.303813 -0.239258 0.070596 -0.344386 0.017672 -0.346033 -0.379361 0.180119 -0.197550 0.195006 -0.311385 -0.170606 -0.197993 -0.131250 -0.036150 0.467619 -0.158471 0.240338 0.190113 -0.320605 0.729433 0.644577 0.792666 -0.314923 0.494631 -0.445840 0.333141 0.476301 0.340514 0.139192 0.232861 -0.058469 0.448685 0.427699 -0.384839 -0.293339 -0.351842 -0.063924 0.433436 -0.124213 -0.495527 -0.484166 0.303975 -0.084351 -0.009855 -0.116828 0.006561 0.429880 0.743574 -0.283337 0.564102 0.605917 -0.435050 0.372122 0.451701 0.595231 0.409663 0.399466 0.584470 0.499642 -0.106795 -0.049238 0.390105 0.535427 -0.241488 -0.403536 -0.291360 -0.129153 -0.020857 -0.410880 0.286805 0.038933 -0.329906 0.301952 0.626260 0.255630 -0.214146 0.097393 0.050142 -0.407960 0.083731 -0.080184 0.536721 0.204585 0.042024 0.681136 0.313558 -0.051866 0.386817 0.016651 0.500524 0.535238 0.248511 0.244022 0.347973 0.479246 0.321094 -0.461548 -0.135084 -0.183786 -0.345775 -0.326495 0.368141 -0.128171 0.403578 0.414697 0.532926 0.458195 -0.198738 -0.025305 0.403820 0.338857 0.577692 0.613857 -0.109625 -0.190071 0.415010 0.224309 -0.237695 -0.018648 -0.377079 -0.372303 -0.156052 0.342619 0.347507 -0.329961 0.331191 0.178758 -0.271808 -0.299484 -0.491412 -0.116868 -0.095766 0.371252 0.161243 -0.358677 0.180196 0.191589 -0.356922 -0.389785 -0.176684 -0.258839 0.451099 -0.198358 0.562312 -0.493035 -0.226608 0.316640 0.254065 0.056441 -0.216169 0.353781 0.161668 0.106878 0.205391 0.018779 0.284162 0.054835 -0.292300 -0.490352 0.261344 -0.274435 -0.153341 -0.411726 -0.471715 -0.468292 -0.160405 0.335018 0.263177 -0.001829 0.389051 0.557031 0.157142 0.155757 -0.378388 0.024144 0.072585 -0.186345 -0.207263 
-0.184924 0.358843 0.064953 -0.329000 0.022666 -0.327480 0.377383 -0.457992 0.456474 -0.079216 -0.254766 0.461964 -0.327657 -0.046429 -0.163167 -0.192357 0.029698 -0.110030 0.156438 -0.171368 -0.383661 -0.381298 -0.367469 -0.460958 0.136488 0.197011 -0.425505 -0.375982 -0.231341 -0.112797 -0.084200 0.083860 -0.253814 0.480921 0.255014 0.269005 -0.346429 0.132526 0.311137 -0.389832 -0.446534 -0.443504 -0.427732 -0.274066 0.010157 -0.090818 0.033693 -0.459916 0.299387 -0.309712 -0.131169 0.415829 -0.190910 0.001500 0.455013 0.445735 -0.301334 -0.470365 -0.430122 -0.032555 -0.083036 -0.014189 -0.448530 0.163285 -0.033145 0.306616 -0.067589 0.120565 -0.060726 -0.256320 0.230847 -0.007177 -0.199716 0.303248 0.218897 0.310627 -0.287377 -0.247258 0.350864 -0.487857 -0.056839 -0.280155 0.428116 0.252423 0.221484 0.383254 0.198273 0.420289 0.413021 0.268291 -0.112139 -0.169885 -0.245769 -0.060541 0.493563 0.221263 -0.253746 -0.073884 -0.158036 0.185633 0.169941 -0.427011 -0.321353 0.470406 0.376417 0.397720 0.281208 -0.410800 -0.349361 0.132200 -0.398507 0.093950 0.352188 -0.470268 -0.153501 0.073800 0.413123 -0.455080 -0.005784 0.326270 0.313320 0.382231 -0.343467 -0.432241 -0.178113 -0.349735 0.289247 0.068369 0.076607 -0.368646 -0.245848 -0.253287 -0.295494 -0.067164 -0.282803 -0.418998 -0.169259 0.498549 -0.329645 -0.018481 0.130897 -0.228024 -0.424369 -0.016779 -0.198151 -0.077740 -0.442818 -0.284898 -0.032720 0.051541 -0.458451 -0.219164 -0.065942 -0.301678 -0.151192 0.256095 -0.151278 -0.361905 -0.175521 0.425358 -0.230517 0.078658 -0.327858 -0.025935 -0.488299 -0.110530 0.055095 -0.157540 -0.111972 0.225577 0.324121 -0.480910 0.497709 0.399876 0.002411 -0.200306 -0.177726 0.059739 0.014905 0.289725 -0.388487 0.056665 -0.429223 0.045610 0.254987 -0.080423 -0.198332 -0.396286 0.057681 0.126174 -0.470918 0.327184 -0.295107 -0.298736 -0.198800 -0.283488 0.090654 0.356445 0.059086 0.478872 0.082172 -0.116662 0.498081 0.080025 -0.216596 0.000676 0.379928 0.105865 -0.439391 -0.105005 -0.104323 -0.327875 0.451602 -0.033520 0.217731 0.206607 0.386101 -0.480444 0.310464 -0.056073 0.145785 0.339591 -0.228938 0.350628 -0.459194 0.072396 -0.432732 0.131620 -0.071004 0.126492 0.110597 -0.488665 -0.489957 0.108858 0.091557 -0.206389 -0.390292 -0.028460 0.399515 -0.329656 0.366456 -0.204719 -0.157479 0.318148 0.261881 -0.439516 0.024996 0.148221 -0.419908 -0.164526 -0.407919 0.225826 -0.324979 -0.136722 0.076573 -0.284025 0.435848 0.143980 0.347711 -0.135044 -0.229353 -0.041509 -0.123475 -0.219063 -0.432421 0.468105 0.074478 -0.322779 -0.060447 -0.025933 -0.152398 -0.193899 0.269465 0.190292 -0.375588 0.031484 0.250895 0.149508 -0.320269 0.330940 0.484934 -0.228060 0.056890 -0.339896 0.135378 -0.366368 -0.123831 0.071308 0.277770 -0.275948 0.436551 -0.451306 0.182708 -0.186966 -0.170542 0.250220 -0.218901 0.404060 0.427535 0.220800 -0.121751 -0.224704 -0.472930 -0.352124 0.465780 -0.348332 0.179555 0.216709 0.301121 0.359338 0.047685 0.286191 -0.368577 -0.395263 0.446417 0.266946 -0.261461 -0.177232 -0.161471 -0.483442 0.046992 -0.224954 -0.434874 -0.270258 0.088087 -0.105309 0.480070 0.369384 -0.201076 0.407757 0.090319 0.177320 -0.316760 0.117595 0.325397 -0.350938 0.269218 0.004901 0.365740 0.070458 -0.135598 -0.086436 -0.143172 -0.004039 0.018474 -0.196638 -0.236897 0.257210 0.126271 0.101640 0.273711 -0.326632 0.376693 0.338907 -0.096825 -0.035032 -0.266185 -0.116605 -0.165496 0.032836 -0.208642 0.425054 -0.289610 -0.025357 0.042601 -0.464244 0.123663 -0.188040 0.040809 -0.010457 0.382617 0.405374 0.403304 -0.260454 -0.098464 -0.078022 0.043058 0.164632 -0.320839 -0.330532 -0.233668 0.452961 -0.157101 -0.356797 0.292030 0.246226 0.108301 -0.474054 -0.370144 0.443037 0.059000 -0.078739 0.368041 0.269346 0.395865 -0.089224 0.305252 0.019660 0.222921 -0.153805 -0.490598 0.105620 -0.248234 0.412880 0.345307 0.153287 -0.165193 -0.111528 -0.181999 0.014060 0.058029 0.084453 -0.032869 0.401081 0.227765 -0.240728 0.147508 -0.163742 -0.214607 0.277377 -0.220763 0.344350 -0.301408 -0.352579 0.113820 -0.405405 0.058363 -0.080794 0.114425 -0.218602 0.265633 0.124029 0.387252 -0.482533 0.036869 0.232608 0.170742 0.371796 -0.378807 0.488863 -0.114039 0.179442 0.073518 0.353317 0.080616 -0.198619 -0.387317 -0.271860 0.137600 -0.101971 -0.494506 0.416997 -0.257451 -0.295774 -0.435414 0.356536 -0.201020 0.123054 -0.224042 0.413602 0.404680 -0.458374 0.037558 0.291885 -0.440974 -0.425427 0.024614 0.229850 0.446435 0.145990 0.218911 -0.167376 -0.174557 -0.207560 -0.314052 0.406084 0.093774 -0.201408 -0.365808 -0.268468 0.196790 -0.360158 -0.351288 0.439512 -0.155763 -0.286598 0.296122 0.143282 0.336637 -0.427828 0.057009 0.241365 -0.386149 -0.405301 0.033380 -0.327047 -0.330644 -0.441972 0.402886 -0.384103 0.204036 0.121811 -0.051478 -0.470485 0.414221 0.134432 0.435564 0.008123 0.433190 -0.430097 0.239815 0.130130 -0.290096 0.388673 0.069707 0.054179 -0.397783 -0.133969 -0.302359 0.438868 -0.061785 0.254652 0.180218 0.052037 0.349366 -0.286413 0.225005 -0.481334 -0.228386 0.127915 -0.365400 0.475704 -0.250304 0.083074 -0.494820 -0.335948 -0.282332 0.440882 0.172324 -0.348979 -0.489047 -0.087657 0.281289 -0.279021 -0.198886 -0.148886 0.275335 -0.096564 0.217188 0.472959 -0.157699 -0.344535 0.227693 -0.477514 0.207472 0.076922 -0.263835 -0.067408 0.095758 0.007838 -0.439541 0.230300 -0.016529 -0.189722 -0.186477 -0.011207 -0.025529 0.031340 -0.070157 -0.353013 0.182504 -0.059076 0.059424 -0.036129 0.161962 0.360628 0.315065 -0.062709 -0.235941 0.032310 -0.089679 0.106369 0.187789 -0.361990 0.129067 -0.104517 0.215176 0.365281 0.328032 -0.189121 -0.126942 0.388624 -0.458678 0.356690 -0.300945 -0.145019 -0.154354 0.173681 0.386518 0.275653 0.320822 0.069142 -0.283308 -0.119654 -0.466876 0.378777 -0.258876 0.348358 -0.183773 0.005273 -0.119232 0.226669 -0.388069 -0.431151 0.364955 0.241070 -0.035704 0.080081 0.106294 -0.207536 0.391118 0.479521 -0.318757 0.432576 0.336368 -0.119568 -0.212163 -0.317745 -0.445633 -0.325519 0.457938 0.375215 0.243639 -0.325256 -0.244298 0.276947 -0.446313 -0.003080 0.125401 -0.129968 -0.497497 -0.493527 -0.403089 -0.385580 -0.424705 0.461914 0.355534 0.039720 0.042123 -0.038032 0.332357 -0.066629 -0.058381 -0.486272 -0.133790 -0.221762 -0.105594 0.154117 -0.039556 -0.051274 0.328530 -0.081506 -0.175930 0.072306 0.093382 0.079886 -0.150594 0.147232 -0.422883 0.475084 -0.482545 -0.420400 0.481524 -0.385501 -0.305851 -0.443049 -0.423454 -0.450176 0.096816 0.118804 0.011921 -0.070695 -0.447540 0.453835 -0.056694 -0.081239 -0.267946 0.337695 -0.427195 0.192619 -0.213451 0.401477 -0.388718 0.110835 -0.025954 0.204944 -0.309066 0.323627 -0.147751 -0.231977 0.298680 -0.130164 -0.152249 0.280337 -0.015539 0.042035 0.337436 0.061138 0.091989 -0.065618 -0.319860 -0.395884 0.363971 -0.267250 -0.441919 -0.192676 0.151538 -0.209737 -0.354858 0.224486 0.483041 -0.068149 0.126141 -0.405493 -0.457298 -0.399816 0.299433 -0.266304 0.423857 -0.348183 0.001836 0.222661 0.021782 0.349754 0.003133 -0.493599 -0.108089 -0.159303 0.067707 0.484100 0.275351 0.248090 -0.411570 0.139367 0.480885 -0.353425 0.446755 0.132488 -0.063096 -0.408011 -0.142929 -0.079955 0.023809 0.483190 0.014510 0.066646 -0.416504 -0.185933 0.300475 -0.492512 -0.033986 -0.197546 0.230285 0.487964 -0.347646 -0.266420 0.494522 0.044425 0.074427 0.062371 0.028757 -0.150067 -0.189401 0.117237 0.489373 -0.208425 0.263910 0.436119 0.424058 -0.299188 -0.471833 -0.218823 0.120896 0.052106 
